sequential/gru/kernel:0
(1, 240)
[[ 0.25881836 -0.45921627 -0.29351184 -0.27264506 -0.31867188 -0.21263273
  -0.29576537 -0.24109656 -0.3322337  -0.5254432  -0.41501144 -0.21243095
  -0.45334616 -0.51901174 -0.25140163 -0.28437522 -0.43728074 -0.39668176
  -0.37870404 -0.4672851  -0.2128595  -0.08798479 -0.26391336 -0.4327344
  -0.29048085 -0.52816194 -0.18281747 -0.10668059 -0.43717244 -0.32836324
  -0.19485219 -0.24592663 -0.45618698 -0.4728986  -0.5083117  -0.4794391
  -0.30743942 -0.30052897 -0.34572467 -0.39908752  0.14139682 -0.5177469
  -0.6192288  -0.13390426 -0.42788383 -0.42395127 -0.43325812 -0.23540772
  -0.301687   -0.38175747 -0.5499914   0.01538024 -0.5090757  -0.43138835
  -0.25800246 -0.30958524 -0.38601193 -0.17926294 -0.30799115 -0.5079948
  -0.48982015 -0.33785176 -0.22230369 -0.06807303 -0.40900913 -0.1987169
  -0.42905337 -0.37684962 -0.377097   -0.40746483 -0.4109121  -0.16460767
  -0.32844314 -0.4555739  -0.20367856 -0.2674111  -0.51581067 -0.5338582
  -0.57464266 -0.26256034  0.00310974  0.0038207   0.10043596 -0.02148761
  -0.03595802 -0.03439964  0.08792184  0.03053558  0.08039282  0.15203641
  -0.03855364  0.12985128  0.01432172  0.037864    0.04726859  0.11898069
  -0.16846839  0.10892976 -0.11661077 -0.10504723 -0.06925596  0.06215252
   0.03418664  0.14952613 -0.00925398 -0.04339362 -0.15364356 -0.03345648
  -0.0237633  -0.02190445  0.07505029  0.00814935  0.10796619 -0.10899831
  -0.03598368  0.06827434  0.14727293 -0.04534335  0.04924919 -0.04357647
   0.00279004 -0.0024946   0.03344054 -0.13225742 -0.02795915  0.01352605
   0.10151313  0.10368285 -0.12462149  0.02437312 -0.01131129  0.12406391
  -0.1199761  -0.15714979 -0.00223937  0.13737479  0.0293248  -0.08516577
   0.05737327  0.08454392 -0.15841442 -0.14530443  0.01821775  0.00899364
  -0.09690285 -0.00267804  0.08899517 -0.10176777 -0.02003874 -0.10546616
   0.08424939  0.08089805 -0.01907288  0.07870413 -0.09354649 -0.00927175
  -0.05027279  0.04800928 -0.01858375 -0.14722857 -0.11541434 -0.08292696
   0.09977626 -0.02692891 -0.1375326   0.12346891  0.02585647 -0.06561981
   0.06291885  0.13436893 -0.08430168 -0.05677658 -0.02496999  0.0717499
   0.07223007  0.0963681   0.1401815  -0.04374414  0.10439511  0.15978307
   0.08014733  0.04796562  0.13789044 -0.14133324  0.13006163 -0.09261806
  -0.11915855 -0.05389837  0.14186643 -0.10321832 -0.0694693  -0.03703028
   0.06073337 -0.03008943  0.14486186 -0.05764392 -0.07549432  0.10189648
   0.07121265  0.07210792  0.00316267  0.09555359  0.0837381   0.12433947
  -0.09296858  0.01915382  0.0718739   0.14282562 -0.03063208  0.07830716
  -0.10957882 -0.01803446 -0.06842048  0.1158938  -0.09441303 -0.01230455
   0.01350321 -0.1010562  -0.11353023  0.11328511  0.14384468 -0.13328576
  -0.13955112  0.01332799  0.071157   -0.12670623  0.05771183  0.13805977
  -0.14561024 -0.04926156 -0.04212339 -0.05906376  0.06114385 -0.15243176
  -0.11079754 -0.01998808 -0.09268541  0.09823945 -0.12690657  0.01720411]]
sequential/gru/recurrent_kernel:0
(80, 240)
[[-0.21458814  0.09397252  0.11358371 ...  0.04019103 -0.14558321
  -0.09860671]
 [-0.12769683  0.08298973  0.15465066 ...  0.03653214  0.05562551
  -0.0369587 ]
 [ 0.059871   -0.13282375 -0.17816797 ... -0.0358427  -0.09045497
  -0.05211437]
 ...
 [ 0.10852716 -0.11624525 -0.03803083 ...  0.01047835 -0.01913985
  -0.09913651]
 [-0.09332045  0.03183554  0.08414403 ...  0.03945874 -0.05565608
   0.00782029]
 [ 0.01696064  0.11873613  0.07467713 ... -0.07966319  0.09981404
  -0.05266621]]
sequential/gru/bias:0
(2, 240)
[[ 1.92803234e-01 -4.79441881e-01 -4.98498917e-01 -1.81200817e-01
  -5.12773216e-01 -4.28844571e-01 -3.48247677e-01 -4.62633193e-01
  -4.63760614e-01 -4.89151895e-01 -4.67887849e-01 -3.25173348e-01
  -4.04071152e-01 -5.05727947e-01 -4.47000831e-01 -5.38296878e-01
  -4.54644084e-01 -4.73972410e-01 -5.67351818e-01 -7.03245282e-01
  -3.81267577e-01 -4.59133722e-02 -4.43338275e-01 -5.30703545e-01
  -4.14132595e-01 -5.84809899e-01 -4.00108099e-01 -1.65272161e-01
  -4.19067889e-01 -4.27451313e-01 -3.79347026e-01 -3.50976825e-01
  -4.83066380e-01 -4.15609986e-01 -5.00070333e-01 -5.15147209e-01
  -3.78527433e-01 -4.24088866e-01 -4.15231377e-01 -5.16518533e-01
   1.86511055e-02 -5.76373458e-01 -5.93186736e-01 -2.86370844e-01
  -5.63494980e-01 -3.92066568e-01 -4.70667243e-01 -3.81466299e-01
  -3.84852588e-01 -4.79212940e-01 -5.57266891e-01 -6.76589832e-02
  -5.11514306e-01 -4.50771749e-01 -4.93792564e-01 -2.30192989e-01
  -2.86761254e-01 -3.83552492e-01 -4.06424701e-01 -5.94124019e-01
  -4.58016545e-01 -5.10662079e-01 -4.19048995e-01 -1.11660350e-03
  -6.36364162e-01 -4.14929926e-01 -5.73463500e-01 -5.24423182e-01
  -4.02885824e-01 -4.01760340e-01 -5.91217518e-01 -3.82600278e-01
  -5.55586815e-01 -5.36315978e-01 -3.58611465e-01 -2.38093287e-01
  -4.83711123e-01 -5.72436929e-01 -5.43304443e-01 -1.89107209e-01
  -1.83799479e-03 -3.33268307e-02 -2.16673873e-02 -1.86237544e-02
  -6.87521417e-03  6.66996324e-03 -1.19822901e-02 -1.12692742e-02
  -8.90720543e-03  6.06315443e-03 -8.67701788e-03  9.04548098e-04
  -8.66550661e-04 -8.06750916e-03 -1.14263408e-02 -2.80779153e-02
  -5.91600453e-03 -1.14757381e-02  1.62863650e-03  1.24816364e-02
  -6.28934382e-03  3.67748016e-03 -8.12347885e-03  8.69498029e-03
   1.14869541e-02 -3.95990070e-03 -4.44514118e-03  1.46225542e-02
  -2.34202156e-03 -2.61041662e-03 -3.70626850e-03 -1.09276911e-02
  -1.32865719e-02 -9.19504743e-03  5.90665592e-03 -1.09656258e-02
   1.84331578e-03 -5.28942514e-03 -7.47784087e-03 -1.80232972e-02
  -1.21182548e-02 -1.07442699e-02 -1.05741452e-02 -1.52580775e-02
  -3.32421414e-03  7.92056695e-03  4.02931590e-03 -1.05188638e-02
  -3.80687602e-03 -2.97900243e-03 -7.91490078e-03 -1.57070011e-02
  -5.44485077e-03 -5.17707784e-03 -3.53587493e-02 -1.05451308e-02
  -4.06884495e-03 -7.37569993e-03 -1.22999894e-02  3.64155346e-03
  -5.26837399e-03  1.52173720e-03 -8.14181101e-03 -6.19179476e-03
  -6.41913936e-02 -9.31482576e-03 -7.23729804e-02 -1.43309180e-02
   6.36823801e-03 -1.37906000e-02 -4.71478663e-02 -1.04154823e-02
  -2.08633170e-02  9.09623597e-03  2.03279201e-02 -2.17373967e-02
  -6.18147776e-02 -1.71177853e-02 -7.37804873e-03 -1.94260143e-02
   1.01373903e-02  1.06712254e-02 -1.46850199e-02  5.04936837e-03
   2.26088278e-02 -1.78047977e-02 -3.30715394e-03  8.06216151e-03
  -9.77108441e-03 -1.73765067e-02  1.01225302e-02  7.97098223e-03
   4.11821483e-03 -1.15257679e-02 -8.91571864e-03 -1.43719213e-02
  -2.09568981e-02  7.21874740e-03 -1.41590266e-02 -2.23454069e-02
  -9.07322392e-03 -5.02133090e-03 -1.87803786e-02  1.95881296e-02
  -1.51933031e-02  1.52319362e-02  1.29435398e-02  9.58263408e-03
  -1.75995585e-02  1.31535809e-02  9.73333698e-03  3.73394042e-03
  -8.50408711e-03  5.53845940e-03 -1.88268069e-02  7.43003562e-03
   7.75189931e-03 -1.24027152e-02 -1.07897259e-02 -1.15882047e-02
   1.34060741e-03 -1.47351380e-02 -1.56242084e-02 -1.45957638e-02
   1.35235079e-02 -2.60474253e-03 -1.19608399e-02 -1.56312343e-02
   6.49637682e-03 -1.32996347e-02  1.23157166e-02  7.12389220e-03
   9.32027400e-03 -1.42185753e-02  9.54267010e-03  3.02785239e-03
  -1.58691138e-03  1.11092543e-02  1.26067027e-02 -1.43945497e-02
  -1.94231998e-02  1.70641951e-02  1.80735514e-02 -7.14808004e-04
  -1.26577197e-02  1.83262508e-02 -9.34306812e-03 -1.90017000e-02
   1.75051130e-02  8.69786460e-03  7.50284642e-03  1.00553660e-02
  -7.53273442e-03  1.81733873e-02  1.52384872e-02  8.58778879e-03
   1.26857441e-02 -1.41208973e-02  1.60598755e-02 -5.82728069e-03]
 [ 1.92803234e-01 -4.79441881e-01 -4.98498917e-01 -1.81200817e-01
  -5.12773216e-01 -4.28844571e-01 -3.48247677e-01 -4.62633193e-01
  -4.63760614e-01 -4.89151895e-01 -4.67887849e-01 -3.25173348e-01
  -4.04071152e-01 -5.05727947e-01 -4.47000831e-01 -5.38296878e-01
  -4.54644084e-01 -4.73972410e-01 -5.67351818e-01 -7.03245282e-01
  -3.81267577e-01 -4.59133722e-02 -4.43338275e-01 -5.30703545e-01
  -4.14132595e-01 -5.84809899e-01 -4.00108099e-01 -1.65272161e-01
  -4.19067889e-01 -4.27451313e-01 -3.79347026e-01 -3.50976825e-01
  -4.83066380e-01 -4.15609986e-01 -5.00070333e-01 -5.15147209e-01
  -3.78527433e-01 -4.24088866e-01 -4.15231377e-01 -5.16518533e-01
   1.86511055e-02 -5.76373458e-01 -5.93186736e-01 -2.86370844e-01
  -5.63494980e-01 -3.92066568e-01 -4.70667243e-01 -3.81466299e-01
  -3.84852588e-01 -4.79212940e-01 -5.57266891e-01 -6.76589832e-02
  -5.11514306e-01 -4.50771749e-01 -4.93792564e-01 -2.30192989e-01
  -2.86761254e-01 -3.83552492e-01 -4.06424701e-01 -5.94124019e-01
  -4.58016545e-01 -5.10662079e-01 -4.19048995e-01 -1.11660350e-03
  -6.36364162e-01 -4.14929926e-01 -5.73463500e-01 -5.24423182e-01
  -4.02885824e-01 -4.01760340e-01 -5.91217518e-01 -3.82600278e-01
  -5.55586815e-01 -5.36315978e-01 -3.58611465e-01 -2.38093287e-01
  -4.83711123e-01 -5.72436929e-01 -5.43304443e-01 -1.89107209e-01
  -1.83799479e-03 -3.33268307e-02 -2.16673873e-02 -1.86237544e-02
  -6.87521417e-03  6.66996324e-03 -1.19822901e-02 -1.12692742e-02
  -8.90720543e-03  6.06315443e-03 -8.67701788e-03  9.04548098e-04
  -8.66550661e-04 -8.06750916e-03 -1.14263408e-02 -2.80779153e-02
  -5.91600453e-03 -1.14757381e-02  1.62863650e-03  1.24816364e-02
  -6.28934382e-03  3.67748016e-03 -8.12347885e-03  8.69498029e-03
   1.14869541e-02 -3.95990070e-03 -4.44514118e-03  1.46225542e-02
  -2.34202156e-03 -2.61041662e-03 -3.70626850e-03 -1.09276911e-02
  -1.32865719e-02 -9.19504743e-03  5.90665592e-03 -1.09656258e-02
   1.84331578e-03 -5.28942514e-03 -7.47784087e-03 -1.80232972e-02
  -1.21182548e-02 -1.07442699e-02 -1.05741452e-02 -1.52580775e-02
  -3.32421414e-03  7.92056695e-03  4.02931590e-03 -1.05188638e-02
  -3.80687602e-03 -2.97900243e-03 -7.91490078e-03 -1.57070011e-02
  -5.44485077e-03 -5.17707784e-03 -3.53587493e-02 -1.05451308e-02
  -4.06884495e-03 -7.37569993e-03 -1.22999894e-02  3.64155346e-03
  -5.26837399e-03  1.52173720e-03 -8.14181101e-03 -6.19179476e-03
  -6.41913936e-02 -9.31482576e-03 -7.23729804e-02 -1.43309180e-02
   6.36823801e-03 -1.37906000e-02 -4.71478663e-02 -1.04154823e-02
  -2.08633170e-02  9.09623597e-03  2.03279201e-02 -2.17373967e-02
  -6.18147776e-02 -1.71177853e-02 -7.37804873e-03 -1.94260143e-02
   1.00149745e-02  1.01559926e-02 -1.37541294e-02  4.75078542e-03
   2.17353571e-02 -1.76343843e-02 -3.17242299e-03  7.82421976e-03
  -9.40059219e-03 -1.69820394e-02  1.00254770e-02  7.67443795e-03
   4.03815880e-03 -1.08606741e-02 -8.54668114e-03 -1.34164914e-02
  -2.11032182e-02  6.74870471e-03 -1.40652331e-02 -2.24460401e-02
  -9.20193270e-03 -4.63959016e-03 -1.84472334e-02  1.91946141e-02
  -1.52131412e-02  1.50541440e-02  1.33800181e-02  9.47459601e-03
  -1.75334085e-02  1.29164569e-02  9.40667372e-03  3.92256398e-03
  -7.85485469e-03  6.01853197e-03 -1.88198835e-02  7.06209894e-03
   7.64882984e-03 -1.22308470e-02 -1.04979509e-02 -1.14616193e-02
   1.15252042e-03 -1.43189495e-02 -1.51237464e-02 -1.39614455e-02
   1.33518036e-02 -2.60559609e-03 -1.13833006e-02 -1.51783489e-02
   6.93468982e-03 -1.30288573e-02  1.19503383e-02  7.04683550e-03
   9.42148548e-03 -1.40576074e-02  9.09889955e-03  2.80004391e-03
  -1.67944701e-03  1.12799304e-02  1.23249823e-02 -1.37423547e-02
  -1.92399118e-02  1.70900170e-02  1.75876860e-02 -5.17112028e-04
  -1.25346985e-02  1.82817839e-02 -8.95645283e-03 -1.86891258e-02
   1.73934679e-02  8.73934571e-03  7.11700832e-03  9.49215889e-03
  -7.14514172e-03  1.78263858e-02  1.53479669e-02  8.87457002e-03
   1.26387328e-02 -1.35069042e-02  1.55384457e-02 -5.91412559e-03]]
sequential/gru_1/kernel:0
(80, 300)
[[-0.09780959 -0.06134055 -0.01668278 ...  0.13008824 -0.02539284
   0.05071033]
 [ 0.07454811 -0.02558286  0.06233922 ... -0.02771507  0.01143462
  -0.12183074]
 [ 0.02884914  0.12212001  0.05202288 ... -0.05518043  0.04007606
  -0.03798065]
 ...
 [ 0.12675689 -0.05020747 -0.09872607 ... -0.08577176  0.09327029
   0.07879916]
 [-0.04631847  0.00950365 -0.0021195  ...  0.02591686  0.0847497
   0.00671483]
 [ 0.08066886 -0.12233551 -0.10481185 ...  0.05988559  0.1036511
   0.10619393]]
sequential/gru_1/recurrent_kernel:0
(100, 300)
[[-0.11582563 -0.02160197  0.03883668 ... -0.07357    -0.06902172
   0.02200017]
 [-0.01414107  0.02659326  0.0556925  ... -0.00568752  0.00320322
   0.01686723]
 [-0.00796457 -0.02763225 -0.02963557 ... -0.01165383 -0.06097242
  -0.0119503 ]
 ...
 [-0.17264625  0.11357557 -0.08061131 ...  0.00916885 -0.01506261
   0.01519797]
 [-0.00963548  0.06016808 -0.04841419 ... -0.05525621 -0.00758009
   0.04933067]
 [ 0.11427897  0.02031691  0.06850178 ...  0.000225   -0.02968236
   0.07847819]]
sequential/gru_1/bias:0
(2, 300)
[[ 0.08147181  0.0185929   0.02755284  0.00057082  0.00392578  0.0582086
   0.03188922  0.08951648  0.09029026 -0.02784404  0.06864638  0.15658678
   0.02879222  0.0389655   0.11695737  0.09977616  0.05511913 -0.02232203
   0.06933653  0.08408725  0.0434985   0.05784261  0.03193251 -0.02290151
   0.06101966  0.03591814  0.01500446  0.04643446  0.10234839  0.09380498
   0.02830088 -0.0018157   0.0052426   0.09637408 -0.03842827  0.06222542
   0.02847246 -0.00578607  0.06307228  0.13649923 -0.00318247  0.04898441
   0.10041422  0.06653758 -0.0083122   0.06670826  0.02870664  0.02981922
   0.03851042  0.00628457  0.03087091  0.05166304  0.04112203  0.03807779
   0.0543019   0.03687765  0.01663082  0.05478267  0.05286126  0.07188673
   0.05605862  0.05888776  0.01984246  0.09535731 -0.01369045 -0.00573148
   0.15063852  0.03576592  0.05178445  0.00370224  0.02877433  0.04098915
   0.02339318  0.10060499 -0.00396028  0.10908125  0.10930155  0.09818958
   0.06644018  0.1114043   0.07433524  0.12353615  0.04701763  0.04919092
   0.04563669  0.01634404  0.00537304  0.02154895  0.15123092  0.01806658
   0.00262985  0.11234715  0.07261635  0.04744271  0.02960256  0.08719688
   0.01096112  0.11801907  0.07297618  0.01494047 -0.03215708  0.01947187
  -0.02698949  0.01903555 -0.01286033 -0.0129471  -0.00617009 -0.00417871
  -0.00765071 -0.02733203 -0.02762269 -0.02133886 -0.04862127 -0.02388106
  -0.02032461 -0.01559419 -0.03737785 -0.06519139 -0.04519906 -0.01829658
  -0.04272977 -0.02674361 -0.00644796 -0.04126926 -0.02737547 -0.03371695
  -0.02352981 -0.03985722 -0.00561682 -0.01825296 -0.01376338 -0.0100012
  -0.02171614 -0.02087302 -0.02525215 -0.01497976 -0.00552548 -0.02684061
  -0.0246743  -0.01598777 -0.03109832 -0.00077847 -0.00607886  0.02000558
  -0.02728698 -0.0347094   0.01218218 -0.01904492 -0.02474924 -0.04077482
  -0.00608789  0.00022992 -0.01924017 -0.04219752 -0.00437666 -0.02015655
  -0.02771502 -0.01013896  0.0024703  -0.00234222  0.00061286  0.00263728
   0.03818476 -0.02194372 -0.01479367 -0.01635901 -0.04643946 -0.0346972
  -0.03861317 -0.00461198 -0.07473466 -0.00698891 -0.00875339 -0.03213898
  -0.02622722 -0.02756612 -0.00735974 -0.0055085  -0.02583404 -0.02991638
  -0.02275077 -0.00268103 -0.01008623  0.00301047 -0.01421337 -0.01817397
  -0.05384954 -0.0467666  -0.01673779 -0.02359815 -0.01837193 -0.01678045
  -0.03114776 -0.00871437 -0.02677403 -0.00657396 -0.02820094 -0.01858517
   0.01280132 -0.02959983 -0.00815295  0.00311725 -0.00677803 -0.01137935
  -0.0092294   0.01357314 -0.00969213 -0.00761825 -0.01137977 -0.01309691
  -0.00928099  0.00914148  0.01095609 -0.01051597 -0.01012146 -0.00526993
   0.00971    -0.00728411 -0.00913968 -0.00573663  0.00699023 -0.0078168
  -0.00824367  0.0066089   0.01229176  0.00781464  0.00546797 -0.00884366
   0.00575198  0.00588993 -0.00669068  0.00555673  0.00516091  0.00849387
   0.00615104  0.00587921 -0.00701208  0.01109058  0.00373951  0.00574666
   0.01164626  0.00456809 -0.0042895  -0.00807416 -0.00687017 -0.00648106
   0.00594861 -0.01052     0.00657583 -0.00897029  0.00334297  0.0077975
  -0.00781527  0.00778831  0.00618881 -0.00786574 -0.00805393  0.0094928
   0.00367164  0.00593078  0.01051946  0.00039796 -0.00514412 -0.00777558
  -0.00855976  0.00752384 -0.00953841 -0.00670161  0.0086745  -0.00465811
   0.00597134 -0.00848682 -0.00918678  0.00791725  0.01505186  0.00276964
  -0.00541448  0.00604378 -0.01551407  0.00913997  0.00782757 -0.00902193
   0.00870515  0.0113984  -0.00661659 -0.005699   -0.00701135 -0.00856598
  -0.00669316  0.00551867 -0.01132442  0.00590119  0.00467646 -0.00632172
  -0.00675446 -0.00740499  0.00923379 -0.01368751 -0.00778438  0.00967072]
 [ 0.08147181  0.0185929   0.02755284  0.00057082  0.00392578  0.0582086
   0.03188922  0.08951648  0.09029026 -0.02784404  0.06864638  0.15658678
   0.02879222  0.0389655   0.11695737  0.09977616  0.05511913 -0.02232203
   0.06933653  0.08408725  0.0434985   0.05784261  0.03193251 -0.02290151
   0.06101966  0.03591814  0.01500446  0.04643446  0.10234839  0.09380498
   0.02830088 -0.0018157   0.0052426   0.09637408 -0.03842827  0.06222542
   0.02847246 -0.00578607  0.06307228  0.13649923 -0.00318247  0.04898441
   0.10041422  0.06653758 -0.0083122   0.06670826  0.02870664  0.02981922
   0.03851042  0.00628457  0.03087091  0.05166304  0.04112203  0.03807779
   0.0543019   0.03687765  0.01663082  0.05478267  0.05286126  0.07188673
   0.05605862  0.05888776  0.01984246  0.09535731 -0.01369045 -0.00573148
   0.15063852  0.03576592  0.05178445  0.00370224  0.02877433  0.04098915
   0.02339318  0.10060499 -0.00396028  0.10908125  0.10930155  0.09818958
   0.06644018  0.1114043   0.07433524  0.12353615  0.04701763  0.04919092
   0.04563669  0.01634404  0.00537304  0.02154895  0.15123092  0.01806658
   0.00262985  0.11234715  0.07261635  0.04744271  0.02960256  0.08719688
   0.01096112  0.11801907  0.07297618  0.01494047 -0.03215708  0.01947187
  -0.02698949  0.01903555 -0.01286033 -0.0129471  -0.00617009 -0.00417871
  -0.00765071 -0.02733203 -0.02762269 -0.02133886 -0.04862127 -0.02388106
  -0.02032461 -0.01559419 -0.03737785 -0.06519139 -0.04519906 -0.01829658
  -0.04272977 -0.02674361 -0.00644796 -0.04126926 -0.02737547 -0.03371695
  -0.02352981 -0.03985722 -0.00561682 -0.01825296 -0.01376338 -0.0100012
  -0.02171614 -0.02087302 -0.02525215 -0.01497976 -0.00552548 -0.02684061
  -0.0246743  -0.01598777 -0.03109832 -0.00077847 -0.00607886  0.02000558
  -0.02728698 -0.0347094   0.01218218 -0.01904492 -0.02474924 -0.04077482
  -0.00608789  0.00022992 -0.01924017 -0.04219752 -0.00437666 -0.02015655
  -0.02771502 -0.01013896  0.0024703  -0.00234222  0.00061286  0.00263728
   0.03818476 -0.02194372 -0.01479367 -0.01635901 -0.04643946 -0.0346972
  -0.03861317 -0.00461198 -0.07473466 -0.00698891 -0.00875339 -0.03213898
  -0.02622722 -0.02756612 -0.00735974 -0.0055085  -0.02583404 -0.02991638
  -0.02275077 -0.00268103 -0.01008623  0.00301047 -0.01421337 -0.01817397
  -0.05384954 -0.0467666  -0.01673779 -0.02359815 -0.01837193 -0.01678045
  -0.03114776 -0.00871437 -0.02677403 -0.00657396 -0.02820094 -0.01858517
   0.01280132 -0.02959983 -0.0077185   0.00254563 -0.00618154 -0.01118158
  -0.0077263   0.01229237 -0.00995454 -0.00780128 -0.01167311 -0.0127051
  -0.00942486  0.00881092  0.0117393  -0.01069316 -0.0089967  -0.00520029
   0.00958989 -0.00699309 -0.00773624 -0.00591754  0.00698853 -0.00780749
  -0.00858823  0.0068243   0.01195515  0.00789361  0.00575806 -0.00859429
   0.00598518  0.00589726 -0.00645779  0.00443059  0.00527877  0.00849461
   0.00621168  0.00578232 -0.00666827  0.00961361  0.00355921  0.0056624
   0.0114913   0.00457897 -0.00418331 -0.00828211 -0.00562287 -0.00605224
   0.0053834  -0.00974362  0.0066468  -0.00979132  0.00310285  0.00766084
  -0.00815407  0.00756515  0.00601728 -0.00697336 -0.00785647  0.00906894
   0.00352869  0.00505171  0.0098515   0.00039626 -0.00531459 -0.00777024
  -0.00845839  0.00710416 -0.00847579 -0.00675203  0.00732512 -0.00476645
   0.00619811 -0.00878059 -0.00924864  0.00832567  0.01491228  0.00281577
  -0.00542589  0.00589978 -0.01608477  0.0092919   0.00776919 -0.00859649
   0.00833103  0.01107553 -0.00684772 -0.00576568 -0.00681601 -0.00871674
  -0.00697306  0.00561215 -0.0107199   0.00634132  0.00466901 -0.00611972
  -0.00713997 -0.00690659  0.00797994 -0.01294935 -0.00743688  0.00989377]]
sequential/dense/kernel:0
(100, 1)
[[-0.17724565]
 [ 0.11011606]
 [-0.15687822]
 [-0.07125359]
 [-0.10958947]
 [ 0.06566176]
 [-0.15130165]
 [-0.22822317]
 [-0.09796725]
 [-0.11860699]
 [-0.14768404]
 [ 0.05527404]
 [ 0.1059001 ]
 [-0.11182518]
 [-0.0499539 ]
 [-0.12023263]
 [ 0.14991827]
 [-0.21449533]
 [-0.1495906 ]
 [-0.21400608]
 [ 0.15491058]
 [-0.15091948]
 [-0.16482809]
 [ 0.1880843 ]
 [ 0.07693248]
 [ 0.18509899]
 [ 0.19317351]
 [-0.15264617]
 [ 0.18836296]
 [ 0.17725177]
 [-0.19470112]
 [ 0.1352262 ]
 [ 0.061074  ]
 [ 0.1775852 ]
 [ 0.20544109]
 [ 0.12167525]
 [-0.17481388]
 [ 0.06993946]
 [ 0.15048626]
 [ 0.23047403]
 [ 0.12848987]
 [ 0.19021916]
 [-0.1735932 ]
 [-0.08429191]
 [-0.17199068]
 [-0.2064199 ]
 [ 0.09106199]
 [-0.07342955]
 [ 0.09903368]
 [-0.15536095]
 [ 0.17396422]
 [ 0.09111402]
 [-0.19062118]
 [ 0.13405363]
 [ 0.1718296 ]
 [-0.07843124]
 [-0.18915778]
 [ 0.04582547]
 [ 0.0190419 ]
 [ 0.18029821]
 [ 0.04683607]
 [-0.02524311]
 [-0.06770021]
 [-0.15743223]
 [-0.159828  ]
 [ 0.17216828]
 [-0.09985209]
 [-0.17511132]
 [ 0.04177401]
 [-0.1491744 ]
 [ 0.11672758]
 [-0.20584327]
 [-0.22201292]
 [ 0.14272888]
 [ 0.05530037]
 [ 0.19505264]
 [-0.12604383]
 [ 0.21027769]
 [-0.07110601]
 [ 0.1798861 ]
 [ 0.08883932]
 [-0.09469788]
 [ 0.10846305]
 [ 0.08114821]
 [-0.14754434]
 [-0.19835176]
 [-0.21128395]
 [-0.08790046]
 [-0.11549319]
 [ 0.18111418]
 [-0.06170662]
 [ 0.22162637]
 [ 0.19417457]
 [-0.21332319]
 [-0.22233398]
 [-0.07144272]
 [ 0.07000124]
 [-0.04731078]
 [-0.08763223]
 [ 0.17805062]]
sequential/dense/bias:0
(1,)
[0.06617006]
