baseline/conv2d/kernel:0
(5, 5, 3, 6)
[[[[ 0.03127355  0.00327748  0.00631474  0.02105333  0.12336644
    -0.15548028]
   [ 0.02552769 -0.0612654   0.07680175 -0.04248676 -0.08711209
    -0.07334322]
   [ 0.22876744  0.00281648 -0.10289326 -0.10729878 -0.14013878
    -0.04827413]]

  [[-0.1000667   0.16526873 -0.0260028   0.05777622  0.13359104
    -0.01071852]
   [ 0.1263119  -0.10792235 -0.18262284 -0.03500731 -0.06055546
    -0.05956081]
   [-0.0043573  -0.02317543  0.03577382  0.10855183  0.05943492
    -0.04180583]]

  [[-0.17863438  0.24441929 -0.11410595  0.08441845  0.16585141
     0.14692113]
   [ 0.17449136 -0.00051301  0.03202359 -0.09232881 -0.02534042
     0.26996502]
   [ 0.12586802 -0.07611684 -0.03727552  0.02527771 -0.18951628
     0.08134846]]

  [[-0.12987062  0.13269743  0.16541809 -0.2681037  -0.0066229
     0.11149204]
   [ 0.06624921 -0.03321711  0.06063367 -0.27786246 -0.13638572
     0.0881594 ]
   [-0.05539818 -0.03953207 -0.10310756 -0.10400382  0.06485695
    -0.01370964]]

  [[-0.1945078  -0.08273478 -0.05712393  0.07628688  0.07273199
     0.01729896]
   [ 0.02089806  0.01803632  0.1520508  -0.0112349   0.14387217
     0.18919401]
   [-0.07346139  0.1953473   0.04065176  0.19952714 -0.23437308
     0.04396173]]]


 [[[-0.136461    0.14482267  0.09701956 -0.2015657   0.14236198
     0.04177859]
   [ 0.00162472  0.02744756  0.20348653 -0.02340487 -0.04549996
     0.15274204]
   [ 0.02783805  0.07280947  0.06727772  0.04623865  0.12678468
     0.00557296]]

  [[-0.19363743 -0.10239197 -0.15727128 -0.07518053 -0.12141123
    -0.2258426 ]
   [-0.09434163  0.09175721 -0.19994384 -0.04185067 -0.11083116
    -0.12101165]
   [ 0.07887586  0.1832845   0.00568246  0.24459395  0.23514846
    -0.1165118 ]]

  [[-0.11587019  0.11025716 -0.05612524 -0.12000068 -0.01421169
    -0.22882457]
   [-0.06083934  0.08229872 -0.23922764  0.0930846   0.02612696
    -0.11267205]
   [ 0.13156745 -0.0481616  -0.08695635  0.11178149 -0.07769368
    -0.1342683 ]]

  [[-0.28586644  0.18937396  0.0768353  -0.10678081 -0.046224
    -0.06392745]
   [-0.20144373  0.0287867   0.03295692 -0.3213576   0.04299226
     0.09919748]
   [-0.00279092  0.0270135   0.04888341 -0.07435045 -0.00946494
    -0.03116574]]

  [[-0.16992167  0.18060759  0.04415346  0.08378951  0.06887797
    -0.11829361]
   [-0.03660572 -0.24617767  0.19170305  0.25159937 -0.10094231
    -0.05149567]
   [-0.00344673  0.06060337 -0.02424041  0.05957382 -0.21217582
     0.23017745]]]


 [[[ 0.04349247  0.00615802 -0.04011457  0.10751703 -0.02083264
     0.11341308]
   [ 0.13402025 -0.10086507 -0.06576066  0.08157409  0.05030721
    -0.06211135]
   [ 0.16703399  0.08038091  0.20428813 -0.01062925  0.12834762
     0.181506  ]]

  [[-0.16772102 -0.11568121 -0.17033042  0.01203723 -0.06899739
     0.00310758]
   [-0.0381157   0.04785829  0.11640441  0.09621012  0.08731331
    -0.05746952]
   [ 0.15167825  0.02230529  0.00300808  0.21260911  0.24073078
     0.16655147]]

  [[-0.16945004  0.07852418  0.168266   -0.06139767  0.03649323
    -0.24409139]
   [ 0.01822154 -0.26529896 -0.08094414 -0.06344142 -0.00232691
     0.01244005]
   [ 0.02193411  0.09124611  0.08700946  0.11930447  0.22685377
    -0.20700304]]

  [[-0.1056817   0.05479325  0.12932797 -0.01588312 -0.15314381
    -0.24938676]
   [-0.11048699 -0.28835046  0.03970728 -0.17182274 -0.02221951
    -0.15358588]
   [ 0.01502393 -0.11848469 -0.10195881 -0.23588547  0.12572937
    -0.11803149]]

  [[ 0.00567606 -0.02509528  0.03501241  0.17050254  0.13416009
    -0.24868858]
   [ 0.00934867 -0.21506616 -0.12435288  0.24489559 -0.05427103
    -0.29477862]
   [-0.06985854 -0.18374668 -0.21689908  0.0978701  -0.01011193
    -0.02770517]]]


 [[[-0.12014151  0.00933666 -0.11026985 -0.04520801 -0.18961488
    -0.01176387]
   [-0.11286437 -0.07962204 -0.16435234 -0.14258403  0.07499201
     0.02540569]
   [-0.1551853  -0.06121829 -0.11608677  0.00264352  0.1168424
    -0.01494461]]

  [[-0.06045827 -0.12963353  0.18205275 -0.13485567 -0.29125914
     0.23093675]
   [-0.31400576 -0.23140125  0.10247334 -0.00910476  0.11650895
     0.11628039]
   [-0.02137334 -0.12101969  0.23909992 -0.0099497   0.21364953
     0.11300635]]

  [[-0.08569755 -0.10941359  0.09298518 -0.2278323  -0.25874346
     0.26267448]
   [-0.1317414  -0.17958416  0.2545106  -0.03007444 -0.12811111
     0.20979476]
   [ 0.03128863 -0.15989633  0.23568782  0.08872893  0.32444495
    -0.06464479]]

  [[-0.09540832  0.07231925 -0.06488509 -0.05577778  0.03344504
     0.09731991]
   [-0.17881607 -0.1751107  -0.01561811 -0.07649414  0.04791711
    -0.01441216]
   [-0.06150465 -0.14318818 -0.1208538  -0.26382667 -0.016785
     0.10937449]]

  [[ 0.24506521  0.10057901 -0.09713046  0.00777221 -0.00473116
     0.1912586 ]
   [-0.14013977 -0.07586467 -0.21770857  0.09519923 -0.00354157
    -0.15106523]
   [-0.00874113 -0.04980523 -0.21242389  0.07650974 -0.12943958
     0.05073215]]]


 [[[-0.01955285 -0.07388943  0.03527156  0.11266036 -0.0553064
     0.01063846]
   [ 0.0910848  -0.06194009  0.06685528  0.04539914 -0.1279098
    -0.1022507 ]
   [-0.0386618  -0.0023464  -0.02438431  0.07474833  0.04847425
    -0.01440559]]

  [[ 0.14550577 -0.11898905 -0.04394701 -0.02723173 -0.0890924
    -0.07892072]
   [-0.22173871  0.14615852  0.12301464  0.0618686  -0.0397967
    -0.00481696]
   [ 0.06192731  0.10474583  0.29731274 -0.04590106  0.24252369
    -0.10788777]]

  [[-0.0096179  -0.03561668 -0.07350564  0.22331622 -0.07731838
    -0.03779804]
   [-0.03158648  0.2581398  -0.04437353 -0.02705193 -0.02548547
     0.08687904]
   [ 0.10243351  0.11849751  0.00376844 -0.12162852  0.23336679
     0.08180609]]

  [[ 0.11421539 -0.04214433 -0.08361672  0.06370579 -0.11295544
     0.18170692]
   [-0.14932238  0.05892824 -0.13481285  0.08195531  0.02175073
     0.12502694]
   [ 0.268569    0.20900208 -0.00199085 -0.23309317  0.13239382
    -0.07848327]]

  [[ 0.31259906  0.11445414  0.11250971  0.27059698  0.00978143
     0.01900845]
   [-0.03569682  0.00347307 -0.23604634  0.16534765 -0.07417439
    -0.05261595]
   [ 0.12139567  0.02379159 -0.09410868 -0.02038182 -0.03474928
     0.05489833]]]]
baseline/conv2d/bias:0
(6,)
[ 0.02783103  0.01870948  0.04237521  0.09849025 -0.0968453   0.05014884]
baseline/batch_normalization/gamma:0
(6,)
[0.72175217 0.8624193  0.8870843  0.8615661  0.7100203  0.86267614]
baseline/batch_normalization/beta:0
(6,)
[-0.29831305 -0.46507713 -0.17470545 -0.34297565 -0.12788495 -0.43298733]
baseline/dense/kernel:0
(1536, 128)
[[-6.74218684e-02 -6.23054430e-02  4.70450055e-03 -7.19892308e-02
  -5.91816157e-02  4.00206968e-02 -5.28347157e-02  7.34185502e-02
  -2.92796195e-02 -5.84536903e-02 -3.16738412e-02 -3.04646976e-02
   2.50214916e-02  4.17905152e-02  1.12704048e-02  3.41042057e-02
   1.37487473e-02 -1.91386249e-02 -5.50075620e-02  3.90705206e-02
   9.01689380e-02 -1.15484916e-01  5.43591157e-02  3.51600796e-02
  -3.96178775e-02  3.02191228e-02  3.59288566e-02  5.43212146e-02
   7.05895424e-02  1.23094013e-02 -1.11410692e-01 -3.99367325e-02
   6.53553233e-02  4.88989316e-02 -3.36219706e-02  1.24446943e-01
  -5.82284145e-02  1.41281486e-02 -7.89368749e-02  3.96255776e-02
  -4.62056398e-02  3.99493016e-02  3.96972746e-02 -6.21791482e-02
  -1.48480423e-02  6.86450452e-02  3.84317781e-03 -8.16373620e-03
   1.06858648e-01  2.74544209e-02 -1.82469618e-02 -5.34373932e-02
  -9.91912186e-03  1.79469902e-02 -2.02804571e-03 -1.27917826e-02
  -2.15743575e-03 -6.25482723e-02 -2.62067504e-02 -5.66125885e-02
   4.32400331e-02  7.98604339e-02 -4.85548824e-02  3.48174758e-02
  -4.91610356e-02 -1.65921673e-02 -3.71062420e-02 -6.25490472e-02
   6.91685220e-03 -4.48627137e-02 -2.92278547e-02 -2.21762657e-02
  -1.37915891e-02 -4.75924136e-03 -3.57354209e-02 -6.35428801e-02
  -7.10563734e-02 -7.03848973e-02 -6.11185916e-02  8.94442797e-02
  -4.16172519e-02 -1.97813436e-02 -5.50231971e-02 -6.34645298e-02
  -5.51087335e-02  8.83294865e-02 -1.53374737e-02  1.55598195e-02
   3.91500583e-03 -8.61386489e-03  6.89274026e-03 -6.45442158e-02
  -2.99576335e-02 -4.88511985e-04  3.07549797e-02 -2.36544795e-02
  -7.10701719e-02 -6.74514472e-02 -5.55899814e-02 -2.01142039e-02
  -9.28431377e-03 -2.51068417e-02  1.06280530e-02 -9.37481001e-02
   1.01287104e-01  7.79729569e-03 -6.66049868e-03 -4.23680991e-02
  -7.87336826e-02  8.94887596e-02 -2.17552055e-02  2.18381044e-02
   1.94474272e-02 -4.30548331e-03  1.46074826e-03  3.04284375e-02
  -3.39018665e-02 -6.93455990e-03  1.51000796e-02  3.00727170e-02
  -1.24525707e-02  3.89553308e-02 -2.92668422e-03 -1.64110418e-02
  -6.92908466e-02  3.21689323e-02 -1.59830134e-02  1.74431019e-02]
 [ 1.37409000e-02  4.52847667e-02  3.49360742e-02 -3.37310620e-02
   4.96636704e-02  6.79365396e-02 -8.98271892e-03 -1.26570359e-01
   2.39753593e-02 -7.36356014e-03 -2.27508526e-02 -5.71211763e-02
  -7.28985667e-02  2.30542496e-02  3.15200984e-02 -1.39336497e-01
  -6.33805245e-02  1.68963727e-02  2.24736370e-02 -1.46603256e-01
   8.11287910e-02  1.19423410e-02  2.32721746e-01 -2.51000840e-02
   1.16463853e-02  5.47924228e-02 -3.81198600e-02 -3.79733741e-04
   2.16290995e-01 -7.45783374e-02 -2.23917142e-02  4.41221036e-02
  -5.69849312e-02 -9.13920701e-02 -7.12568462e-02 -1.29547432e-01
   1.33815026e-02  1.24447063e-01  2.52216998e-02  4.41079028e-02
  -1.96898226e-02  9.12607834e-02 -7.80227408e-02  3.24292108e-02
   3.78490202e-02  1.74895465e-01  1.52819315e-02  2.24779453e-02
   2.51310822e-02  8.73413309e-03 -5.26913907e-03  1.62185729e-02
  -2.44497415e-02  2.52373386e-02  1.79734565e-02  2.11437568e-02
  -8.10936391e-02 -3.50751951e-02  3.44239958e-02  4.14012410e-02
   3.54639776e-02  3.86863202e-02  2.65220888e-02 -1.49125354e-02
   1.73537037e-03  1.33709088e-02 -7.60259405e-02 -5.40561378e-02
  -6.25830702e-03 -2.94330996e-02 -3.97508070e-02  4.40903567e-02
   3.94359455e-02 -5.28448075e-02  3.80565673e-02 -5.58217578e-02
   1.64396316e-02  3.96937598e-03 -7.79717714e-02 -1.11044154e-01
   6.10458590e-02  4.48215902e-02  1.30134001e-02 -5.18299080e-03
   3.49468626e-02 -6.35516122e-02 -1.86588578e-02 -1.44194039e-02
  -1.45952860e-02 -5.56353591e-02 -1.25885080e-03 -5.47014289e-02
  -2.15020422e-02 -2.70205620e-03 -2.03167684e-02  4.54315692e-02
  -5.60896918e-02  4.77462709e-02  3.12896781e-02  2.53957845e-02
   4.83766831e-02  3.94371711e-02 -5.18813450e-03 -8.92143697e-02
  -8.45647976e-02  8.14057663e-02 -7.63046518e-02 -7.10722245e-03
   2.43064370e-02 -9.71809328e-02  2.49371282e-03 -5.89973573e-03
  -5.93445636e-02 -2.23015510e-02 -5.66150323e-02  3.80461439e-02
  -2.74847373e-02  2.22819999e-01 -6.16470724e-02  4.43575270e-02
  -3.33908387e-02 -7.95549750e-02  5.27416309e-03 -2.19491608e-02
  -2.91911010e-02  3.83559818e-04 -1.34375840e-02 -4.06938456e-02]
 [ 2.45265123e-02 -7.07401708e-02 -3.60229760e-02 -2.58283261e-02
   3.68375629e-02  2.23558068e-01  1.67732947e-02  8.72803479e-02
  -5.37974723e-02 -6.71980856e-03 -3.89422588e-02  4.06003445e-02
  -4.90817102e-03 -4.60214876e-02  8.68688617e-03 -4.10369337e-02
   2.18230188e-02 -8.05848837e-02  2.37004366e-02  1.19361781e-01
  -1.32962331e-01  8.95464420e-02  5.50885350e-02 -6.41086465e-03
   3.21415439e-02 -9.30173043e-03  2.65945457e-02 -2.61615738e-02
   7.28427023e-02  5.00488281e-02 -7.26049021e-02 -5.51001430e-02
  -6.62781820e-02  4.61452119e-02 -6.08588792e-02  9.68467519e-02
  -4.79111634e-02  1.10158853e-01  5.57469279e-02  2.00043079e-02
  -2.48793866e-02  2.02881247e-02  4.45082877e-03  1.12184435e-02
   2.72175670e-03  5.45533560e-02  4.35640737e-02 -5.95631450e-02
   8.31932798e-02  7.95606337e-03 -8.58478025e-02 -1.29152294e-02
  -6.04485311e-02  2.94983797e-02 -2.59516001e-01  8.66227821e-02
  -4.86989552e-03 -1.68744847e-02 -2.22905930e-02 -7.78071396e-03
   8.61188620e-02 -1.75855175e-01  1.85058519e-01 -2.22980678e-02
  -5.34675531e-02  7.65135139e-02  8.58951434e-02 -2.40450874e-02
   4.33261693e-02 -4.24895100e-02  1.72456969e-02 -3.08607779e-02
  -4.27903011e-02 -4.91295680e-02  6.25259578e-02 -5.52583076e-02
  -2.90592350e-02 -1.35755017e-02 -1.38004413e-02  1.33006305e-01
  -6.15817793e-02 -1.63295143e-03  9.14954320e-02 -6.46031350e-02
  -5.78010567e-02 -3.37640643e-02 -3.57717350e-02 -6.85282843e-03
   5.07821888e-02 -6.16893843e-02 -3.50464582e-02 -7.72527307e-02
  -3.17671485e-02 -5.63862287e-02 -2.87048686e-02 -5.52655123e-02
  -4.79343608e-02 -6.75853491e-02 -2.20297314e-02  2.64261477e-02
   3.70505266e-02 -6.64536282e-02  5.21368310e-02  4.95441398e-03
   6.19002618e-02  1.51471328e-02 -2.38674004e-02 -6.30768761e-02
  -5.09464778e-02 -4.72819284e-02 -5.53341992e-02  1.83524396e-02
  -4.18483978e-03  1.77823640e-02 -1.06370926e-01 -4.83330786e-02
   3.72434896e-03 -9.17078927e-02 -1.26731498e-02 -2.19580829e-02
  -2.43050195e-02  2.17744317e-02  4.44433652e-02 -4.65476736e-02
   2.64645442e-02 -4.34024110e-02  2.52319444e-02 -3.99032682e-02]
 [ 7.41580082e-03 -8.92396495e-02 -4.09677029e-02 -1.49641454e-01
  -4.00566161e-02  9.89929959e-03  5.34147173e-02 -6.58882633e-02
   1.73087027e-02  3.04355714e-02 -3.38474661e-02  3.48030627e-02
   1.04425112e-02  1.80042032e-02 -1.87529176e-02  7.37952292e-02
   3.29773151e-03 -2.78789271e-02  2.44542118e-02 -3.57914716e-02
  -9.07837376e-02 -1.44203335e-01  7.94110447e-02  1.79487076e-02
  -1.39367767e-02 -6.15823492e-02 -3.75026874e-02  2.99932528e-02
   7.16347322e-02  1.37195829e-02  2.76084729e-02  8.79657455e-03
   1.26859561e-01 -7.42787793e-02 -3.14975902e-02 -6.12621382e-03
   3.38585563e-02 -2.64382567e-02  6.80498108e-02  8.70878622e-03
  -4.86245416e-02 -5.89413941e-03  4.35761027e-02 -3.92304659e-02
  -3.42981219e-02  3.86923738e-03 -6.05333857e-02  3.38118151e-02
  -5.32648973e-02 -1.58932954e-02 -5.04050031e-03 -3.58562800e-03
  -6.08529374e-02  1.31113939e-02  8.50435495e-02 -5.01047261e-02
  -5.62187955e-02 -5.77198565e-02 -7.52048614e-03 -4.46902104e-02
  -8.15773606e-02  1.82247218e-02  2.56595891e-02 -1.72647443e-02
  -4.59303632e-02 -5.44148572e-02 -1.33896926e-02 -5.82682788e-02
   3.39912367e-03 -3.21702403e-03 -4.10672575e-02  1.05526112e-02
  -5.06599844e-02  6.69846013e-02 -2.09025741e-02 -8.93572643e-02
  -3.19387950e-02 -2.53837300e-03  6.49015885e-03  2.40928456e-02
   2.57250969e-03  4.62604873e-02 -1.21845827e-02 -4.49892282e-02
   6.10680552e-03 -1.90895274e-02 -4.19807956e-02  4.55965362e-02
   1.47835584e-02 -5.24385050e-02 -3.40167619e-02  1.44218756e-02
  -2.91323364e-02 -1.74274351e-02  1.53925503e-03  4.05529588e-02
  -4.63918112e-02 -1.29256155e-02 -6.23838939e-02 -7.21662864e-02
  -2.65436396e-02 -8.32545513e-04  2.23976243e-02  4.61358093e-02
   1.62359867e-02 -7.46098980e-02  4.49310942e-03 -7.90738463e-02
   4.24487330e-02  1.19370855e-01 -3.35086957e-02 -3.97433005e-02
  -4.67868820e-02 -2.95005236e-02 -1.11743756e-01 -4.09591123e-02
  -3.21856476e-02 -8.01339000e-03 -2.59445403e-02  2.68656686e-02
  -4.46034372e-02  4.02131081e-02 -4.26901970e-03 -3.03252060e-02
  -9.82005969e-02  6.16470352e-03  5.10938391e-02 -2.41835415e-02]
 [ 3.47096077e-03 -7.21993074e-02  2.57546417e-02  7.46793952e-03
  -4.47678864e-02  3.85059640e-02 -1.49386562e-03  9.91960242e-02
  -8.50610621e-03  4.60734740e-02  4.07986455e-02 -3.34528275e-02
   7.92565942e-02  6.12593628e-03 -5.02442457e-02  5.81949912e-02
  -2.80397199e-02 -7.69816190e-02 -5.03432862e-02  8.72387066e-02
  -2.08575934e-01  3.73858139e-02  6.86237589e-02 -8.34659077e-05
   3.34169753e-02 -2.59084888e-02 -2.38784596e-01  2.56569907e-02
  -1.60475567e-01 -1.44068509e-01 -2.94469744e-02  1.90893263e-02
  -4.35470641e-02  8.29148367e-02 -7.39294430e-03 -8.70701969e-02
  -1.40597960e-02 -1.30021483e-01 -3.48873697e-02 -5.83883263e-02
   2.51465198e-02  1.62475463e-02 -2.21774057e-02 -4.82314490e-02
  -7.48021603e-02 -1.86944127e-01 -5.13068447e-03 -4.85920049e-02
  -1.67725071e-01 -5.67835122e-02  2.00779084e-02 -3.38013563e-03
  -3.11612934e-02 -2.86281705e-02  4.62891720e-02  5.39037846e-02
  -1.34141713e-01  1.78220775e-02  3.66429463e-02 -4.84163873e-02
   1.78751387e-02 -8.89849365e-02 -1.13025725e-01  4.73226644e-02
  -4.54691276e-02 -1.25913322e-01 -2.90000960e-02  1.98540203e-02
   8.75333417e-03 -3.46445069e-02 -3.43549289e-02  1.55903390e-02
   3.41741219e-02 -4.17010970e-02 -6.75340220e-02 -4.85731326e-02
  -6.30042553e-02 -4.63129878e-02  1.70032650e-01 -2.23484620e-01
   8.50339606e-03 -3.10206134e-02  7.33087808e-02 -1.03485724e-02
  -5.57585806e-02  5.20529151e-02 -3.87962125e-02  4.38238233e-02
  -6.72900379e-02  2.21102349e-02 -2.77882237e-02 -4.24403064e-02
  -1.39973581e-01 -2.09353808e-02 -2.14661807e-02  2.60730330e-02
   2.11937856e-02  1.17897755e-04  4.09238636e-02 -5.09828739e-02
   1.26607686e-01 -4.38799821e-02 -3.34005430e-02  2.99827587e-02
   8.76687542e-02 -4.12243456e-02  5.23005314e-02  2.29692478e-02
   1.19443983e-02 -3.31226476e-02 -3.33417021e-02 -1.88059695e-02
  -3.71235050e-02 -2.52794288e-02  4.01147194e-02 -1.21608227e-02
   4.34062965e-02 -1.12531222e-01 -4.35018577e-02 -2.04197504e-02
   2.96378769e-02 -2.04902831e-02 -1.60078835e-02 -2.20840261e-03
  -2.93052457e-02  5.69316037e-02  1.10292085e-01 -3.70179415e-02]
 [-6.24361411e-02  2.28529833e-02 -3.92444693e-02 -7.46388510e-02
  -5.91598041e-02 -4.99475487e-02 -3.08227502e-02 -2.63057183e-02
  -1.70864947e-02 -1.67692695e-02 -3.62615064e-02 -8.43919441e-03
  -4.55782637e-02 -3.28633562e-02 -4.79158163e-02  2.84851231e-02
   1.02985436e-02  1.19501151e-01 -4.77436706e-02 -4.11174223e-02
   2.71065310e-02 -5.39304875e-02 -2.35653948e-02  8.09538551e-03
  -4.84366249e-03 -7.45008001e-04  5.79673573e-02 -5.80307357e-02
   2.20234916e-01 -3.29248011e-02  1.02399411e-02  2.01161783e-02
   6.61584130e-03 -9.39978063e-02  3.75724509e-02 -1.63112953e-01
   2.75441203e-02 -1.27012786e-02 -1.03771323e-02  7.43363574e-02
  -3.65353525e-02 -5.37381358e-02  5.42228520e-02  5.50740305e-03
  -4.04029675e-02 -1.61450543e-02  2.58065443e-02 -2.87978817e-02
   6.23054169e-02 -6.59626946e-02  3.64688113e-02 -5.93345203e-02
  -1.68631971e-02 -4.49588299e-02  6.98171780e-02  4.51143412e-03
  -1.63737759e-01  4.51849885e-02  3.56472544e-02 -2.72875535e-03
   3.17818150e-02 -8.44815895e-02 -3.30919251e-02  2.03791130e-02
  -8.54870025e-03 -1.94598939e-02  5.47943078e-02 -9.33478549e-02
  -3.27309221e-03  1.84844695e-02  4.17667441e-02  3.72088427e-04
   4.93389741e-02  7.64636043e-03  5.69602996e-02  5.17565059e-04
  -1.85895599e-02  2.13508196e-02  7.16605317e-03 -7.86901563e-02
  -1.77526101e-02 -3.77252176e-02 -1.11846551e-01  5.14770485e-02
  -4.37149629e-02 -5.70022985e-02 -6.45558685e-02  1.09535642e-01
  -4.94418964e-02  2.21772250e-02 -6.91155018e-03  2.41935905e-02
  -2.45784987e-02 -3.28541696e-02  3.03402003e-02  3.10085714e-02
   8.38407315e-03  2.11861897e-02 -3.99444364e-02  1.27160258e-03
   8.41927677e-02  1.31334653e-02 -2.43351283e-03  4.19753604e-02
   1.08139381e-01 -4.95010205e-02  1.39569184e-02 -4.54665869e-02
  -3.27788517e-02  1.79069698e-01 -5.53480498e-02 -2.61822417e-02
   4.16122004e-03 -2.22861171e-02 -1.40704393e-01  1.96416266e-02
  -1.53352013e-02 -4.40534614e-02 -1.28887501e-02 -4.45913449e-02
  -2.56429230e-05 -1.00406110e-02  1.18966021e-01 -4.35466170e-02
   1.46261812e-03 -5.82673727e-03 -8.00501741e-03  2.20465269e-02]
 [-3.32928933e-02  4.20089550e-02  2.82840431e-02 -6.57057464e-02
   1.64797250e-02  1.67452581e-02 -4.29702457e-03  9.01705325e-02
  -2.64528524e-02 -1.03392765e-01  3.16115990e-02 -1.05203617e-04
  -2.38850024e-02 -3.85469757e-02 -3.22258025e-02  9.25318003e-02
  -5.27345203e-03 -6.34846613e-02  1.13730617e-02  3.36403735e-02
   1.45891294e-01 -2.89507415e-02  7.89752081e-02 -7.63903633e-02
  -2.44435873e-02 -4.71777394e-02  8.34002495e-02 -3.97782736e-02
   1.03447273e-01 -2.80076545e-02 -4.88304868e-02  4.52204049e-02
   5.07752271e-03  9.90487188e-02 -6.88088387e-02  1.30362809e-02
   2.77724527e-02  1.40423313e-01  1.23899626e-02  1.19986691e-01
  -2.28350591e-02  8.07106420e-02 -7.63333365e-02 -1.59362219e-02
   1.52452337e-02  1.31584093e-01  3.71090025e-02 -8.35099723e-03
   7.70574212e-02  4.38651592e-02 -2.22927406e-02 -9.05833393e-03
  -6.43685535e-02 -4.65934072e-03  2.23158542e-02 -1.07666865e-01
  -8.18487629e-02 -6.88275173e-02 -4.91893338e-03 -3.67848091e-02
  -2.83774105e-03  2.07347199e-02 -3.73017825e-02 -9.57574695e-03
   2.10553966e-03  2.38529891e-02 -2.39513647e-02  7.20696198e-03
   3.22650932e-02 -8.34170133e-02  4.18560617e-02  3.23319919e-02
  -2.09144820e-02  8.94236006e-03  5.05419299e-02 -4.24998254e-02
   2.01597698e-02 -1.16192736e-02 -2.02180073e-01 -1.46687431e-02
  -6.68006763e-02 -8.86099972e-03  3.51931974e-02 -7.95371309e-02
  -3.02914586e-02  2.18174513e-02 -8.36128891e-02 -5.42905927e-02
  -1.68653764e-02 -1.98631193e-02  2.83008795e-02  1.82191990e-02
  -8.61613080e-02 -7.67286122e-02  3.67258675e-02 -3.96209583e-02
  -3.09053436e-02 -2.10054908e-02 -6.19936548e-02 -4.12495360e-02
  -1.08203962e-01 -8.04126635e-02 -7.06006512e-02 -1.51659800e-02
   1.05551437e-01  5.45715354e-02 -1.15698352e-01 -4.93349098e-02
  -3.75920571e-02  3.97609323e-02  1.04646161e-01 -9.83697101e-02
  -8.96192621e-03 -8.00448135e-02 -4.38638479e-02 -6.10733517e-02
   5.36055155e-02  1.21798525e-02 -1.69673618e-02  4.44712117e-02
   2.14084163e-02 -1.78214014e-02  1.27737716e-01 -2.00655181e-02
   7.08629889e-03  1.55858770e-02  8.71745273e-02 -7.29603469e-02]
 [-5.86551353e-02 -4.34824713e-02 -3.05424333e-02  7.85536095e-02
   7.37134963e-02 -3.24759185e-02 -4.41014878e-02 -7.81773850e-02
   9.90580022e-03 -1.40983230e-02 -4.36295047e-02 -2.30150912e-02
  -8.84473417e-03  2.71531604e-02 -3.39507833e-02 -1.16456233e-01
   2.40752473e-02 -5.12091257e-02 -3.58090140e-02 -1.55014649e-01
   7.92200794e-04 -1.03510432e-02  1.19772613e-01 -1.27940904e-02
   3.62305506e-03 -2.06549047e-03  1.53444498e-03 -6.29292428e-02
   1.00322470e-01 -2.32667252e-02  2.99498043e-03  3.97631824e-02
   1.83225274e-02 -7.09484890e-02  4.71198037e-02 -7.98621401e-02
  -4.04641964e-02 -1.95711222e-03  1.34777953e-03  4.03238721e-02
  -1.76520180e-02  7.31769353e-02  3.22188735e-02 -5.58567159e-02
   5.34321591e-02  8.16660076e-02  9.58292931e-03  5.30607365e-02
   4.75413799e-02  9.52279288e-03  1.76104661e-02 -3.29379290e-02
   3.22500877e-02 -1.75940841e-02 -9.19506922e-02  2.52624229e-02
  -4.35456038e-02 -5.66690750e-02  2.38582715e-02 -5.63043822e-03
   3.65748256e-02 -7.55198672e-02 -1.46503851e-01 -7.01376200e-02
  -4.05861028e-02  8.65070522e-02 -1.66190714e-02  4.50546332e-02
  -6.90645799e-02 -4.32840325e-02 -1.65823009e-02 -2.12460831e-02
  -1.55269606e-02 -3.20357718e-02  5.39492816e-03 -3.72988405e-03
   2.47733947e-02  2.51727402e-02 -1.14083290e-01 -4.08909246e-02
  -4.55080904e-02 -5.17672598e-02 -1.00370310e-01 -3.46590765e-02
  -8.87226236e-07 -8.62575695e-02  2.15338711e-02 -3.81217822e-02
   4.72986437e-02 -4.90766540e-02 -5.96646126e-03  2.13047247e-02
   1.36361448e-02  2.72673313e-02  1.50498962e-02  4.73309010e-02
  -2.23484635e-02  1.30187068e-03 -2.01814505e-03  4.81568277e-02
  -1.55556723e-01  5.21561224e-03 -4.96581057e-03 -1.72320195e-02
  -1.36450874e-02 -2.32976601e-02 -6.46406934e-02 -7.77813867e-02
   3.35857109e-03  6.47112578e-02 -6.25338778e-02  1.33783426e-02
   1.95081644e-02 -4.34167981e-02 -1.26127809e-01 -7.56216003e-04
  -1.89420618e-02  1.20337941e-01  3.12395277e-03 -3.85190509e-02
   1.22034075e-02 -2.39826497e-02 -2.43596826e-03  4.71234843e-02
   1.60664867e-03  2.48905853e-03  2.72149872e-02 -7.14876177e-03]
 [ 7.34655838e-03 -3.88704948e-02  5.43866642e-02 -1.08997384e-02
   4.24114540e-02  7.31077492e-02 -2.29037832e-02  7.96331465e-02
   3.32650468e-02 -1.22294165e-02  7.29908720e-02  1.72737557e-02
  -6.23323433e-02  3.62622999e-02  2.65391637e-03 -2.70335913e-01
  -4.89737801e-02  3.73828821e-02  1.97473336e-02 -3.65159139e-02
   3.17558944e-02 -6.87070861e-02 -6.66798204e-02 -6.33911639e-02
  -2.55468376e-02 -1.20409811e-02 -1.01141762e-02 -1.44459801e-02
   1.11130558e-01 -1.07293585e-02  6.65403306e-02  4.30078357e-02
   7.54663199e-02  5.35972929e-03  3.28572467e-03  6.14579059e-02
   3.61614227e-02  1.13641255e-01 -1.58069897e-02 -3.99476103e-02
  -5.33242933e-02 -1.54004052e-01  9.77869183e-02 -1.60779171e-02
   2.50335187e-02  8.71394277e-02  2.09178627e-02 -5.90773262e-02
   6.37063384e-02 -4.87300269e-02 -1.85960978e-02  2.25508530e-02
  -6.48803040e-02  4.89062108e-02 -1.82241321e-01 -5.40781431e-02
  -1.41307741e-01 -1.29833268e-02 -4.91058044e-02 -1.64087694e-02
  -1.20021507e-01  3.37420292e-02  2.70275801e-01 -4.55108918e-02
  -2.37178523e-02 -2.41127983e-02  1.30611792e-01  2.44605578e-02
   5.46898283e-02 -5.09375520e-03  3.51501256e-02 -5.87988086e-02
  -4.23790328e-02  1.60312392e-02 -4.08323817e-02  8.30188394e-03
   7.80078466e-04 -4.84463871e-02 -7.50821084e-02  2.19533905e-01
   4.78002541e-02  2.91918628e-02  1.96719959e-01  5.94398752e-02
  -1.35760270e-02  9.79776457e-02 -1.08416677e-01 -8.22497532e-03
  -4.97248843e-02 -6.13181889e-02  3.07583474e-02  5.16940951e-02
  -1.26059614e-02 -2.88664773e-02 -6.76825941e-02 -5.79192601e-02
  -2.72000190e-02  1.59344394e-02 -2.81187333e-02 -7.28136394e-04
   1.64650366e-01  3.33213136e-02 -4.07080585e-03 -5.36547080e-02
   9.77313519e-02 -2.94207912e-02 -2.26969704e-01 -6.86174482e-02
   6.62813662e-03 -1.43570334e-01  1.45095969e-02 -5.03321737e-02
   7.29724159e-03 -6.02405220e-02 -2.16307431e-01  8.96455906e-03
   5.14912903e-02  1.96776073e-03 -1.51432425e-04 -4.47346419e-02
  -2.94033531e-02 -1.80518311e-02  3.85021195e-02 -2.74605919e-02
  -6.06811978e-02  4.87951115e-02 -9.09379963e-03  5.07109053e-02]
 [ 1.54432105e-02 -1.26291201e-01 -4.92397845e-02  4.48091477e-02
  -4.23177332e-02 -8.55948124e-03 -6.23985343e-02  2.92956904e-02
  -4.08598594e-02 -3.76464352e-02 -2.78212279e-02  1.77511619e-03
  -1.08638652e-01 -2.55761892e-02 -5.90397604e-02  7.93083385e-02
  -5.53055555e-02  6.80917501e-03  5.90733066e-03 -7.44420066e-02
  -5.91094457e-02 -1.54301524e-01  5.38553856e-02 -6.49858341e-02
  -5.96334785e-02  2.01149564e-02  3.37805785e-02 -2.44542155e-02
   7.88650513e-02 -1.77650210e-02 -1.19666224e-02 -6.12870827e-02
   7.89014846e-02 -9.11958441e-02  4.35033441e-02  3.51154394e-02
   5.46494648e-02  4.28682752e-02 -4.04307283e-02 -4.91127297e-02
   2.46076146e-03 -7.37630799e-02  9.06548947e-02  1.59094185e-02
  -7.05510229e-02 -2.51131635e-02 -2.06097737e-02 -1.26661984e-02
  -4.85817753e-02  2.11753491e-02 -3.58081236e-03  1.47919422e-02
  -2.92227734e-02 -3.09168901e-02  8.28419328e-02  2.19420586e-02
  -6.15299456e-02 -4.24654596e-02 -6.76664859e-02 -1.13108739e-01
  -9.17916149e-02  2.33526640e-02 -5.66201955e-02  1.45601211e-02
  -1.13027245e-01 -3.09833828e-02  1.04665002e-02  5.07504903e-02
  -3.76693569e-02  3.21534183e-03 -6.73658550e-02  4.99357060e-02
   2.58117281e-02  5.35273552e-02 -5.06418981e-02 -8.37094337e-02
  -1.15054533e-01 -5.27430065e-02  5.81688471e-02  6.81454763e-02
  -7.86301866e-02  1.21459784e-02 -5.00426143e-02 -2.09780969e-02
   1.66054629e-02  2.65926756e-02 -2.65234942e-03 -2.82545947e-02
  -4.45775054e-02  1.28758457e-02 -2.79902983e-02  4.38828720e-03
  -5.97103648e-02 -2.31656618e-02  8.31787568e-03 -2.09504701e-02
  -1.62223168e-02 -5.93435876e-02  5.27286949e-03 -1.71636175e-02
  -4.25681807e-02 -9.78425443e-02 -1.53401662e-02 -2.02827901e-02
   3.09484564e-02 -1.07447065e-01 -2.24789102e-02 -5.43572903e-02
  -1.62202120e-02  7.87167922e-02 -9.64571610e-02  3.67419571e-02
   3.38318758e-02  5.14269881e-02 -6.91131353e-02 -5.45573793e-02
  -5.54919578e-02  6.31770678e-03 -1.79210678e-02 -4.99528572e-02
  -1.33996801e-02 -3.31643037e-02  9.48449830e-04 -2.80899778e-02
  -3.41670737e-02 -1.74379796e-02 -2.05531772e-02  1.22044943e-02]
 [-1.97201762e-02 -6.28454387e-02 -3.57255898e-02  6.92083910e-02
  -5.49542122e-02 -6.03344552e-02 -8.70321766e-02  3.47831398e-02
  -4.49618474e-02  6.27558753e-02  3.21429558e-02 -1.62139293e-02
  -2.80678868e-02  5.47987781e-02  4.86918278e-02  1.38651684e-01
  -3.82031240e-02 -6.59039244e-02  3.19790058e-02  1.10840611e-01
  -1.74331497e-02  3.13577056e-02 -1.54299960e-02  2.43506879e-02
  -3.01601253e-02  3.15135531e-02 -2.02160776e-01 -4.22328934e-02
  -9.72227305e-02 -3.65112089e-02 -2.44048219e-02  5.13683259e-02
   6.31851479e-02  6.48978492e-03  1.04492493e-02 -6.75114011e-03
   2.85567474e-02 -7.15095475e-02 -9.06796101e-03 -6.93007484e-02
  -6.40799627e-02 -3.02153360e-02 -4.19986174e-02  3.48167233e-02
  -1.07211955e-02 -3.86700779e-02  2.87433956e-02  4.87404913e-02
  -1.14158131e-01  3.38475332e-02 -4.03998904e-02  3.10071558e-02
   4.86569144e-02 -2.98542697e-02  5.60413972e-02 -4.53106798e-02
  -1.33293271e-01  1.18112992e-02 -6.11928627e-02 -6.05084784e-02
   4.37606312e-02 -1.05554000e-01 -1.25039920e-01  7.62961712e-03
  -5.69233438e-03 -4.98503484e-02 -1.86934154e-02 -1.92573890e-02
  -3.61851789e-02 -7.78050199e-02  1.53555330e-02 -6.10417873e-02
  -5.35690635e-02  1.81372296e-02  1.35616586e-03  1.15198838e-02
   2.75377799e-02  1.65720545e-02  1.07889071e-01 -1.64787918e-01
  -7.80593976e-02  1.42465942e-02  3.45820971e-02  5.64963184e-02
   3.38686444e-02  1.76485833e-02  3.74139138e-02  3.81306671e-02
  -3.25381495e-02  1.34101119e-02  8.78478214e-03  5.00480793e-02
  -4.69380319e-02 -4.48494926e-02  3.36188301e-02  7.72047369e-03
   5.97774517e-03 -4.42625489e-03 -2.92922892e-02  5.70993908e-02
   1.25079989e-01 -7.69660622e-02 -1.67909693e-02 -2.37459540e-02
   4.24955525e-02 -3.01912446e-02  3.61424983e-02 -2.08953638e-02
   1.16069084e-02  7.19028264e-02  1.50606188e-03  4.02336940e-02
  -4.75256033e-02 -5.52549139e-02  4.66918424e-02  1.14424704e-02
   4.87637632e-02 -3.49999815e-02 -3.94444801e-02  2.88988389e-02
  -2.98989657e-03 -1.60524808e-02  2.35547647e-02  5.23079932e-03
  -7.56653696e-02  3.56252752e-02  8.91755614e-03 -3.91952461e-03]
 [ 2.34625582e-02  4.82473290e-03 -2.02835109e-02 -1.26363710e-01
  -6.94557875e-02 -1.47137949e-02  1.37864165e-02  2.05387771e-02
   1.72411017e-02  1.81109388e-03 -4.31932956e-02 -4.94259186e-02
   1.23009300e-02 -2.23678201e-02 -5.43683618e-02  1.62505768e-02
   4.55628848e-03 -3.04373316e-02 -5.45715205e-02  8.01651273e-03
  -7.58974329e-02 -1.21320896e-02  3.75126197e-04  5.06227016e-02
   1.27867591e-02 -4.59191240e-02  4.72429860e-03 -9.84253129e-04
   9.04516652e-02 -6.11988036e-03 -9.21397470e-04 -2.87233409e-03
   1.48557156e-04 -1.07160889e-01 -5.90594634e-02 -1.66468307e-01
   1.94395781e-02 -4.64726053e-03 -3.29252711e-04 -3.25941225e-03
   4.61949706e-02 -5.83136491e-02  8.67585465e-02  1.29317557e-02
   5.01728198e-03 -7.42606148e-02 -2.75664846e-03 -3.13595347e-02
   3.92794609e-02 -1.19729945e-03 -5.20036221e-02 -4.59968448e-02
   3.99938896e-02 -4.94661331e-02  5.02292551e-02  9.36600566e-03
  -1.36937395e-01 -6.39343113e-02  1.39492415e-02 -8.65600407e-02
  -3.99843268e-02 -3.37881818e-02 -3.29441167e-02  5.48548028e-02
   3.75640318e-02  3.47132087e-02 -2.52476558e-02 -3.44682485e-03
   1.44011509e-02 -5.56298718e-02 -5.71685657e-02 -6.64886162e-02
   1.21336579e-02  3.63317542e-02 -9.52916406e-03  4.88558374e-02
  -1.96925434e-03 -4.33370247e-02 -1.13361783e-03  3.72305699e-02
  -8.64744782e-02 -1.52039193e-02 -1.68107018e-01  1.33610782e-04
  -5.61205968e-02  3.74384075e-02  2.18170527e-02  5.75635815e-04
  -1.03744986e-02 -2.36197673e-02  3.94544117e-02  1.76657122e-02
  -2.24965229e-03  9.63067077e-03 -2.77103893e-02 -6.23198925e-03
  -4.68317568e-02 -3.12912278e-02 -3.28581687e-03 -9.16815270e-03
  -3.07854638e-02  5.32856211e-02 -1.52192395e-02 -5.80316186e-02
   4.02817652e-02 -5.56658544e-02  5.45130260e-02 -5.23452647e-02
  -2.05108281e-02  1.12644196e-01 -7.54095837e-02 -7.07562361e-03
   2.01246738e-02  4.17110398e-02  5.17347269e-03  3.82361226e-02
  -1.69889332e-04 -3.77555974e-02 -5.28667793e-02  3.80646102e-02
  -3.16268019e-02  4.38255817e-02 -4.37673815e-02 -3.58722173e-02
  -9.20188650e-02  3.30255665e-02 -7.73943588e-02 -4.37544808e-02]
 [ 3.95133421e-02 -2.55196914e-02 -4.74571390e-03  1.30909160e-02
   1.30015695e-02  9.53605920e-02  5.42194210e-02  7.27468953e-02
  -1.23649894e-03 -9.22363698e-02 -2.06076279e-02  1.12020401e-02
  -1.59763489e-02  3.89132425e-02 -2.06746031e-02  4.72543053e-02
   1.65250208e-02 -1.32404147e-02 -6.17446005e-02  7.65639823e-04
   1.27019018e-01 -3.56548689e-02 -1.19525619e-01 -6.96913898e-02
  -2.48246696e-02 -2.62081344e-02  4.83356789e-03  3.44117428e-03
   7.56025836e-02 -1.16997801e-01 -4.06488776e-02  4.26288368e-03
  -3.01584695e-02  4.86851893e-02  6.16578804e-03 -4.13959660e-02
   5.64611377e-03  5.08020557e-02  1.46390647e-02  7.56411925e-02
  -1.02886623e-02  8.57935399e-02 -3.41145024e-02  2.00347714e-02
   1.15834564e-01  1.23541258e-01  2.77983584e-02  5.06148376e-02
   4.17729616e-02  2.44706962e-02 -6.29435629e-02 -8.18848312e-02
  -4.21870239e-02 -1.16952509e-02 -7.17051029e-02 -3.31172198e-02
   4.93712015e-02  4.85162670e-03 -2.30127648e-02  4.91801836e-02
  -6.03527687e-02  9.58575383e-02 -1.11548584e-02 -1.28759630e-02
  -2.05900073e-02  4.69289683e-02 -4.65804413e-02 -5.94480187e-02
  -8.22115876e-03  7.41463760e-03  4.44846861e-02  3.06540467e-02
   2.08311938e-02 -7.53136352e-02  5.31752454e-03 -3.11464388e-02
   2.40080208e-02 -4.75654453e-02 -1.39115736e-01  4.55650641e-03
  -3.78643461e-02 -1.14375940e-02 -7.01449020e-03 -5.97709417e-02
   4.61589545e-03  3.70461494e-02 -1.14383966e-01 -4.58433777e-02
   5.93526103e-02  3.20944525e-02  1.07167279e-02 -7.13243410e-02
   7.32173678e-04 -8.48748907e-02  3.33881192e-02  4.51474870e-03
  -7.95018077e-02  2.91198995e-02 -4.19255113e-03  1.32321017e-02
  -8.04439113e-02 -4.71590385e-02  7.20129488e-03 -5.81695838e-03
  -1.34990430e-02 -5.01919389e-02 -1.74730159e-02 -1.02088995e-01
  -5.63120656e-02  7.30634257e-02 -6.92472830e-02 -2.20349114e-02
   3.09082307e-02 -1.23915598e-02  5.71303219e-02 -9.68517829e-03
  -7.74279796e-03  5.46896756e-02  4.49688733e-03  2.78658215e-02
  -6.17172495e-02  1.61173008e-02  7.88839161e-03  9.43615939e-03
   6.62030429e-02  1.24304732e-02  1.58830378e-02 -4.92677130e-02]
 [-2.93949489e-02  3.39332819e-02 -1.16729247e-03  6.37954921e-02
   3.36168148e-02 -7.45377615e-02  2.53407639e-02 -1.13826305e-01
   3.80889280e-03 -8.00141599e-03 -4.67416793e-02  3.82600278e-02
   5.46854688e-03 -3.52575108e-02  2.11387351e-02 -5.97047620e-03
   2.28708610e-02  5.54876439e-02 -5.40777296e-03 -1.22400470e-01
  -6.26332387e-02  7.88154602e-02  1.79286018e-01 -4.98427935e-02
  -4.78133783e-02 -6.02426566e-02  1.69856735e-02 -6.31397814e-02
   1.51510956e-02  5.37087694e-02  6.31174296e-02  7.25991139e-03
  -1.25775546e-01  5.94663545e-02  3.25840078e-02 -5.69435433e-02
  -3.43199819e-02  4.60185111e-02  1.57142449e-02 -7.55229667e-02
   1.06367674e-02 -1.02812745e-01  9.71526876e-02 -4.44459729e-02
   6.65312037e-02  1.48293162e-02 -5.74320666e-02 -3.92754748e-03
  -1.09249488e-01  2.59476192e-02 -1.71336718e-03  3.49729247e-02
   1.21917548e-02  4.99185175e-02 -1.13648055e-02  4.67528924e-02
   4.49108779e-02 -6.59258887e-02  1.50727900e-02 -6.98459744e-02
  -3.37865055e-02 -8.22506100e-02 -6.83194250e-02  1.20978417e-04
  -1.42473672e-02  4.92556579e-02  6.90049259e-04 -3.10455356e-02
  -4.98703718e-02 -1.56991056e-03  2.63640266e-02 -6.24815263e-02
  -2.22596526e-02 -5.00500612e-02  3.74626741e-02  5.47068054e-03
  -4.80162017e-02 -4.82616350e-02 -5.56503087e-02  9.39516872e-02
   3.16339433e-02  3.78284007e-02 -1.74538046e-01  3.93259153e-02
  -1.58843137e-02  3.93748246e-02  5.20996861e-02 -1.86851948e-01
   5.02652898e-02 -5.91796124e-03 -2.69921739e-02  5.92940394e-03
  -5.58118448e-02  2.85269786e-02 -1.06298197e-02 -4.84916791e-02
  -5.83467111e-02  2.80679576e-02 -4.39843386e-02 -1.97746996e-02
  -1.77842821e-03 -1.44354599e-02  5.13229035e-02 -4.79133464e-02
   3.97563390e-02  7.52808817e-04 -6.94097951e-02 -6.90343007e-02
  -1.99591033e-02  4.23053280e-02 -4.81406339e-02  2.92360578e-02
   6.99800299e-03  1.95621178e-02  2.99583597e-04 -3.93981449e-02
  -4.21784911e-03  1.02233760e-01 -5.85832074e-02 -2.93679349e-02
  -4.24221829e-02 -6.94088265e-02 -1.10283293e-01 -8.87889042e-03
   1.72059424e-02  1.30215818e-02 -5.99619523e-02 -2.73314025e-02]
 [ 3.47253717e-02 -6.17358685e-02  1.25467395e-02 -1.62449360e-01
  -4.80734883e-03 -3.68571728e-02  7.31954202e-02  3.19484361e-02
   1.39163118e-02 -3.39410082e-02 -3.25540043e-02 -3.10225748e-02
  -4.49263938e-02 -5.41547127e-03 -3.94825712e-02 -3.39159220e-01
   4.74486984e-02  6.53549880e-02 -6.50294824e-04 -5.17158061e-02
   1.62500232e-01 -8.73200968e-02 -1.60449043e-01  2.27798019e-02
  -6.63430542e-02 -2.75199320e-02  1.07680693e-01 -5.68084083e-02
  -2.90192780e-03  1.37825698e-01 -1.76361781e-02  2.44511943e-02
  -2.65253093e-02  2.38087568e-02  1.90052036e-02 -2.49092598e-02
   4.22627926e-02 -6.06646053e-02  6.98738173e-02 -3.54589410e-02
  -3.64683829e-02 -7.30319619e-02  5.23895770e-02  1.29819866e-02
   2.79193334e-02  2.50333939e-02 -2.36750990e-02  1.52810197e-02
   1.04288943e-01 -2.16777641e-02  6.85003493e-03 -3.19536850e-02
   5.02699800e-02 -4.82337503e-03 -1.80944741e-01 -1.74108729e-01
  -1.05248585e-01  4.97904664e-04 -4.43466790e-02 -2.16986146e-03
  -5.58084697e-02  6.90257251e-02  9.14468691e-02  9.41965170e-03
  -4.79666144e-02 -1.36639888e-03  1.04708269e-01  1.11432502e-03
  -2.88248155e-02 -4.76340726e-02 -5.64847216e-02 -4.46796529e-02
   4.01455238e-02 -1.11350968e-01  5.26369065e-02  4.90785465e-02
  -1.45480055e-02 -2.62302514e-02  3.24407779e-02  1.46261856e-01
  -3.81249674e-02 -5.65954410e-02  1.41248301e-01  7.69301504e-03
  -1.50289852e-02 -6.72778711e-02 -9.99058932e-02 -1.55288093e-02
  -2.35569905e-02 -2.44458038e-02 -2.10412163e-02 -4.63658012e-02
  -8.97137523e-02  4.30051557e-04  2.38276888e-02 -6.79048337e-03
   6.70687854e-02  3.77214178e-02 -3.55700850e-02 -6.63954392e-02
   5.88848330e-02 -1.91793367e-02  1.52543699e-03 -7.88897052e-02
  -1.46950155e-01  7.74109038e-03 -1.90487176e-01 -6.00774996e-02
   3.07730809e-02 -1.53902352e-01 -5.51520362e-02  7.79320076e-02
  -3.53080779e-02 -2.70986860e-03 -1.81196123e-01 -2.28836592e-02
   4.33980807e-04 -5.02739288e-02 -1.92698967e-02 -1.27188154e-02
  -5.10797165e-02  1.33712254e-02  4.70318273e-02  2.24204138e-02
  -4.04238589e-02 -6.44782186e-02 -3.14875618e-02 -5.14643453e-02]
 [ 2.78624427e-02 -5.01122605e-03 -7.31651336e-02 -8.01134389e-03
   5.95927471e-03 -5.88161238e-02  1.86941326e-02 -3.72447893e-02
   9.25260782e-03 -5.27497530e-02 -1.58189908e-02 -2.30313856e-02
   2.06636619e-02  5.08746952e-02 -4.14816402e-02  9.86120757e-03
   4.45822394e-03 -2.69569848e-02 -3.94980386e-02 -8.47517848e-02
  -4.71235476e-02  2.13364288e-02  2.12250482e-02  1.25133852e-02
  -5.18064722e-02  2.81678941e-02 -4.00266759e-02 -2.50175819e-02
   2.37925705e-02 -4.60547097e-02 -6.14882633e-02 -4.09769639e-02
   3.98957990e-02 -6.76882789e-02 -5.48793040e-02  6.76260293e-02
   1.04706362e-02  2.55264472e-02  4.71945405e-02 -1.66570172e-02
   4.57015857e-02  4.80784476e-02  9.50691774e-02 -1.99064557e-02
  -2.75229458e-02  1.02060154e-01  4.51162346e-02  4.05446962e-02
   1.12415403e-02  5.17132366e-03 -7.76601732e-02  4.13836576e-02
  -5.94983287e-02 -1.59753803e-02  1.22848324e-01 -5.68327047e-02
  -9.63811055e-02 -1.96698476e-02  1.24351252e-02  3.59405801e-02
  -5.12998812e-02  5.13607338e-02  4.67283726e-02 -5.16021065e-02
  -3.39118652e-02 -6.08207583e-02 -4.32775617e-02 -7.98532516e-02
  -6.16153656e-03  3.38677019e-02 -8.32992867e-02 -5.58906514e-03
  -2.97360457e-02  1.95280500e-02 -1.58269349e-02 -7.78451413e-02
  -6.78027496e-02 -2.09598187e-02  5.32318763e-02  5.20110875e-02
   4.71648239e-02 -5.50870039e-02 -1.30072413e-02  1.77353024e-02
   2.86220154e-03  4.72813100e-02  5.79825602e-02  3.20774913e-02
  -1.69939231e-02  3.65010761e-02  3.56785879e-02  2.44584884e-02
   1.64863318e-02 -4.47705500e-02 -6.83032814e-03  7.78931018e-04
   2.76603941e-02 -1.00399684e-02  1.36948032e-02 -6.44833669e-02
   1.13850627e-02 -2.28151567e-02 -6.65593222e-02  9.98402014e-03
   1.00056059e-03 -4.61101122e-02 -2.56976131e-02 -8.44858885e-02
  -5.32177985e-02  3.16898413e-02 -3.97735350e-02  5.57486229e-02
   2.42283475e-02 -9.10022780e-02 -1.40778691e-01  1.22089013e-02
  -3.81967910e-02  4.33054082e-02 -2.74809189e-02  3.03022731e-02
   1.14497980e-02 -6.12962283e-02 -4.16657655e-03 -3.27470042e-02
  -8.42528343e-02 -7.77292028e-02 -3.24216969e-02 -4.28099893e-02]
 [ 3.49518098e-02  2.79828440e-02  3.69057655e-02 -8.35335534e-03
  -1.74402678e-03 -9.76732150e-02 -1.22044338e-02  5.51758036e-02
   4.02759033e-04 -5.63976504e-02  3.35054435e-02 -1.46723464e-02
  -4.77973446e-02  1.07972799e-02 -3.02392468e-02  3.24165970e-02
   3.98447784e-03  3.31677757e-02 -5.19039594e-02  8.52509886e-02
  -1.20099105e-01 -1.23938985e-01  1.74066611e-02 -3.72552611e-02
   1.56007595e-02  3.77087779e-02 -1.25067383e-01 -5.12632318e-02
  -8.60074759e-02 -6.57340586e-02 -8.62528831e-02 -1.25790024e-02
  -3.51802260e-02  7.58964345e-02 -2.44035143e-02 -1.97964646e-02
  -2.20697168e-02 -8.68279114e-02 -5.16085960e-02 -6.09842539e-02
  -1.39510809e-02 -1.04111666e-02 -2.63016652e-02 -2.64392700e-02
   5.20107485e-02 -4.05955538e-02 -4.79819551e-02 -5.83845712e-02
  -1.08900912e-01 -2.72059981e-02 -5.75408489e-02  4.01155464e-02
   2.27124840e-02  8.63089878e-03  8.17150995e-02  1.21195782e-02
  -2.12764621e-01 -4.74063382e-02 -3.93103696e-02 -1.19423540e-02
  -2.65631322e-02 -1.40434995e-01 -1.05517749e-02  3.15401517e-02
  -5.20458445e-02 -1.09250687e-01  2.38787960e-02 -2.25091074e-03
  -2.83281843e-04  4.44543548e-02  6.94808643e-03 -1.60180870e-02
   1.50090978e-02  1.06374640e-02 -7.83743486e-02  4.90025058e-02
   8.05622898e-03  2.03449819e-02  4.76966500e-02 -1.47788465e-01
   2.67838803e-03 -2.57477891e-02  1.86526552e-02 -3.46400402e-02
   3.83848511e-02  2.30576545e-02 -1.61766540e-02  6.19666614e-02
   3.48699018e-02  1.63910561e-03  2.26135738e-02 -8.80060904e-03
  -5.61248772e-02 -3.38930301e-02 -2.35224632e-03 -3.80001962e-02
  -6.54026344e-02  4.12172303e-02 -5.35019301e-02 -4.14655581e-02
   1.37718067e-01 -4.89781797e-02 -1.19019374e-02 -5.49598224e-03
   6.67832233e-03 -1.36015117e-02  1.12035304e-01  2.77773812e-02
  -6.17438145e-02  1.56836677e-02  1.81060433e-02 -5.93994372e-02
   5.20474790e-03 -2.78327372e-02  4.63963998e-03 -1.85473673e-02
  -5.52513972e-02 -6.47548214e-02  1.47516793e-02 -3.08326073e-03
  -3.24288905e-02 -6.18425086e-02 -9.30980667e-02  1.38735408e-02
  -4.54960428e-02  3.04547474e-02 -4.41091061e-02 -6.17154017e-02]
 [-6.44374415e-02 -3.67704444e-02  1.34105876e-03 -1.14774868e-01
  -4.38060164e-02 -2.36577913e-02  4.49041538e-02  3.21931988e-02
  -5.44360876e-02 -1.87941808e-02  1.71726272e-02 -4.24344577e-02
  -5.69042191e-02  9.82923247e-03 -6.96124807e-02 -1.70813687e-03
   4.80947830e-03  4.31733355e-02 -9.41968933e-02 -3.70984226e-02
  -5.48776351e-02  5.58364429e-02 -2.29151528e-02 -1.17587633e-02
   6.06828136e-03  3.21619287e-02 -7.91411102e-03 -2.87492070e-02
   5.44724762e-02 -2.28953045e-02  4.37687486e-02  1.21737150e-02
  -4.70541068e-04 -6.97255433e-02 -6.24192059e-02 -1.42631859e-01
  -6.13953136e-02 -6.62018284e-02 -6.81984499e-02  4.18995321e-02
   3.46564762e-02  4.17469181e-02 -3.81173822e-03 -1.16902608e-02
   6.05805293e-02  1.02936737e-01 -1.33153982e-02  2.24065371e-02
   3.68464366e-02  3.22368741e-02  4.72356332e-03  1.82870198e-02
  -2.64865682e-02  4.11665998e-02  5.16713373e-02  2.09190026e-02
  -1.63113385e-01 -4.77343835e-02 -6.63234890e-02 -6.36959150e-02
  -8.94458666e-02 -2.03765649e-02  8.94744694e-03 -3.39995623e-02
  -1.49370022e-02 -3.32568362e-02 -5.03247008e-02 -3.77091356e-02
   4.30346206e-02 -8.39828700e-02 -2.46300027e-02  4.08328371e-03
  -6.12088665e-02  6.40088040e-03 -3.96765880e-02 -4.46779020e-02
  -7.67382458e-02 -9.37046297e-03 -3.68082598e-02 -6.58671707e-02
  -7.37233236e-02 -7.59490626e-03 -3.86488289e-02 -1.78337414e-02
   3.59196961e-02  6.23448938e-02 -4.05544564e-02  3.32820811e-03
   2.76916604e-02 -4.86753695e-02 -2.95004714e-02  4.56925966e-02
   7.41877593e-03  2.71529076e-03  1.67847127e-02 -5.88053502e-02
  -1.73377935e-02 -4.29286472e-02  2.53865942e-02 -1.72549095e-02
  -6.37681335e-02  3.83652598e-02 -4.16264571e-02 -3.55190858e-02
   6.46231174e-02  1.99955236e-02 -2.97617353e-02  2.31361575e-02
  -5.20109804e-03  5.51267304e-02  4.03810740e-02  8.55397899e-03
   4.55353297e-02 -3.00771873e-02 -8.62414539e-02 -3.63120101e-02
   4.15157191e-02  4.69868705e-02 -6.13251366e-02  3.87769826e-02
  -6.18167855e-02 -4.37156931e-02  1.07737593e-01  3.10518034e-02
   3.83921005e-02 -2.94494405e-02 -6.17913790e-02 -1.83582772e-02]
 [-1.54477935e-02 -1.35776047e-02 -1.89748649e-02  4.17467244e-02
   3.23892199e-02  9.40271653e-03 -5.76485954e-02  7.58235902e-02
  -6.98552951e-02 -1.33878395e-01  2.04586275e-02  1.51174413e-02
  -7.47571141e-02 -8.60531405e-02 -5.74542023e-02  1.19218305e-01
  -4.57362970e-03 -7.27376416e-02  2.46670675e-02 -1.52663393e-02
   1.48045674e-01 -7.35028982e-02  1.35962907e-02 -2.50645317e-02
   3.79480608e-02  1.10470830e-02  6.12241440e-02  4.28745933e-02
   5.42412736e-02 -4.27993154e-03  3.17351036e-02 -3.19158435e-02
   1.04885502e-02  1.15525976e-01 -5.74223250e-02 -7.94454198e-03
   2.84759037e-04  3.81957777e-02  2.67653465e-02 -1.92743335e-02
  -8.88096355e-03 -1.27987694e-02  2.44286228e-02  1.97071750e-02
   4.73854169e-02  7.70344585e-02  4.46118079e-02 -3.16170193e-02
   8.66474137e-02  2.82299407e-02  2.07767151e-02 -4.52299565e-02
  -2.64496636e-02 -4.42359038e-02  2.81939432e-02 -5.07079102e-02
  -6.63505122e-02 -1.47974733e-02  4.31901477e-02 -3.48161953e-03
   1.78205862e-03  3.15454751e-02  4.57628183e-02 -4.22401680e-03
  -8.22065305e-03  2.02417397e-03 -3.53862680e-02  2.03325711e-02
  -4.20976467e-02  5.09561738e-04 -5.43973558e-02 -6.23254962e-02
  -2.16997508e-03 -4.95731197e-02  3.34646516e-02 -2.67987000e-03
  -1.47092137e-02  5.12360921e-03 -2.95852218e-02  3.08328550e-02
   9.71360784e-03 -3.65832336e-02 -2.80712191e-02  2.88369451e-02
   3.33698206e-02  1.90871991e-02 -1.10871047e-01 -8.08912814e-02
   2.06404030e-02 -4.71090116e-02  3.94453965e-02 -9.44686180e-04
  -6.32361770e-02 -6.26263693e-02 -4.64530773e-02 -4.60457094e-02
   1.27859758e-02  3.48416977e-02 -5.15293032e-02  4.80978042e-02
  -6.36288375e-02 -3.47431526e-02 -2.69801132e-02  3.87620367e-02
   3.86456959e-02 -3.88741978e-02 -3.40389870e-02 -9.10480544e-02
  -6.60357028e-02  1.09381646e-01 -6.29425864e-04 -4.13216427e-02
  -1.54719166e-02 -9.89024341e-03  7.82866552e-02 -6.78610802e-02
   1.69505402e-02  4.46775183e-02 -1.23392977e-02  3.96449231e-02
  -1.39390184e-02  5.58271632e-03  3.16933990e-02  2.28915345e-02
  -7.03748390e-02 -7.87958410e-03  7.66852051e-02 -1.64638925e-02]
 [ 4.95304428e-02 -3.14491093e-02 -4.71770950e-02  7.90099800e-02
  -2.52599772e-02  9.81038157e-03  6.78260950e-03 -1.53010041e-01
   2.30084099e-02 -6.73153400e-02 -5.61361536e-02  1.47484643e-02
  -3.29428203e-02 -3.70102376e-02 -6.05055057e-02 -7.05859587e-02
   4.23220769e-02 -3.23792584e-02  2.75005195e-02 -1.32031396e-01
  -3.58973891e-02 -4.02106196e-02  2.09662423e-01  5.01409918e-02
  -2.25479752e-02 -5.54253943e-02 -1.23307288e-01 -5.51120415e-02
  -2.54052300e-02  7.60727972e-02 -2.52748895e-02 -3.81876640e-02
   6.32070228e-02 -8.41580778e-02 -4.88667935e-02 -3.28223519e-02
   3.20337228e-02  8.70806426e-02  3.32530178e-02  2.90565640e-02
   3.54445167e-02 -1.54629469e-01 -4.40270491e-02  1.31870098e-02
  -1.38826063e-02 -5.25265671e-02  3.99329364e-02 -6.99807703e-03
  -1.09146722e-01 -4.52939980e-02 -7.47005865e-02  4.76933829e-02
  -1.73730333e-03  5.28564192e-02 -8.55266452e-02  5.06720319e-02
  -2.47245468e-02 -4.92989197e-02  3.45081985e-02 -2.88063213e-02
  -5.16254641e-03 -6.92811385e-02  2.37977672e-02 -3.91076803e-02
  -6.32230118e-02  1.42718724e-03  6.42770007e-02 -5.29730245e-02
   1.43475551e-02 -6.53517693e-02  1.33083882e-02  4.83245142e-02
  -4.45559099e-02 -4.05625328e-02  8.45058337e-02 -8.07648618e-03
   3.06129456e-02  2.51051039e-03 -3.68485264e-02  2.94637885e-02
   1.69623941e-02  2.49904487e-02 -2.64745802e-02 -6.74142763e-02
   4.14580032e-02  4.07889411e-02  4.69821505e-03 -2.57906504e-02
  -3.40729393e-02  2.61252765e-02 -5.52505031e-02 -9.97983571e-03
   3.50427930e-03 -7.26256892e-02 -7.05062076e-02 -5.79721704e-02
  -4.17778417e-02 -3.59357707e-02  1.39112743e-02  3.25057134e-02
  -8.58102813e-02 -8.10060352e-02 -2.88044717e-02 -3.82040069e-02
  -1.32257327e-01  4.88384180e-02 -1.04041375e-01 -5.04292846e-02
  -5.05132489e-02 -3.89063847e-03  5.77579299e-03 -3.63831371e-02
   4.12678160e-02  1.67964827e-02 -1.12194195e-01  3.16068940e-02
  -2.72441357e-02  9.42027569e-02 -5.19749001e-02  4.92818840e-02
   4.11967821e-02 -8.27691108e-02 -1.64380372e-01 -4.33965065e-02
   2.34451853e-02  2.42074560e-02  7.92925619e-03  1.68274511e-02]
 [-6.67553246e-02 -1.35985631e-02 -4.64337179e-03 -8.35314915e-02
  -1.05585223e-02  8.19725078e-03  3.65336053e-02  5.52395806e-02
   4.38825984e-04  1.04847224e-02  5.08844331e-02 -4.70444970e-02
  -5.39799891e-02  2.21602917e-02 -6.29797876e-02 -2.86563396e-01
   1.75702982e-02  2.72414703e-02 -7.78997764e-02 -6.43425956e-02
   1.44119427e-01  6.84837904e-03 -1.33812696e-01 -6.66087717e-02
   1.86195709e-02 -2.30727363e-02  3.96533944e-02  1.77622680e-02
  -7.60473907e-02  1.06549948e-01 -4.76394631e-02  4.64340970e-02
  -1.49388462e-01 -2.89013367e-02  4.05950882e-02  1.89241599e-02
   1.89052727e-02  9.07351524e-02 -1.32683563e-04  5.03803939e-02
  -1.57728065e-02  9.23161730e-02  3.54784355e-02  2.60014609e-02
   1.30616739e-01  1.24609927e-02 -2.48569790e-02 -6.21275529e-02
   3.90036032e-02 -5.34823127e-02  2.04627728e-03  2.18513720e-02
  -6.35377541e-02  3.44876237e-02 -1.77165955e-01 -9.29057449e-02
   4.06708010e-02  4.31276448e-02 -5.99759929e-02 -2.23335866e-02
  -4.63379994e-02 -1.33680655e-02 -4.59586969e-03  2.10411642e-02
  -3.86195183e-02 -2.87343133e-02  3.96405645e-02 -3.59333344e-02
  -9.89566278e-03 -9.73876473e-03 -5.67214005e-03 -7.14589730e-02
  -2.00584438e-02  8.66896957e-02  2.18056682e-02  4.82990034e-02
  -2.32676547e-02 -4.69219545e-03  1.45957455e-01  9.40395370e-02
  -8.32889676e-02  2.64305770e-02  1.29837573e-01  6.72776476e-02
  -1.06129246e-02 -6.85781613e-02 -2.99741272e-02  9.16814134e-02
   5.48230447e-02 -8.35172087e-03 -7.70269288e-03 -4.84137014e-02
   3.78240086e-02 -1.70987938e-02 -2.06280611e-02  1.87182985e-02
   3.30909118e-02 -5.85076585e-03  6.21514628e-03 -2.61179935e-02
   2.54291594e-01  1.09838964e-02  3.42338420e-02 -5.81476502e-02
  -1.51987761e-01  9.39535648e-02 -6.26293421e-02 -2.54138838e-02
   9.49257426e-03 -1.90015063e-01 -6.47458732e-02  4.65893075e-02
   9.42248385e-03 -1.36247976e-02 -2.32944116e-01  3.75456326e-02
   1.76473279e-02 -2.05520857e-02  3.49585898e-02 -2.62915064e-02
  -6.70274571e-02 -3.55066061e-02  1.72435846e-02  2.21751891e-02
   3.63493375e-02 -2.40799738e-03 -9.52442065e-02 -2.25659292e-02]
 [-5.87702394e-02  8.20309576e-03 -2.55345404e-02  7.05485418e-02
  -5.03404997e-02 -2.95912959e-02 -1.22716213e-02 -2.16228366e-02
   4.00056280e-02 -3.14526334e-02  4.59833555e-02 -2.45551001e-02
   3.43924761e-02  2.66757440e-02 -6.16601817e-02 -2.36014891e-02
  -5.20159714e-02 -7.98845291e-02 -7.58550316e-02 -1.73789337e-02
  -6.45181313e-02  1.98386963e-02 -1.08689619e-02 -6.54213950e-02
  -4.53610793e-02 -4.83996049e-03 -1.54207889e-02 -1.78515594e-02
   7.97943771e-02  3.03410385e-02 -5.23319282e-02  1.65540166e-02
   8.00159946e-02  4.75879237e-02 -1.41008329e-02  4.58582193e-02
  -1.45432260e-02 -3.36861536e-02  2.37046331e-02 -2.94688605e-02
   1.88526623e-02 -2.07922910e-03  1.35874748e-01 -4.00065370e-02
   5.62217040e-03  1.02118040e-02 -1.37494337e-02  1.53550897e-02
   1.64029133e-02 -5.76382950e-02  3.02001480e-02 -1.93476025e-02
  -7.36862272e-02  1.08505767e-02  4.74287495e-02 -3.24328914e-02
  -9.43693891e-02 -4.53864112e-02 -2.97410246e-02 -8.58748630e-02
   1.99231729e-02  8.72473605e-03  3.27844992e-02  1.08730504e-02
   6.41867286e-03 -3.46939787e-02  2.24645492e-02 -6.12049699e-02
   9.94069502e-03 -1.06807776e-01 -5.12909330e-02  9.30471439e-03
  -5.03623076e-02 -7.10859746e-02  1.27315931e-02 -6.92788213e-02
  -9.74439606e-02 -6.01566583e-02  3.47454064e-02  7.16564208e-02
  -3.02297305e-02  1.38584804e-02 -6.54088408e-02 -7.86639675e-02
  -1.23320008e-02  3.59753817e-02 -3.82292755e-02 -1.14794495e-02
  -4.61938754e-02 -4.67618043e-03 -2.82970592e-02  7.55634755e-02
   1.52387163e-02 -2.56416909e-02 -5.28448485e-02 -5.86475898e-03
   2.64332872e-02 -5.94464503e-03 -3.84621359e-02  2.79699569e-03
  -7.24979350e-03 -4.13981117e-02 -1.89853813e-02 -4.84104361e-03
  -8.05201381e-02  2.25406885e-02 -6.49616420e-02  2.51406748e-02
  -4.67258394e-02  6.00324422e-02 -1.95070133e-02  2.45039817e-02
  -5.52720558e-05 -3.31093930e-02 -7.46172890e-02 -1.04718972e-02
   4.26238701e-02  1.05529875e-02 -1.06099695e-02 -5.77196479e-02
   3.27159464e-02  1.50924772e-02 -4.07482237e-02 -1.85271876e-03
  -1.33962303e-01  1.67248715e-02 -4.08907467e-03 -3.66709530e-02]
 [-4.62657586e-02  2.28232406e-02  2.06498969e-02 -2.60797199e-02
   1.22404573e-02  1.08611174e-02 -5.52466046e-03  6.22327588e-02
  -3.70478556e-02  3.70892882e-02  3.12857851e-02  3.37369032e-02
   2.52624545e-02  2.47961432e-02 -5.63838482e-02  8.24157149e-02
   1.99083984e-02  2.61529302e-03  1.46341780e-02  7.90912211e-02
  -4.23048995e-02 -8.04021955e-02 -2.97377482e-02 -5.68978041e-02
   1.74342785e-02 -8.40359926e-03 -7.25350752e-02 -5.08549698e-02
  -1.14164017e-01 -9.11296830e-02 -1.45119894e-02  5.88270240e-02
   5.24826231e-04  7.29230493e-02 -5.26350923e-02 -7.43430778e-02
   5.32740094e-02 -7.96209127e-02 -8.25012010e-03 -4.69758250e-02
  -2.74464712e-02  3.74734364e-02  3.44381221e-02  4.16910611e-02
  -5.76417781e-02 -3.80758867e-02  3.07077635e-02  4.66544628e-02
  -4.32425402e-02 -4.34402231e-04 -1.82640795e-02 -4.35380265e-02
   4.20387238e-02 -3.75708789e-02  5.68074174e-02  2.35016607e-02
  -6.99385703e-02  3.08822803e-02 -3.89592312e-02  3.13989446e-02
  -6.77170455e-02 -7.17523620e-02 -7.85378814e-02 -5.34431599e-02
  -3.37710865e-02 -1.97531447e-01 -1.96187813e-02 -2.61998009e-02
   1.87937182e-03  1.77371670e-02  1.22114215e-02 -2.08058511e-03
  -1.44450867e-03 -1.62093733e-02 -5.69170788e-02  7.27709290e-03
  -3.09082512e-02 -6.57995865e-02  9.87805575e-02 -1.98184446e-01
  -5.71928136e-02 -1.66354049e-02  2.32558884e-02 -5.95943406e-02
   1.23590063e-02  2.00326052e-02  3.73846069e-02  7.89730102e-02
  -6.01318516e-02  3.13853100e-02 -5.29418103e-02 -2.92595886e-02
  -1.74315572e-02  7.42875924e-03 -3.02861575e-02 -4.31281924e-02
  -3.01292632e-02  2.25626342e-02  1.77304931e-02 -4.91028316e-02
   5.80042563e-02 -9.98275802e-02  3.78254429e-02 -3.37052271e-02
   3.10928840e-02 -8.64495188e-02  8.90633538e-02  3.00408807e-02
   4.76976037e-02  4.17816453e-02 -8.87485892e-02 -4.40269969e-02
  -6.48328066e-02 -5.99494316e-02  2.22949758e-02 -5.48257418e-02
  -4.90256809e-02 -5.44903837e-02 -3.48980241e-02 -6.33816943e-02
   1.69258900e-02  1.10113164e-02 -7.08962008e-02 -3.86369713e-02
  -5.59583493e-02 -4.79808673e-02  2.93716174e-02 -1.86220463e-02]
 [-1.45689007e-02  4.02303785e-02 -6.93513602e-02 -6.33250251e-02
   1.11159794e-02 -1.96710434e-02 -1.90864463e-04 -1.86078809e-02
   7.85732362e-03  1.65914670e-02  2.42887493e-02 -4.84567689e-04
  -2.80457027e-02 -2.41762437e-02 -5.33319125e-03  3.99877690e-03
   1.73755996e-02  7.55557641e-02 -6.24012537e-02  2.99658403e-02
  -7.45206978e-03  9.13235173e-03 -1.98487248e-02 -6.49364293e-02
  -3.34361754e-02 -2.77249105e-02 -4.17362638e-02  2.20737401e-02
   8.28163922e-02 -1.89813208e-02 -5.79256415e-02  1.77707672e-02
  -6.56766817e-02 -2.75323372e-02 -3.67046408e-02 -7.90528357e-02
  -1.54133905e-02  4.19560187e-02 -3.43638705e-03  1.13274874e-02
  -6.28754869e-02 -1.43698510e-03  1.41889537e-02 -3.71360071e-02
   1.09835332e-02  3.91182583e-03 -4.13234206e-03  4.66567762e-02
   8.54385272e-02  2.38628741e-02  1.29993390e-02  5.49966246e-02
  -6.79253833e-04 -2.47416329e-02  2.99743153e-02  4.36225869e-02
  -4.68009599e-02 -6.43752739e-02 -1.80092489e-03  2.58720783e-03
  -2.33457144e-03 -8.87681842e-02 -1.37918636e-01 -4.91425134e-02
   2.68748142e-02 -3.31475772e-02  5.32231480e-02 -4.59291693e-03
   4.09140699e-02 -8.99121761e-02 -7.37365941e-03 -3.88581529e-02
  -1.59552193e-03 -1.22199887e-02 -1.04434779e-02 -6.51418194e-02
   1.96099412e-02  3.07834893e-02 -3.59458923e-02  5.79684563e-02
  -6.02666661e-02 -4.45918522e-05 -4.17411961e-02 -2.75122607e-03
  -9.70144011e-03  4.85166349e-02 -1.79165509e-02  8.85312818e-03
  -2.37365495e-02  1.05780624e-02 -5.48308855e-03 -5.27046733e-02
   2.09973548e-02 -2.50309948e-02  1.07515249e-02  2.85209734e-02
  -7.25499392e-02 -7.85696600e-03  4.63724025e-02  1.33559536e-02
   5.55086322e-02 -4.91195619e-02 -4.07545827e-02  4.94979620e-02
   2.51277685e-02 -3.15774381e-02 -4.16521691e-02  4.82443981e-02
   3.20051424e-02 -2.08896101e-02 -5.67524992e-02 -4.08011712e-02
  -3.08267009e-02  2.92638391e-02  4.89556324e-03  4.85934466e-02
  -2.74922904e-02  4.85549234e-02 -6.54733181e-03  4.05834196e-03
  -2.15893947e-02 -3.25940661e-02 -1.43169863e-02 -4.88065854e-02
  -2.59050913e-03  2.27357037e-02 -7.61588151e-03 -6.54931813e-02]
 [ 2.27686390e-03 -1.05229979e-02 -1.39545128e-02 -5.49848611e-03
   3.72888707e-02  2.96824723e-02  1.04517238e-02  6.17694892e-02
  -3.36780064e-02 -5.65457456e-02 -5.42655587e-03 -1.32858660e-02
  -9.90845263e-03 -5.32495696e-03 -4.13467176e-02  8.17312524e-02
  -6.63507804e-02 -1.53438961e-02 -4.61411662e-02  9.17734280e-02
   2.91984677e-02 -1.52979894e-02  5.30906953e-02  3.73694375e-02
   2.38703862e-02  2.45156959e-02 -1.39487004e-02  5.06431758e-02
   8.70415047e-02 -2.97885928e-02 -6.04354553e-02  9.31130257e-04
   9.83402953e-02  3.57075371e-02 -6.05158433e-02  7.94923306e-02
   2.41162181e-02  7.62546510e-02 -7.56750852e-02 -5.56526184e-02
   4.12252322e-02 -4.68544625e-02  8.98077860e-02 -4.92978804e-02
   1.46477227e-03  9.73907858e-02 -4.46194299e-02 -5.33666424e-02
   7.30209798e-02 -4.63411771e-02  1.26118064e-02 -9.60724615e-03
   3.10844509e-03 -3.60991880e-02  1.28747318e-02 -1.85790868e-03
   6.55772537e-02 -8.26491937e-02 -1.68447159e-02  9.90017224e-03
   1.18337870e-02  1.08322330e-01 -4.45719212e-02  3.93134095e-02
   1.30046457e-02  8.55952650e-02 -1.12656817e-01 -4.10432406e-02
  -5.84696531e-02  1.02171823e-02  2.18105670e-02  3.69895040e-03
  -6.59962445e-02  4.11438532e-02 -6.36542914e-03 -6.48210347e-02
  -6.83794320e-02 -4.10030112e-02 -6.63918480e-02  3.42382342e-02
  -4.38064290e-03  4.04589251e-03  7.81412888e-03 -4.80001569e-02
  -2.85543944e-03  6.67151511e-02 -9.81406122e-02  2.42912229e-02
   1.02013247e-02 -6.08874597e-02 -2.67340038e-02 -9.92957652e-02
   2.73895450e-02  2.03810260e-02 -5.40895909e-02 -5.35200723e-02
  -4.32063788e-02 -4.10277843e-02 -2.13693269e-02  2.84717767e-03
  -4.67443466e-02  8.16018041e-03 -3.40410545e-02 -5.61498292e-03
   9.06636566e-02 -8.81169662e-02  2.84806900e-02  9.67947708e-04
   4.42201085e-02  6.04593754e-02  1.70938969e-02 -3.95130105e-02
   4.53769183e-03 -8.69349912e-02  4.92894948e-02 -4.37550507e-02
   4.63684741e-03  2.33274568e-02 -2.29596682e-02 -3.95233706e-02
   3.64800431e-02 -1.71548519e-02 -1.06856965e-01 -4.61441427e-02
   1.62011050e-02 -2.67025977e-02  2.58195330e-03 -5.45148477e-02]
 [-3.51932980e-02 -6.12350143e-02 -1.11415125e-02  3.44572328e-02
  -8.45467020e-03 -1.19651938e-02  1.70980319e-02 -7.11305887e-02
  -4.20387797e-02  4.93165366e-02 -1.42482873e-02 -5.24047166e-02
  -5.88066131e-02 -4.27893214e-02  4.52697687e-02 -6.21846020e-02
  -2.27500629e-02  1.71813287e-03  4.06620651e-03 -8.10962915e-02
  -1.71910644e-01 -2.06013322e-02 -1.51534677e-02 -2.03653015e-02
  -2.08975729e-02  2.30620895e-02 -1.11610532e-01  5.94145572e-03
   4.55442108e-02  8.04934800e-02 -4.16467749e-02 -3.53476708e-03
   6.28200322e-02 -9.25309956e-02 -5.45662493e-02 -3.93254310e-02
  -1.74805410e-02  2.34821755e-02 -4.55214530e-02  7.08563998e-02
   5.37925214e-03 -1.49964884e-01  1.12270705e-01 -5.58760650e-02
  -1.40922228e-02  1.22095488e-01 -6.31467402e-02 -1.72196459e-02
  -2.89476346e-02 -5.56881502e-02 -3.38423364e-02  5.09661250e-02
  -2.12496286e-03 -8.81532859e-03 -8.45317617e-02  3.87045704e-02
   4.89072017e-02 -5.70812896e-02 -3.11664995e-02 -6.55365596e-03
  -4.45322804e-02 -4.80423905e-02  6.71520829e-02 -6.08595647e-02
  -7.74565786e-02  9.15336832e-02  1.26640916e-01  3.03021669e-02
   1.57192703e-02 -1.45680634e-02  3.46596316e-02  1.66930221e-02
  -3.52016017e-02  2.74638701e-02  5.04760072e-02  1.93856172e-02
  -2.47016270e-02 -3.32418084e-02  6.64871484e-02  9.62280631e-02
   3.84701192e-02  5.44740213e-03 -3.87504473e-02  1.51750259e-02
  -2.80189961e-02 -1.02120981e-01 -4.41673733e-02  5.29422015e-02
  -1.41177345e-02  4.55020256e-02  5.69877774e-02  1.68148316e-02
   4.60683219e-02 -2.03180984e-02 -1.55188954e-02  1.90678295e-02
  -4.79862019e-02  1.98894534e-02  1.76673420e-02 -1.67307872e-02
   5.75797707e-02 -4.86060120e-02 -1.34514151e-02 -3.61208282e-02
  -2.43582934e-01 -2.46188175e-02 -3.95734236e-02 -5.68931140e-02
   3.07141654e-02 -8.85828584e-02 -3.32662091e-02 -3.13309021e-02
  -4.16081725e-03 -4.80321757e-02 -5.79683967e-02 -3.53612863e-02
   1.21459821e-02  1.80695340e-01 -6.05298541e-02 -3.91723923e-02
  -6.24186546e-02  4.06429060e-02 -1.16738239e-02  6.79279212e-03
   5.10997623e-02 -1.14094056e-02 -6.44214125e-03  1.40210399e-02]
 [-7.63099119e-02 -3.09199188e-02 -3.32861841e-02 -1.39562100e-01
  -6.56419396e-02 -5.55394813e-02 -5.71557917e-02 -9.56012961e-03
   4.09351327e-02  4.92047183e-02  3.52756269e-02 -4.84138355e-02
   5.56012802e-02 -6.15856089e-02 -1.35050667e-02 -2.13109881e-01
  -2.22285222e-02 -1.37249865e-02 -7.88163207e-03  6.44955933e-02
   1.65453956e-01  6.49470463e-02 -1.84146985e-01  2.66704299e-02
   4.68599834e-02  7.29549304e-02 -4.32647131e-02 -5.76186515e-02
   7.25170076e-02  3.34875546e-02  2.25651171e-02  5.19160368e-02
  -1.11659795e-01 -4.98576649e-02  1.47779770e-02 -1.03620529e-01
  -3.44608128e-02  1.51363060e-01  2.31851842e-02  7.69513622e-02
  -6.35561198e-02  9.76147056e-02 -6.54665828e-02 -3.16723324e-02
   5.59218153e-02  7.63236061e-02  2.75093988e-02 -3.79323661e-02
   2.20813677e-01  2.34191809e-02 -1.65860206e-02  4.30902988e-02
   1.75642967e-02 -5.36509864e-02 -5.49915172e-02 -1.45061672e-01
  -1.31185859e-01 -1.51524600e-03  2.83548818e-03 -6.67532086e-02
  -3.61601496e-03 -8.78047291e-03  4.84952033e-02 -3.51676010e-02
  -1.19189722e-02  2.05429047e-02  1.54629901e-01 -2.60762125e-02
  -3.77434865e-02 -7.04941601e-02  2.35307403e-03  4.09128852e-02
  -8.06409866e-04  4.06823829e-02 -1.13505490e-01 -6.20953962e-02
  -1.73007008e-02 -5.86794317e-02  1.66907609e-01  7.98768923e-02
  -3.77667360e-02  1.04804225e-02  1.40448391e-01 -3.78531404e-02
   5.89257572e-03  1.75676923e-02 -2.22121440e-02  9.58866030e-02
   3.72379012e-02 -2.87082717e-02 -5.93732751e-04  2.94121895e-02
  -4.35964996e-03 -3.58246863e-02  3.02917394e-03 -5.86939119e-02
  -1.23569490e-02 -3.96759156e-03  4.91315760e-02  7.33881071e-03
   1.25447288e-01 -4.41321619e-02  3.32905818e-03 -3.30549479e-02
  -1.65789753e-01  3.94091420e-02 -1.17855541e-01 -6.16616532e-02
  -5.35833687e-02 -1.87521204e-01 -2.62021739e-03  5.68288863e-02
  -2.50195991e-03 -4.71530110e-02 -1.92019045e-01 -1.45231066e-02
   2.34393217e-02  7.76271373e-02  2.49749273e-02  2.33624000e-02
  -4.67784256e-02  4.09681723e-02  2.75274203e-03 -6.31141365e-02
   8.54393765e-02  1.15731312e-02 -4.37245741e-02  1.62111297e-02]
 [ 1.11402627e-02  3.32442969e-02 -6.96303044e-03  4.27790135e-02
  -5.88289797e-02 -5.65747581e-02 -3.01907025e-03 -9.94637609e-03
  -7.01798918e-03  3.10216416e-02 -2.38978267e-02  2.12640110e-02
  -5.42597752e-03 -8.01138505e-02 -5.22126630e-02 -8.92841816e-03
  -1.82724595e-02  3.10683418e-02 -2.99389381e-03 -3.35484408e-02
  -7.43079334e-02 -6.29421994e-02 -2.10071336e-02 -2.88948398e-02
   3.63399573e-02 -2.13924553e-02  2.33238912e-03 -6.97822943e-02
   7.37219900e-02 -3.45251486e-02  1.34231569e-02  4.46971506e-03
   8.56797397e-02  1.39245139e-02 -2.85551939e-02  1.07593164e-01
  -5.15279882e-02  2.04794798e-02 -5.10864966e-02  7.09663406e-02
  -3.39741111e-02  6.33132979e-02 -3.81110236e-02  1.38984369e-02
  -7.38815591e-02  5.84937558e-02 -2.43680310e-02 -6.52899966e-02
   7.04814196e-02 -4.11931835e-02 -5.93541041e-02  9.35036782e-03
  -4.02590260e-02  2.68766843e-03  9.58662033e-02  3.22878361e-02
  -9.95794684e-02  1.72328036e-02  2.72743758e-02 -2.73695402e-02
  -7.04321712e-02  7.08651394e-02 -1.12699773e-02  3.25510018e-02
  -3.28153186e-02 -7.17504248e-02 -4.19584326e-02 -7.39564002e-02
  -1.14078466e-02 -2.25199088e-02 -6.08898178e-02 -4.84785847e-02
  -4.40442264e-02  4.54531014e-02 -5.60653657e-02 -2.08322369e-02
  -1.25929907e-01  3.31267901e-02  3.54228765e-02  5.94153665e-02
  -2.44951490e-02  3.73251624e-02 -7.49860033e-02 -6.62981905e-03
  -6.61364272e-02  3.36639881e-02 -2.45738029e-02 -2.04297770e-02
  -2.60030106e-02  4.75719571e-02 -5.49034476e-02 -1.97727047e-02
  -5.20759709e-02 -2.77462676e-02  4.97801527e-02 -1.73699707e-02
  -4.54355925e-02 -5.61786741e-02 -4.33597118e-02 -8.30710828e-02
  -5.15270978e-04 -4.12779897e-02 -8.76272246e-02 -7.44419247e-02
   3.59718688e-02 -1.90878808e-02  2.59939544e-02  3.12279426e-02
  -4.10093889e-02  6.44601211e-02  2.04672851e-02  1.66701712e-02
  -3.65838222e-02 -6.92672402e-05 -5.76141290e-02 -6.60183504e-02
  -2.74066739e-02  1.49458023e-02  3.86103392e-02 -5.45854829e-02
   3.80122662e-03  4.86972108e-02 -3.60118933e-02 -5.08832932e-02
  -8.57810378e-02 -5.58718434e-03 -6.64546713e-02 -5.65233789e-02]
 [-1.97544619e-02 -5.83231077e-02  1.31414421e-02 -7.18718246e-02
  -4.37730290e-02  5.55351153e-02  8.92682350e-04  1.19757205e-01
   4.29256037e-02 -6.22658804e-03 -5.16158855e-03  4.24156822e-02
  -5.69503813e-04 -3.16510908e-02 -6.48234859e-02  4.01344746e-02
   9.90687590e-03  7.40746269e-03 -4.92622741e-02  1.27253249e-01
  -7.27521954e-03 -9.59550813e-02 -5.19399308e-02  3.98871256e-03
  -6.76800264e-03 -1.96457878e-02 -7.90060461e-02 -5.15384153e-02
   3.86499637e-03 -2.52923183e-02  3.79068218e-02  3.34770605e-02
   2.78739585e-03 -2.58311424e-02 -3.59079093e-02  1.22156115e-02
   2.07825825e-02 -4.45146719e-03 -1.53928110e-02 -1.10875955e-02
  -3.34533229e-02 -1.10463286e-02 -5.13388366e-02  3.42139676e-02
  -5.93458302e-02 -4.31137383e-02  1.98323522e-02  1.77165493e-02
   2.29089689e-02  1.52948471e-02  1.69438478e-02 -4.70288806e-02
   5.00908233e-02  5.70233073e-03 -9.66278929e-03 -3.44106667e-02
  -1.41729966e-01 -1.18709449e-02  4.63283025e-02 -6.26720348e-03
  -2.24535875e-02 -2.68840473e-02 -4.32087556e-02 -2.59023681e-02
  -2.25786082e-02 -1.27300173e-01 -5.53783774e-02  2.91630649e-03
  -3.93093228e-02 -2.56280750e-02  4.08327626e-03 -2.34554778e-03
  -4.09558639e-02  1.49109110e-03 -7.38164363e-03  2.67435703e-02
   3.18477079e-02 -4.26798537e-02  3.43007520e-02 -2.07824320e-01
  -1.99004589e-03 -3.98333408e-02 -2.34967545e-02 -6.18465543e-02
  -5.82284853e-03  6.41826093e-02  2.79475413e-02  8.70155841e-02
   1.17540089e-02  5.43750869e-03  5.09217323e-04  3.10145561e-02
  -3.01836580e-02 -4.17138115e-02 -4.05630618e-02 -1.81899816e-02
  -8.14962983e-02 -4.42542136e-02  2.12808624e-02 -1.52744455e-02
   1.23141579e-01 -9.12401900e-02  1.92340161e-03 -5.25468923e-02
   4.73375060e-02 -2.48065013e-02  8.88917372e-02 -2.16032341e-02
   3.73535901e-02  5.02214730e-02 -8.66827667e-02  2.53114440e-02
   1.54103823e-02  1.89187322e-02 -4.20448324e-03 -1.48098795e-02
   5.27150147e-02 -7.11855069e-02  3.45271826e-02 -3.94486003e-02
  -3.72387245e-02  4.43449104e-03 -7.32380375e-02 -3.57649103e-02
  -8.37282166e-02  7.60935387e-03 -6.30072653e-02 -3.87886651e-02]
 [-2.45450269e-02  2.14960054e-02 -4.19624001e-02  7.54077686e-03
   6.08613598e-04 -7.55016208e-02 -4.20384184e-02 -9.52064525e-04
  -1.84469263e-03 -5.60759753e-02  1.94263868e-02 -3.98399793e-02
  -7.10709468e-02  7.95004889e-02 -4.26371023e-02  6.09020218e-02
  -5.82324900e-02  1.08639054e-01 -6.83495402e-02 -4.66003286e-04
  -4.95757200e-02  6.92105889e-02  5.60905039e-02  2.35723406e-02
  -6.96559846e-02 -2.55766641e-02  2.87390910e-02 -8.68906751e-02
   7.21359327e-02 -1.41331702e-02 -1.69450361e-02  4.16414486e-03
   2.54283715e-02 -8.34660530e-02 -5.79934008e-03 -5.91064207e-02
  -6.22791536e-02 -2.04800814e-03 -7.76080638e-02 -5.69358841e-02
  -6.44327998e-02  3.68152708e-02 -1.76000781e-02  3.35081331e-02
  -2.25326810e-02  4.07208018e-02  1.96805093e-02 -5.26132062e-03
   9.71894935e-02  5.81609458e-03  1.99112482e-02  4.41897959e-02
  -1.81294815e-03 -4.44802307e-02 -3.38805132e-02 -4.84154113e-02
  -1.76648632e-01  2.58946442e-03 -1.20735755e-02  1.86434053e-02
  -4.10610773e-02 -8.42213258e-02 -5.57326972e-02  2.88609155e-02
   2.62241401e-02  5.06106094e-02  4.35386412e-02  2.66416166e-02
  -1.36543969e-02 -8.33492819e-03 -3.75327393e-02  2.92876444e-04
  -5.16715199e-02  4.96875867e-02 -9.36570317e-02 -3.40954796e-03
  -9.79959443e-02 -6.24591578e-03  2.45837849e-02  3.73326689e-02
  -8.56516287e-02 -6.57497495e-02 -1.80522278e-02 -3.48206796e-02
  -3.95815931e-02 -8.10134783e-03 -2.89963353e-02 -3.36518101e-02
  -5.92400506e-02 -6.35202676e-02 -3.29900049e-02 -1.20988572e-02
  -3.11822761e-02  2.81640366e-02 -3.92569005e-02 -5.86746037e-02
   1.30420048e-02 -7.72005543e-02  2.71668006e-02  9.41677950e-03
  -4.07281108e-02 -4.22601122e-03  1.71923563e-02  1.06074009e-02
   5.56790642e-03 -4.29693051e-02 -4.74916846e-02 -5.66285141e-02
   1.10733910e-02 -4.03131911e-04 -8.54683518e-02 -6.93175420e-02
  -4.02685516e-02 -5.19291647e-02 -2.77788416e-02  1.03145558e-03
  -4.30937149e-02  2.68403608e-02 -8.33223090e-02 -1.88240130e-02
   4.44646366e-02  1.38473967e-02  9.41572264e-02  3.96808125e-02
   1.74853150e-02 -5.23769185e-02  4.61160578e-02 -2.42965128e-02]
 [ 2.33914517e-02  4.94250245e-02 -3.77327874e-02 -3.62195913e-03
  -4.04281206e-02  3.36200558e-03  3.32622379e-02  8.28663483e-02
   3.86910662e-02 -5.32047972e-02  2.12146249e-03 -7.69220386e-03
  -8.58680252e-03 -8.33645537e-02  5.30203711e-03  1.22497961e-01
  -3.03026121e-02 -1.00202644e-02  1.96186430e-03  3.31906565e-02
   8.92225057e-02 -8.96785781e-02 -6.15515411e-02 -5.43550625e-02
  -5.68383969e-02  7.96533655e-03  5.26212947e-03 -3.76637392e-02
  -5.19216396e-02  3.88970152e-02  4.38119732e-02  3.32386903e-02
   7.19237626e-02  6.92676678e-02  4.04031985e-02  7.92380273e-02
  -3.92230190e-02  1.17124550e-01 -2.25919709e-02 -8.75066668e-02
   1.50164990e-02 -1.68612693e-02  9.97562632e-02  8.81738495e-03
  -7.91230705e-03  1.63852289e-01 -6.22735098e-02 -5.30344360e-02
   8.15728083e-02  2.92201377e-02  1.43072782e-02  2.43857894e-02
  -3.25201675e-02  4.11008634e-02  5.85951889e-03 -7.52064288e-02
  -1.84336994e-02  3.65331839e-03  1.69954188e-02  1.35704747e-03
  -3.18356007e-02  7.23041520e-02 -6.37416318e-02 -1.67123079e-02
   6.86825141e-02  3.63595970e-02 -1.11319073e-01  8.89938511e-03
  -1.24123145e-03 -5.10159805e-02 -2.03948189e-02 -3.79701927e-02
   1.31580299e-02 -1.12756984e-02 -1.76183064e-03 -2.30593979e-03
   1.69911459e-02  1.07485987e-02  3.19853835e-02  1.07800186e-01
   3.35977934e-02 -4.76719290e-02 -4.71572243e-02  1.16291167e-02
  -4.24118191e-02  1.35222748e-01 -1.54143032e-02  5.50866462e-02
  -7.87112396e-03  1.12048192e-02  2.06552930e-02 -8.34580064e-02
  -7.27005675e-02 -8.16334337e-02 -1.31731294e-03 -8.18386953e-03
   8.74220487e-03  3.38504724e-02  9.64965485e-03 -1.28486771e-02
  -7.14560524e-02 -3.01567186e-02 -6.24489374e-02 -2.91545894e-02
   6.30510300e-02  3.59823704e-02 -8.51147249e-03 -5.00238761e-02
  -3.82879819e-03  1.29978433e-01 -3.71973477e-02 -2.61150096e-02
  -3.84970568e-02  1.74445584e-02  8.59253109e-02 -3.83127257e-02
  -2.35089958e-02 -4.45568329e-03 -2.64795478e-02  1.50075769e-02
   2.73476541e-02 -1.87422782e-02 -8.45333189e-02 -5.16542606e-02
  -5.46104498e-02 -3.02445907e-02  6.58138469e-02  2.04623267e-02]
 [-4.28233854e-03  3.54066119e-02 -6.83254451e-02  3.54064740e-02
  -4.73449565e-02 -7.98183456e-02 -1.63560845e-02 -1.48585811e-01
  -2.95637473e-02  2.81870086e-03  1.27426349e-02  3.70441154e-02
  -5.14716171e-02 -8.80680885e-03 -5.25680790e-03 -6.64796308e-02
  -1.03921788e-02  1.99402347e-02 -2.60509942e-02  1.10550085e-02
  -9.50799510e-02 -1.16330497e-01  1.22375891e-01 -1.28755635e-02
  -3.57585922e-02  4.46326695e-02 -1.47019848e-01  2.69796960e-02
  -7.20537081e-02  9.42537412e-02 -4.94918972e-02 -7.54849464e-02
   2.84102894e-02 -2.04825066e-02 -4.66899574e-03 -8.32935870e-02
   5.34266829e-02  1.10050691e-02  3.58925648e-02  8.96164626e-02
  -3.63149717e-02 -9.77568254e-02 -4.21950333e-02 -5.59265316e-02
   4.77877706e-02 -1.89369526e-02  3.36918496e-02 -5.76809272e-02
   1.07093016e-02  1.44829620e-02  3.74661423e-02 -3.35051082e-02
   9.10342205e-03 -6.21236525e-02 -7.55764246e-02  3.40434313e-02
   3.83833311e-02 -4.74024080e-02 -5.98219410e-02  2.75608227e-02
   3.97444516e-02 -3.35080810e-02  3.43825743e-02 -8.34017247e-03
  -4.87949979e-03  3.73477340e-02  1.65281892e-01 -6.53275549e-02
   9.56399739e-03 -6.99541718e-02 -3.54909673e-02 -3.16565186e-02
   1.71138416e-03 -6.44414350e-02 -3.95399034e-02 -3.36170793e-02
   5.79248443e-02 -3.71351987e-02  2.33243611e-02 -3.67123121e-03
   3.01241465e-02 -2.92235264e-03  6.63928613e-02 -3.99490446e-02
  -5.05345203e-02 -3.25818449e-01 -3.89459655e-02  6.52650148e-02
  -5.29196858e-02  2.97437701e-02  4.58620898e-02  2.39158962e-02
   4.10388298e-02  1.43032866e-02  6.89899176e-03  1.89154185e-02
   5.04679084e-02 -1.54781332e-02  2.79507432e-02 -1.02498615e-03
   1.71550259e-01 -3.00770495e-02  1.49786742e-02  5.19466810e-02
  -2.59728193e-01  1.62206087e-02 -2.04847585e-02 -3.92237073e-03
   2.87064668e-02 -6.69038715e-03 -1.64940581e-02 -6.15878180e-02
   2.78133769e-02  2.10607927e-02 -9.06387568e-02  2.39969175e-02
  -5.02734743e-02  1.64390914e-02  5.06097451e-02  3.76469679e-02
   4.03272659e-02  3.41328420e-02 -8.40869322e-02 -5.70375547e-02
   8.64640847e-02 -5.57401925e-02 -1.14568487e-01  4.84616496e-02]
 [-6.92306971e-03  3.47133763e-02 -6.30359203e-02 -1.98117383e-02
  -9.21487284e-04  5.82294762e-02 -3.51547413e-02  5.68879768e-02
  -1.48847513e-02 -4.32633273e-02  5.54198585e-02  4.50953580e-02
  -8.78015533e-03  2.56491220e-03  2.03071218e-02 -1.73573911e-01
   3.11453491e-02 -7.48979300e-02  1.23965051e-02  9.34627503e-02
   1.59157827e-01  1.28157094e-01 -2.22386971e-01  2.28030384e-02
  -6.86361343e-02  2.88353227e-02  8.70064087e-03 -2.38220822e-02
   1.27094742e-02 -1.46772200e-02  5.93686514e-02  9.33132321e-02
   4.41751741e-02 -2.72700228e-02  2.35843547e-02 -1.52670413e-01
   4.35359739e-02 -3.51095349e-02 -4.07081982e-03  9.88936722e-02
  -1.09596038e-02 -1.12188784e-02 -6.73820004e-02  4.77566900e-05
  -2.03200728e-02 -3.39937471e-02  2.29078066e-02 -4.97909412e-02
   1.59489945e-01 -4.85694297e-02 -9.53228399e-03  3.41023728e-02
   4.74965759e-03  3.06758620e-02  5.32876654e-03  1.12927482e-01
  -2.63910115e-01  8.03462341e-02  5.30012399e-02  4.00924496e-02
  -1.79417543e-02  7.94161707e-02  5.84543943e-02 -9.13211778e-02
  -9.47244689e-02 -3.48913558e-02  2.35671252e-02  1.73352417e-02
  -2.05487758e-02 -3.64466347e-02  3.90426554e-02 -3.95931341e-02
   4.37987149e-02  2.32064743e-02 -4.19295430e-02 -3.77961248e-02
   1.82541329e-02 -2.39558686e-02  8.99528638e-02  3.27469558e-02
   5.84329292e-03 -3.05443872e-02  1.11745916e-01 -2.56635044e-02
   3.35377976e-02  2.70390697e-02 -5.82688004e-02 -4.69382806e-03
   4.45151682e-06  1.74337216e-02  2.96996385e-02 -3.62249389e-02
  -1.08440556e-02 -3.74094471e-02  1.59424469e-02  4.22720462e-02
   5.66825233e-02 -2.46027261e-02  3.35417241e-02  5.35719767e-02
   1.92342564e-01  3.99177782e-02  3.18065435e-02  3.63624841e-03
  -4.64746244e-02 -2.42974628e-02 -2.59164292e-02 -2.40214691e-02
  -2.24905573e-02 -1.41063467e-01  3.78591232e-02 -2.87968777e-02
   3.73768993e-02  1.38513073e-02 -2.38471627e-01 -4.37859967e-02
  -1.54188229e-02  4.97188233e-02 -3.54753584e-02 -6.86595275e-04
   4.40342724e-03 -3.17695662e-02  7.84536377e-02 -2.96982727e-03
  -7.75965527e-02 -5.42954355e-02 -5.57780592e-03 -5.47257960e-02]
 [ 2.72164866e-02 -1.61599815e-02 -4.13206778e-02 -5.39985895e-02
  -6.89865202e-02 -2.24954393e-02 -4.64263894e-02 -6.56580478e-02
  -6.92145750e-02  1.96583644e-02 -5.76654635e-02 -4.86638695e-02
   5.18353321e-02 -1.18805757e-02 -5.23316041e-02  6.71534017e-02
  -4.91998866e-02  1.16557091e-01 -7.69967586e-02 -7.02718422e-02
  -4.80435006e-02 -1.04560619e-02  1.12515306e-02  4.28870097e-02
   5.68628637e-03 -4.04936709e-02 -7.33200312e-02 -6.24446385e-02
  -1.02569368e-02 -8.07847902e-02 -5.18204784e-03 -2.82726418e-02
   2.81976443e-02 -7.02299699e-02  4.61894795e-02  4.62199375e-02
  -5.73687209e-03 -7.65736168e-03  2.07537916e-02 -5.02796248e-02
  -1.61304958e-02  9.53230485e-02  6.18421361e-02  3.01233884e-02
  -3.81877050e-02  3.77997453e-03  3.64549607e-02 -5.17183132e-02
   4.11320627e-02  4.33416814e-02  1.89258344e-02  3.16331498e-02
  -6.82779476e-02 -6.04830645e-02 -2.55459286e-02 -4.88307029e-02
  -1.43899918e-01  2.03413283e-03 -4.69203740e-02 -2.76095383e-02
   8.84901211e-02  2.15366241e-02  1.04334718e-03  1.24447513e-02
  -1.58040777e-01 -3.31809558e-02  2.38355920e-02  2.96791513e-02
   5.09804077e-02 -4.36186194e-02  2.58494243e-02 -6.67854995e-02
   9.47908498e-03  3.08567751e-02 -4.62745735e-03 -6.56085610e-02
  -1.01740345e-01  2.01161392e-02  5.46282493e-02 -1.67034846e-02
  -1.70453843e-02  2.94478405e-02 -3.11375428e-02 -1.00560404e-01
   4.70933989e-02  1.08076192e-01 -5.34638055e-02 -1.96053628e-02
  -4.21380019e-03 -3.18557210e-02 -5.33507578e-03  3.57414894e-02
  -2.72584893e-02 -7.12957606e-02 -1.46611976e-02  1.71936061e-02
  -4.72649634e-02 -4.64403257e-02 -1.72279086e-02 -2.79481150e-02
   5.84806688e-02 -4.59983163e-02 -5.32009788e-02  8.02437062e-05
  -2.21582837e-02 -7.22761676e-02  1.73601825e-02 -7.31617808e-02
  -7.42519274e-02  6.29203022e-02 -2.45332122e-02 -6.14971220e-02
   8.09194241e-03  4.55735028e-02 -1.37269050e-01  5.81375184e-03
  -2.97718104e-02  6.53559566e-02  3.88726220e-02 -4.94631231e-02
  -3.31993215e-02 -3.00825629e-02 -5.63395657e-02  2.40931362e-02
   5.91045886e-04 -4.52284329e-02 -5.69210239e-02 -3.45142186e-02]
 [-2.78259385e-02  7.53313862e-03 -5.72870811e-03  6.06963690e-03
   2.82678544e-03  5.83760999e-02  6.24448135e-02  7.69789591e-02
   2.69756261e-02  4.76706326e-02  3.20924520e-02  1.20438752e-03
  -4.09209616e-02 -5.74357249e-02  4.49072011e-02  6.43923953e-02
  -5.36858328e-02 -7.82636553e-02 -4.00754698e-02  1.14711151e-01
  -4.67886031e-02 -1.92029178e-02 -7.23503008e-02 -3.04923449e-02
   3.46091278e-02 -1.88050345e-02 -1.63229555e-01 -8.17307532e-02
  -1.03163168e-01 -4.42788601e-02 -7.42520615e-02  3.67877074e-02
  -2.63486840e-02  6.53851777e-02  5.27640767e-02 -1.24775238e-01
   2.08220314e-02  4.73592430e-03  7.54827308e-03  6.01407187e-03
   4.02114280e-02 -6.61047990e-04 -6.46635983e-03 -4.40245457e-02
  -5.60497716e-02  9.95759573e-03  3.28433067e-02 -5.28336950e-02
  -2.19375007e-02  4.68310639e-02 -2.41959374e-02  4.21365313e-02
  -4.33979034e-02 -2.46653636e-03 -5.12402691e-03  7.43819326e-02
  -2.82702565e-01 -6.23396747e-02 -3.09193749e-02  3.35570052e-02
  -3.59074436e-02 -7.61697069e-02 -6.16607219e-02  3.71750109e-02
  -1.09888762e-01 -1.27735317e-01  3.08607183e-02  2.66567599e-02
   1.74277388e-02  2.55432110e-02  4.78822440e-02  3.64492498e-02
   4.80111353e-02 -1.78648271e-02 -4.62091789e-02  4.28471379e-02
  -7.97647014e-02 -6.09907918e-02  6.04092553e-02 -1.76378071e-01
  -2.51787715e-02 -6.52748917e-04 -3.31392065e-02 -6.19679466e-02
  -6.43753186e-02  9.68134310e-03 -5.29231764e-02  2.12722179e-02
   1.24237929e-02  2.70676650e-02  1.39211295e-02 -1.90581363e-02
  -7.58839864e-03 -5.09721190e-02 -4.12389189e-02  4.16699611e-02
   1.82166025e-02  1.27336476e-02  1.88854318e-02  1.70565248e-02
   9.71568972e-02 -8.38558152e-02 -2.94091031e-02 -3.54697965e-02
   1.39161095e-01 -2.86808759e-02  4.09035347e-02 -3.85319106e-02
   4.51499149e-02  1.59054454e-02 -8.58614892e-02 -5.63561916e-02
  -1.47169335e-02 -1.46680428e-02 -1.23565597e-03  3.25000249e-02
  -7.27429660e-03 -1.71700157e-02 -5.69791952e-03  1.89755056e-02
   1.97563842e-02  2.77554467e-02 -1.82782337e-02 -7.12398393e-03
  -4.92106713e-02 -7.32908375e-04  4.97344360e-02 -1.08602010e-02]
 [ 1.76609419e-02 -1.00148078e-02 -7.79373050e-02 -3.57582718e-02
  -4.56293598e-02 -8.98780301e-03 -4.88767251e-02  5.15597686e-02
   4.71908078e-02 -1.03658296e-01  2.34355070e-02 -1.17866565e-02
  -3.43899503e-02 -1.75224300e-02 -2.75875628e-02 -5.45068122e-02
  -5.41514792e-02  6.27390295e-02  1.39496382e-02  4.28536981e-02
  -3.69156115e-02 -6.79291338e-02 -2.30303407e-02  1.96255315e-02
   1.48699479e-02 -2.89398357e-02 -6.27860799e-02 -6.68292791e-02
   1.03766315e-01  7.77340680e-03  2.46634372e-02  7.65435258e-03
  -2.48898510e-02 -6.86502606e-02 -4.17293049e-02 -1.21037662e-01
  -7.51320869e-02  6.60210103e-02  3.68961245e-02 -6.14883862e-02
  -5.65398969e-02 -2.96708643e-02  7.60766910e-03 -2.54426114e-02
  -3.51851173e-02  1.35022178e-02  2.46967860e-02 -4.67771217e-02
   5.60175534e-03 -4.57622223e-02 -4.93889414e-02 -3.83119136e-02
   1.78768823e-03 -4.84195203e-02  3.33969258e-02 -2.47491896e-02
  -1.16443165e-01 -1.26633225e-02 -6.39161881e-05  8.33693775e-04
   3.56956013e-02  6.34566694e-02 -1.86805744e-02  1.66310649e-02
   4.93568815e-02 -1.21363075e-02  2.45881435e-02 -4.50060815e-02
   2.38491725e-02 -2.38854322e-03 -5.49010038e-02 -9.62908473e-03
   4.70996574e-02  3.67059410e-02 -6.93501979e-02 -2.67699547e-02
  -4.99576703e-02 -4.22442779e-02 -3.87854837e-02  6.33932501e-02
  -7.21640363e-02  2.27203444e-02 -4.63387631e-02  2.64138002e-02
  -2.83434633e-02  3.59481834e-02 -1.07050303e-03 -1.86056900e-03
   6.73900265e-03  3.26857492e-02  2.86629573e-02  2.72775833e-02
  -4.26754504e-02  2.17754822e-02 -7.95586854e-02 -6.70656860e-02
  -7.31791556e-02 -1.35757532e-02 -1.91412028e-03  3.72646712e-02
  -6.42192364e-02 -2.95647103e-02 -2.51585222e-03  1.69231053e-02
  -1.70642994e-02 -3.58650461e-02 -1.11352511e-01 -4.37209681e-02
   8.93659610e-03  1.33452658e-02 -6.69254735e-02  3.91728319e-02
   1.89289972e-02 -1.21098878e-02  4.99499105e-02 -1.53651973e-02
   1.71495415e-03  3.70430350e-02 -2.62723230e-02  1.46134170e-02
  -7.49168321e-02 -8.39913264e-03  3.77520211e-02 -2.11693160e-02
   1.32077932e-02  2.12077573e-02 -1.40186856e-02 -6.54307455e-02]
 [ 1.33499433e-03  8.05080235e-02 -6.70067593e-02 -2.58739083e-03
  -5.24030440e-02  3.85639332e-02 -8.71701762e-02  5.43825850e-02
   2.02311818e-02 -1.01757489e-01  4.85895909e-02 -3.99686471e-02
  -2.07890524e-03  3.33837792e-02  4.39259270e-03 -7.12534320e-03
   1.57407988e-02 -8.52603167e-02 -2.66520716e-02  1.30603507e-01
   1.00036815e-01  5.88787608e-02 -1.18708462e-01 -2.32028756e-02
   7.72509631e-03 -5.09915650e-02  3.00248037e-03 -2.50471160e-02
   3.63970324e-02  6.39566407e-02 -1.51335895e-02 -2.41461731e-02
   3.85435000e-02  2.95935385e-02  1.15054734e-02  7.40682781e-02
  -3.49653102e-02  2.09850352e-02  1.73430890e-02  2.81949341e-02
   3.96460928e-02  7.98879378e-03  6.35521263e-02  3.43629047e-02
   8.02385882e-02  7.05565140e-02 -6.47085607e-02 -3.04711498e-02
   1.17092922e-01  3.45779322e-02 -6.05749758e-03 -9.28365290e-02
   2.94477101e-02 -6.00181744e-02  3.17067169e-02 -1.09678403e-01
  -1.13665098e-02 -8.62399861e-03 -6.17735982e-02  5.27406745e-02
  -8.76222998e-02  2.04907078e-02  3.36116478e-02 -3.85654978e-02
   1.45297386e-02  1.81209967e-02 -8.34994111e-03 -1.89347472e-02
  -4.89489548e-02 -8.67814496e-02 -3.62482779e-02  1.05614746e-02
  -1.80397667e-02  7.57324174e-02 -4.09172848e-02 -8.79650563e-02
   6.50439486e-02 -5.02213091e-02 -1.12203561e-01  5.97901382e-02
   1.74737666e-02  4.81870882e-02 -2.24697646e-02 -5.04550636e-02
  -4.69909161e-02  1.65316567e-01 -2.97314078e-02 -4.36159484e-02
  -2.76298332e-03 -3.31675224e-02 -7.00752586e-02 -7.68248737e-02
  -6.17402233e-02 -8.33276510e-02  8.95027723e-03 -1.03005636e-02
   1.26763247e-02  2.03877799e-02 -2.35373341e-03 -2.57260259e-03
  -5.65825962e-02  3.47510837e-02  3.11062541e-02 -5.26480116e-02
   1.69600293e-01 -6.40099347e-02  2.77359653e-02 -3.79771218e-02
   1.53327482e-02  1.12930119e-01 -3.45227984e-03  2.89405715e-02
  -3.99652356e-03  2.32843701e-02 -4.49969694e-02 -1.50974179e-02
  -6.11181632e-02  1.76963280e-03 -1.47690065e-03  3.96734774e-02
   3.70141305e-02 -5.25508858e-02 -2.19825958e-03 -2.28588264e-02
  -1.02265671e-01 -2.56616902e-02  1.71448980e-02 -6.21122755e-02]
 [ 5.18626608e-02 -4.92648035e-02  3.16746831e-02  4.28089388e-02
   6.06220774e-02  1.43505512e-02 -6.24832660e-02 -1.73412487e-01
   5.54184914e-02  1.09770223e-02 -3.24963853e-02  4.95223403e-02
  -6.02845848e-02  3.38447094e-02 -6.23474177e-03  1.79105240e-03
  -5.67877963e-02 -3.03571746e-02 -3.42333578e-02 -7.24597871e-02
  -2.57383138e-02 -9.50042624e-03  1.75033584e-01 -1.93361901e-02
  -3.55041362e-02  1.86256005e-03 -1.54801756e-01 -5.04502580e-02
  -1.15823038e-01  7.36440122e-02 -3.44858654e-02 -2.52836570e-03
  -3.54317017e-02 -6.47184849e-02 -5.98549023e-02 -7.54337013e-02
   4.73065153e-02 -7.82569125e-02 -3.35332416e-02 -3.46241184e-02
  -1.07606715e-02  4.88647670e-02 -1.05257876e-01 -4.61787097e-02
   9.42789763e-02 -1.33979898e-02 -1.77577008e-02 -3.95976938e-02
   1.91250984e-02 -4.71670181e-02 -1.62725281e-02  1.25451870e-02
   5.44221066e-02 -5.59801869e-02 -5.62630780e-02 -4.79828306e-02
   3.59712876e-02  5.00679426e-02 -1.89015493e-02 -5.29946908e-02
  -6.75545726e-03 -5.08883521e-02  2.76938807e-02 -1.52282957e-02
  -3.69464569e-02  5.64018264e-02  1.13063745e-01 -3.23407985e-02
  -5.34089729e-02  2.47777086e-02 -5.97842671e-02 -1.36372922e-02
   5.26514426e-02 -7.08468929e-02  4.16837484e-02 -5.36810271e-02
   5.38064130e-02 -3.77263986e-02  6.26889290e-03  1.47722095e-01
   4.02762890e-02 -2.78881118e-02  1.17163397e-01  4.72923890e-02
  -4.67156507e-02 -2.88116544e-01 -6.68605417e-02  6.19079880e-02
   3.75572518e-02 -1.12858200e-02 -1.89973414e-02 -3.12611624e-03
   4.03291807e-02 -2.82051886e-04  3.15052420e-02 -5.93361184e-02
   6.49683103e-02 -2.60636210e-02  4.92852964e-02 -2.33428553e-02
   1.83129430e-01  1.48082962e-02  5.90198152e-02 -4.76295166e-02
  -1.32414714e-01  1.11635367e-03 -5.22412313e-03 -2.34981421e-02
  -4.13169735e-04 -1.15280874e-01 -3.16224955e-02 -3.63284275e-02
  -2.86313165e-02 -6.90097734e-02 -6.83415458e-02 -1.07730227e-02
  -4.44649421e-02 -4.24385350e-03  4.35768776e-02 -3.18705849e-02
  -4.76327650e-02  3.17648202e-02 -2.79824925e-03 -8.05012509e-03
   4.64330912e-02 -2.63100993e-02 -4.12596725e-02  1.51340617e-02]
 [ 5.37819155e-02  8.31781775e-02  3.12812962e-02 -6.57620132e-02
  -2.13425066e-02  8.11870098e-02  3.55618820e-02  1.57825295e-02
  -1.60742812e-02  5.01700081e-02 -6.87313080e-03  1.76951829e-02
   3.52093354e-02 -5.49554778e-03 -7.14349374e-02 -1.40348375e-01
  -1.48395542e-02  2.39137951e-02 -5.32799494e-03  5.74172698e-02
   1.21825166e-01  1.11276597e-01 -3.67855489e-01  9.41932797e-02
  -1.71562992e-02  2.72091068e-02  6.40531927e-02  4.24341112e-02
  -2.49474328e-02 -2.26209685e-02 -4.66386341e-02  9.31939855e-02
   3.11811622e-02 -7.34469071e-02  5.63017391e-02 -8.73814747e-02
  -1.05957650e-02  1.68871619e-02 -6.02641404e-02  2.13364631e-01
  -2.00312175e-02 -5.25656343e-03 -7.91034997e-02 -1.05288103e-02
  -4.45973165e-02 -2.42619142e-02 -5.26250526e-02  3.64802452e-03
   1.12539031e-01  1.56764928e-02  7.71629717e-03 -1.06443331e-01
   7.55162258e-03  1.31900338e-02  1.86397936e-02  6.04990274e-02
  -1.83884576e-01  9.56751406e-02 -4.72017415e-02  4.25703786e-02
   4.57264073e-02  1.49028292e-02 -3.65366377e-02  1.61337517e-02
  -3.46680395e-02  1.25588745e-01  9.94731486e-02 -6.97040260e-02
  -8.16593841e-02 -3.77511196e-02 -4.95605357e-02  2.76739970e-02
   1.42235653e-02 -4.09342796e-02  8.01082235e-03 -3.08028981e-02
  -3.23312469e-02 -1.52878799e-02 -5.46732396e-02  8.14551637e-02
  -3.04300059e-02 -9.27538797e-03  1.09242409e-01  8.03324673e-03
  -4.72081900e-02 -3.09163425e-02  6.27276748e-02 -4.67028916e-02
   3.93315256e-02 -2.62255371e-02 -4.17305604e-02 -1.70843843e-02
   2.80459542e-02 -6.36844561e-02  2.58118995e-02 -1.54273389e-02
  -8.50442797e-02  1.97576359e-02  3.44834737e-02 -9.40165948e-03
   2.49919802e-01 -5.76435439e-02 -4.82478738e-02  2.03523897e-02
   9.71588120e-02 -2.26742551e-02 -1.25698164e-01 -3.92061807e-02
   3.85795943e-02 -1.52660385e-01 -4.74807285e-02  1.37788784e-02
   4.49044891e-02 -2.02741288e-02 -4.68859486e-02  3.71796899e-02
   1.13719571e-02  6.12549856e-02 -3.38138943e-03  1.73965059e-02
   2.58966163e-02 -5.10690734e-02  2.18965020e-02  3.36848609e-02
  -4.68740659e-03  5.14598330e-03  8.55504572e-02 -2.33617350e-02]
 [ 1.65393036e-02  3.65472063e-02  4.21332605e-02 -3.55899185e-02
   8.14220496e-03 -5.24750613e-02  6.45880699e-02  4.29043360e-03
  -6.98462082e-03  4.05642986e-02 -5.54221570e-02 -3.77879329e-02
   3.00949365e-02 -6.95704818e-02 -6.76704422e-02  3.45367528e-02
  -1.69063061e-02 -3.96985263e-02  4.07141540e-03  5.14196977e-02
  -6.26145825e-02 -3.40420902e-02  2.30066478e-02 -5.55665828e-02
   2.05051601e-02  3.37435342e-02 -5.18059321e-02  3.06785945e-02
  -3.32214274e-02  1.92919020e-02 -7.90313855e-02 -3.97080183e-02
   3.25845107e-02 -6.45665005e-02 -5.75072058e-02  3.19161266e-02
   4.28968994e-03  6.20155456e-03  4.33732755e-02 -5.42688482e-02
  -2.67126802e-02  1.38022881e-02  1.71821713e-02 -1.13279680e-02
  -6.95550069e-02  1.46178249e-02 -2.39403099e-02 -5.32932170e-02
   7.48942001e-03  5.95166208e-03  3.51473466e-02  3.78867388e-02
  -5.20757362e-02  2.75077131e-02  4.15723585e-03  4.49634567e-02
  -1.71602547e-01 -2.09959149e-02 -2.73139961e-02  5.38373040e-03
   4.39362554e-03  5.81351891e-02  3.94430989e-03  2.36887764e-02
  -1.77163854e-01  2.18379535e-02 -3.90193705e-03 -6.76008016e-02
   3.68761644e-02 -2.35268176e-02 -3.83900180e-02  9.59797576e-03
   8.06723256e-03 -4.95050363e-02  1.24413893e-02  1.47761852e-02
  -4.38385271e-02  2.11217944e-02  4.99377735e-02 -4.82661910e-02
  -5.21390066e-02 -8.99938960e-03 -8.71928111e-02 -1.83424894e-02
   3.10503840e-02  1.05427485e-02  2.86058476e-03 -4.83650155e-02
   1.38714779e-02 -5.66835850e-02 -1.30591393e-02 -1.39916898e-03
   6.75487053e-03 -2.12024581e-02  4.74754758e-02 -4.05286998e-02
  -2.00534016e-02  3.74382213e-02 -4.84547056e-02 -5.74074173e-03
   1.28756911e-02 -2.85689868e-02 -6.29848465e-02 -3.81412022e-02
   2.63820495e-03  2.92120897e-03  3.06706014e-03 -8.16814825e-02
  -5.49186617e-02  4.55654226e-02 -1.62491295e-02 -2.39109322e-02
   3.46096605e-02 -5.03393076e-02 -1.34087726e-01 -1.25266509e-02
   1.54487509e-03  6.57818988e-02 -6.43517077e-02 -1.32522341e-02
   1.49357133e-02 -3.65776569e-03 -8.07276741e-02  1.92667358e-02
  -7.07295090e-02 -5.11845574e-02 -7.72818103e-02 -6.48494959e-02]
 [-7.07515255e-02 -2.64698975e-02  3.82636557e-03 -2.19733734e-02
  -6.40453994e-02  4.48888517e-04 -3.20442803e-02  8.63070861e-02
  -5.87471062e-03  7.74790272e-02 -6.31946027e-02 -5.24274260e-02
   3.27700786e-02 -6.55411184e-02  2.60045771e-02  1.38206212e-02
  -1.68362856e-02 -3.22776511e-02  4.84733880e-02  2.04965472e-02
  -1.25556722e-01 -7.69362077e-02 -7.24933576e-03 -3.62053663e-02
  -6.67267516e-02 -6.32557422e-02 -9.13304910e-02 -3.88458073e-02
  -1.68858990e-02 -5.18383421e-02 -4.05154750e-03  4.33329530e-02
  -1.17090428e-02  1.55956927e-03 -2.53182836e-02  4.06414606e-02
  -5.34887873e-02  3.55975702e-02  8.83505214e-03  3.91624123e-02
  -5.14154471e-02  6.90548643e-02 -3.53538655e-02 -4.54631634e-02
   1.28140580e-02 -5.72367534e-02 -4.22793776e-02  4.05917689e-02
   3.70831392e-03  2.48107910e-02 -9.81027335e-02 -6.22636117e-02
   3.76725607e-02  4.81713042e-02  4.70770486e-02  5.10632209e-02
  -1.73064411e-01 -2.83809621e-02 -3.67580503e-02  4.19188142e-02
  -2.34982595e-02 -9.54912454e-02 -5.99598512e-02  2.86877900e-02
  -9.75948721e-02 -7.33612552e-02 -1.13270804e-01 -9.19153541e-03
  -1.76896695e-02  3.81940901e-02  3.78899835e-02  1.27085028e-02
   2.19066739e-02 -2.64571551e-02 -5.33967130e-02 -1.23962024e-02
   1.91642973e-03  1.01066846e-02  1.14067063e-01 -8.18974525e-02
  -7.38300085e-02 -6.70473091e-04 -6.44697025e-02  1.74874011e-02
   1.13231817e-03  1.66393649e-02 -3.15356776e-02 -4.09213267e-03
  -7.55323097e-02  2.75664143e-02  2.11622585e-02 -5.44048622e-02
  -7.65761884e-04  4.75003906e-02  2.94487830e-02 -1.18312314e-02
  -3.26942876e-02  1.05056707e-02  5.32525815e-02 -3.62762958e-02
   5.63887022e-02 -9.74131301e-02 -1.06239459e-02 -4.48521180e-03
   6.55288994e-02 -3.38258035e-02  1.11093901e-01 -2.91026831e-02
  -3.21542248e-02  3.54357399e-02 -4.51203547e-02  4.71578389e-02
  -1.09339021e-02  2.39977073e-02 -3.27299200e-02 -3.91911566e-02
  -1.00064818e-02 -3.13556232e-02  3.01568434e-02 -6.26537111e-03
  -5.86683303e-02 -5.81341758e-02 -1.02067523e-01 -2.15032250e-02
  -8.79707187e-02 -2.70717423e-02  3.39953322e-03 -8.06860179e-02]
 [ 1.21452510e-02 -5.33402264e-02  1.00361761e-02 -3.59671377e-02
   4.16898243e-02  7.86820948e-02  1.39717408e-03  1.31193420e-03
  -4.61296700e-02  3.89134474e-02  4.05973336e-03 -2.80808397e-02
   9.84695740e-03 -4.23417874e-02  3.51691619e-02 -2.18575150e-02
   3.20964456e-02  1.22843176e-01 -2.65476834e-02  6.42083734e-02
  -4.20479253e-02 -1.65695980e-01  4.12211828e-02  2.27205921e-02
   9.47313476e-03 -3.29762474e-02 -4.49176989e-02  3.77082527e-02
   1.49769992e-01 -7.82684162e-02  2.00880449e-02 -8.95950422e-02
  -1.25875566e-02 -1.06520444e-01  1.81764532e-02 -1.17426820e-01
  -4.31131721e-02 -8.26282334e-03 -4.49083708e-02 -4.30803262e-02
   1.74165573e-02  6.15623407e-02  3.94815207e-03  3.46794911e-02
  -1.80267636e-02  1.16413318e-01  3.51160876e-02  5.75561896e-02
   1.92718543e-02  4.83003333e-02 -5.17217703e-02 -1.37569495e-02
   4.00394984e-02  4.92827501e-03 -2.91745588e-02  5.45482934e-02
  -1.37839824e-01 -1.79302748e-02 -4.34431247e-02  2.51810420e-02
  -4.24747653e-02  6.50235638e-02  7.03708380e-02 -7.50292167e-02
  -7.19728544e-02  1.19665107e-02  4.73663304e-03 -4.84813713e-02
  -1.78250931e-02 -8.31064675e-03 -6.06936142e-02  2.09775865e-02
  -3.35661434e-02 -3.51366750e-03 -3.63514647e-02 -1.15912678e-02
  -5.06784171e-02 -5.76032000e-03 -4.10164036e-02 -6.11385368e-02
  -1.53762186e-02  3.28217214e-03  9.13341641e-02  4.37662788e-02
   2.66323448e-03  9.69721749e-02 -7.22037209e-03  1.38089731e-02
   3.58208902e-02 -3.62841995e-03  7.52216903e-03 -5.29745854e-02
   7.77616259e-03  2.84768771e-02  3.08390195e-03 -1.29211601e-02
  -4.63168211e-02 -2.23531928e-02 -6.39882535e-02 -4.54146862e-02
  -8.93329550e-03  2.28247009e-02  6.74836710e-03 -2.08598524e-02
  -6.63725361e-02  1.55596798e-02 -1.06015094e-02 -3.63091268e-02
  -4.76178564e-02 -6.47532344e-02 -9.98510793e-02  4.70866496e-03
  -2.40172744e-02 -6.13160543e-02 -2.28336137e-02 -1.39092170e-02
  -4.46858332e-02  4.13563326e-02  3.35686505e-02 -1.92163400e-02
  -6.36950359e-02 -6.76446408e-03  4.06909883e-02 -6.26618462e-03
  -2.59155259e-02 -3.23444605e-02  6.44075945e-02 -6.58879383e-03]
 [ 3.29451123e-03 -4.56139371e-02  7.96110276e-03 -1.61421590e-03
  -3.21894810e-02  7.84624889e-02  5.79917803e-02  4.28694002e-02
  -1.14233082e-03 -7.90002197e-02 -3.21367495e-02 -6.84321597e-02
  -8.54244828e-02 -4.74535935e-02 -2.04177070e-02  1.40989065e-01
  -3.76348272e-02 -5.48288077e-02 -5.41561916e-02  4.21776772e-02
   9.30522904e-02 -3.43854390e-02  4.87192199e-02  1.68971084e-02
  -2.44785547e-02 -6.80398270e-02  6.83376752e-03 -2.05512512e-02
   5.40417712e-03 -4.07197550e-02  1.64726898e-02 -4.20552259e-03
   5.72168306e-02 -1.05575901e-02 -5.58303222e-02 -2.83307787e-02
  -1.21257231e-02 -4.08513509e-02  4.54173945e-02 -1.01742344e-02
   3.65259610e-02 -2.50543058e-02  5.46321385e-02 -6.86597005e-02
   3.19527164e-02  8.07124227e-02  3.80916782e-02  1.69208106e-02
   8.10653269e-02 -4.49438766e-02  7.80660054e-03 -5.29200919e-02
  -1.74945462e-02 -9.73673258e-03 -6.95888847e-02  1.60825420e-02
   3.13042924e-02 -7.12080598e-02 -2.45799515e-02 -2.07462832e-02
   1.34244496e-02  1.95234641e-02 -7.35934125e-03  5.18474169e-03
   2.36932095e-03  8.18531662e-02 -1.11006364e-01 -5.65727521e-03
  -6.56398311e-02 -8.16890225e-03 -6.30001649e-02 -2.30464451e-02
   3.52615118e-02 -4.69679087e-02 -6.24779910e-02 -2.52574515e-02
   3.01752202e-02 -7.96633661e-02 -4.10655327e-02  7.56147802e-02
  -2.61222851e-02  6.55850279e-04 -7.39758555e-03 -3.07167303e-02
  -4.77521978e-02  4.27205972e-02 -9.87772569e-02 -7.60232424e-03
  -3.81627940e-02 -6.85928538e-02 -3.48080741e-03  9.31383949e-03
  -7.91359171e-02  2.44246349e-02 -7.29413629e-02 -3.85802872e-02
   2.14035725e-04  3.14080305e-02  3.15441489e-02  4.75556441e-02
  -1.46520305e-02  1.56891402e-02 -6.97785467e-02 -3.38856541e-02
   1.08168796e-01 -5.90107292e-02  6.87976778e-02  3.49434000e-03
  -5.75296097e-02  8.13652650e-02  5.44378869e-02 -5.63305542e-02
   2.96824388e-02  1.00419018e-03  6.89073950e-02 -9.02760867e-03
  -2.71453094e-02 -6.21773601e-02 -2.14572139e-02 -4.62491438e-02
   2.62939129e-02 -6.54835701e-02 -3.18154320e-02  4.49356996e-03
   5.28651066e-02  1.58306658e-02  7.83346444e-02 -4.08271737e-02]
 [ 6.26620650e-02  4.71756645e-02 -6.25517499e-03 -9.80179664e-03
  -4.78198007e-02  4.23602015e-02 -3.18529159e-02 -2.58385390e-01
   1.79270860e-02 -6.43505380e-02 -5.70758283e-02 -1.10871792e-02
   1.87844113e-02 -5.70204407e-02 -3.33045609e-02 -5.77045195e-02
  -4.87461239e-02  1.03924172e-02  1.87080707e-02 -9.46021974e-02
  -8.43499973e-02 -3.57752629e-02  1.47597536e-01 -2.56822687e-02
  -9.48450621e-03  1.42324800e-02 -2.18753904e-01  2.76335087e-02
  -2.26400532e-02 -3.26888971e-02  1.61410160e-02 -5.38105965e-02
  -6.27075508e-02  4.28640656e-03  4.66155224e-02 -7.65353814e-02
   1.96120068e-02 -3.03570852e-02 -7.37408036e-03  1.29634142e-01
   4.26518805e-02  5.89282177e-02 -2.31520787e-01 -5.66556565e-02
   3.95484716e-02 -3.10306866e-02  1.70696136e-02  2.31122598e-02
   4.94542308e-02  1.88220516e-02 -5.83359189e-02 -3.26645896e-02
   1.03364093e-02  1.90153476e-02 -7.34196454e-02 -3.45877707e-02
   4.20000218e-02 -4.91040573e-02  2.27035470e-02  4.78943475e-02
  -5.68943396e-02 -1.99094564e-01  2.05772426e-02 -7.52253756e-02
  -2.18811668e-02 -3.45327444e-02  1.07517593e-01 -4.17890176e-02
   2.94650942e-02  4.78749089e-02 -1.80780347e-02  1.52153056e-02
  -4.96893078e-02 -2.42670942e-02  4.26598452e-03 -5.86454123e-02
   6.63236305e-02 -8.25833413e-04  1.04921730e-02  4.82387096e-02
  -2.56983843e-02  3.22045870e-02 -1.17924493e-02 -3.03206146e-02
  -6.32616654e-02 -2.90773451e-01 -1.78567618e-02  1.21001244e-01
   4.57266420e-02  7.90227111e-03 -4.22378257e-02 -4.04298231e-02
   3.80891822e-02 -7.53494725e-02  2.08104365e-02  1.66621953e-02
  -4.05655243e-02 -3.73496376e-02  2.90459450e-02 -5.67459650e-02
  -3.92603688e-02  6.09810762e-02  4.50299168e-03 -5.15251644e-02
  -1.47750258e-01 -3.19153145e-02 -7.94551075e-02  2.76960973e-02
   4.44778129e-02 -3.38901430e-02  4.87270299e-03 -7.85544980e-03
  -1.62171922e-03 -5.93989231e-02  1.58868134e-02  6.19808398e-03
   7.60623999e-03 -9.39355120e-02  4.24171165e-02  1.07457247e-02
  -1.35163767e-02 -5.58548197e-02 -1.26479371e-02  4.17933129e-02
   1.22872137e-01 -4.99689318e-02 -1.32192103e-02 -5.20495027e-02]
 [-5.02636917e-02 -4.73703146e-02 -2.92682275e-02 -7.92817548e-02
   4.54907864e-02  5.93568645e-02  3.58058326e-02  2.77538020e-02
  -5.41260652e-02 -3.52147706e-02  5.96577907e-03 -5.73721193e-02
   5.35252830e-03  3.59123386e-03 -3.96541394e-02 -2.95867383e-01
  -5.81436940e-02  2.74086324e-03 -3.11437491e-02  7.11528435e-02
   9.04292837e-02  1.65888947e-02 -3.96755278e-01  2.42111692e-03
  -6.78481460e-02  2.41473410e-02  3.49076875e-02 -4.88040149e-02
