sequential/lstm/kernel:0
(1, 320)
[[ 0.07896283 -0.02373964  0.12140216 -0.15510696  0.1470825   0.14352359
   0.02950163  0.14368242  0.05557142 -0.07777453 -0.02761513  0.05228464
  -0.02797002 -0.1026435   0.1513196   0.22186364 -0.04680055  0.00962046
   0.09028932  0.23081128  0.09312733  0.00149333  0.10221044  0.00705933
   0.06683641 -0.03138709  0.1421136   0.02902646 -0.07468468  0.04829588
   0.12713577  0.00947029 -0.06620941 -0.10858168  0.01197524 -0.0453945
   0.01160273  0.06800245  0.01469969  0.03268841  0.140881   -0.01260177
  -0.08672421  0.09604581  0.07464266 -0.0891581  -0.07625116  0.06918243
   0.0087766   0.05308838 -0.05883317  0.07250515 -0.03311589 -0.02376898
   0.17827348 -0.09124416 -0.13345574  0.1434799   0.03869947 -0.00888179
  -0.07522693  0.1742777   0.12390681 -0.04307217  0.08644913  0.13811493
   0.02431551  0.06370076 -0.03940945 -0.06739863  0.07579691  0.10747827
   0.12093774  0.05527394  0.10913278 -0.06117815 -0.13641429  0.02318857
  -0.08562069 -0.11201977 -0.00773162  0.05852931  0.12151884 -0.04694314
   0.00258435 -0.01513126  0.10210313  0.0394557   0.07943743  0.13784972
  -0.03300135  0.12444685  0.04815286  0.05718193  0.06278041  0.14730828
  -0.1175177   0.10945441 -0.08676211 -0.0803863  -0.0657972   0.05553091
   0.04015949  0.13260199 -0.0034478  -0.01340261 -0.12427105 -0.0281877
  -0.00989194 -0.0022949   0.07670926  0.01215683  0.09668184 -0.0886775
   0.01009594  0.0542173   0.13636768 -0.02398631  0.04573968 -0.00950373
   0.02314307  0.03754994  0.06284119 -0.1038108   0.00729099 -0.01279271
   0.08251489  0.0920345  -0.11828491  0.02875012  0.03309838  0.13360885
  -0.07034516 -0.11367866  0.05392766  0.12893398  0.01536921 -0.06018874
   0.06952926  0.09477057 -0.12411702 -0.12752333  0.04335222  0.0056774
  -0.03658431  0.01564557  0.09896445 -0.05059728 -0.02632675 -0.09851235
   0.0975195   0.06061064  0.01912334  0.08992501 -0.08671813  0.01243521
   0.00947203  0.08945171 -0.00457774 -0.12484903 -0.09673742 -0.08832828
   0.0886884  -0.03710066 -0.12751369  0.12188622  0.04868129 -0.06181011
   0.04735794  0.13228127 -0.05706343 -0.07048684 -0.03641082  0.0390143
   0.09493416  0.10515853  0.1301023  -0.04379078  0.09698153  0.15525901
   0.06368499  0.07477933  0.12666589 -0.12546003  0.12603968 -0.08583865
  -0.10455877 -0.06516161  0.12822494 -0.10228576 -0.06403947 -0.00497858
   0.03372957 -0.02427667  0.15619157 -0.04441955 -0.07091995  0.09774054
   0.07665457  0.06656429  0.03308751  0.08469947  0.08465217  0.11561928
  -0.09339549  0.01004844  0.05851415  0.11736171 -0.02125082  0.08278887
  -0.09734642 -0.03123699 -0.08529595  0.10994659 -0.08632093 -0.02379912
  -0.00119971 -0.09403358 -0.10758156  0.10629391  0.13257141 -0.13976765
  -0.13170138 -0.01870997  0.04100542 -0.12247229  0.01739642  0.12090825
  -0.12847607 -0.03893133 -0.03980614 -0.04417102  0.05381992 -0.145819
  -0.11722975 -0.0232229  -0.06008582  0.10457545 -0.11368548  0.03048017
   0.08214095 -0.00951746  0.06296042  0.05516415  0.09954024  0.11178283
   0.09512321  0.08696105  0.06969658  0.14227852  0.11672541 -0.03763949
   0.07385936  0.10499573 -0.02943705  0.07561297 -0.07222994  0.07258047
   0.15508474  0.09633757 -0.03791675 -0.0035062   0.06719617  0.07896606
   0.12288573  0.00383174  0.09478566  0.04369893 -0.01088019  0.02487935
  -0.03787412  0.01778938  0.04187205  0.10134784  0.2402219   0.08477914
   0.12140872 -0.09494575  0.03257488  0.06006624  0.17063321 -0.04536657
  -0.04394801  0.14350194  0.16560547 -0.07514846 -0.02201908  0.0915969
  -0.10164257  0.05930125  0.03038317 -0.05589253  0.20042579 -0.04538818
   0.16276647  0.04500928  0.0391949  -0.09169216  0.14199637 -0.0516397
  -0.07446801  0.23736319  0.15027058  0.11097014 -0.05456942 -0.10490707
  -0.019858   -0.10553855 -0.01148009  0.00290433 -0.02502832 -0.11378514
   0.04666172  0.04097787  0.03047895 -0.08529106 -0.07542062  0.13228008
  -0.01970627 -0.03336135]]
sequential/lstm/recurrent_kernel:0
(80, 320)
[[-0.11308501 -0.00240417 -0.00480929 ... -0.0549091   0.08550363
  -0.08687568]
 [-0.07339774  0.03150843  0.09270143 ... -0.01966853 -0.0220418
   0.00159622]
 [-0.03672162 -0.02868239 -0.05184384 ...  0.0043555   0.01835229
  -0.02698619]
 ...
 [ 0.01932085 -0.01227454  0.06899123 ...  0.092916    0.05654388
   0.03732388]
 [-0.0005781  -0.05652078 -0.02679507 ... -0.00440495  0.0553065
  -0.0166381 ]
 [ 0.01535847  0.12605442  0.0793888  ...  0.08582095 -0.02729805
   0.05318979]]
sequential/lstm/bias:0
(320,)
[-1.23676276e-02  1.54152447e-02  4.12005326e-03 -3.89361940e-02
  3.81709747e-02  6.40079705e-03  1.55526702e-03  4.25901311e-03
 -2.79752584e-03  1.16537921e-02 -1.01472195e-02  5.16846497e-03
  3.81793454e-02  3.01870750e-06  9.62065347e-03  4.10283729e-02
  2.79453630e-03  2.82337633e-03  4.72088903e-03  8.27469826e-02
 -1.03415493e-02 -4.59111325e-04 -2.87063071e-03 -3.80805717e-03
  6.36758935e-03  5.11624524e-03  1.38042169e-03  1.79472915e-03
 -2.59225722e-04  7.57055031e-03  1.38002285e-03 -6.39584800e-03
 -9.06503946e-03 -2.98806163e-03  5.81346601e-02 -2.93114851e-03
  2.15785159e-03 -1.48811683e-04  7.92070478e-03  1.69201230e-03
  2.59507424e-03  1.36078149e-02  8.56004935e-03 -9.60844941e-03
  1.36509994e-02 -9.95564391e-04 -5.30453119e-03 -7.21167261e-03
 -1.43008335e-02  2.31381394e-02  1.92016060e-03  2.70287972e-03
  1.65702887e-02  6.64919196e-03  1.82274282e-02 -3.95599520e-03
 -9.37702041e-03  1.63939327e-03 -2.51297781e-04  4.83815651e-03
  1.20263333e-02  9.76547301e-02  5.41865826e-03 -2.02569198e-02
 -7.39090983e-03 -9.52218135e-04 -1.10357134e-02  1.22561964e-04
 -4.48756339e-03 -4.86776745e-03  5.37660532e-03 -1.20104896e-02
  2.82109529e-03  5.20877168e-02  3.45204677e-03  6.59335201e-05
 -1.30902342e-02  4.97501008e-02  1.77550036e-02 -1.11755934e-02
  9.88794863e-01  9.88184214e-01  9.96789694e-01  9.44133520e-01
  9.94897962e-01  9.97309148e-01  9.83728051e-01  9.94407356e-01
  9.93466437e-01  9.83955622e-01  9.88884449e-01  9.95012462e-01
  9.97936130e-01  9.98104155e-01  9.72157240e-01  9.55778301e-01
  9.91943538e-01  9.93679583e-01  9.94334638e-01  9.50771809e-01
  9.85517859e-01  9.66292679e-01  9.84800160e-01  9.88249898e-01
  9.91341412e-01  9.94095385e-01  9.91526723e-01  9.94793057e-01
  9.93623137e-01  9.93684590e-01  9.95992422e-01  9.92740154e-01
  9.90158379e-01  9.93170321e-01  9.87804174e-01  9.83273387e-01
  9.82626677e-01  9.92296636e-01  9.84406292e-01  9.93465543e-01
  9.88189578e-01  9.96225953e-01  9.87831593e-01  9.83784437e-01
  9.91224349e-01  9.90105867e-01  9.89509165e-01  9.89657402e-01
  9.80704308e-01  9.80402112e-01  9.79431152e-01  9.98016000e-01
  9.64091361e-01  9.95456696e-01  9.83444512e-01  9.85204816e-01
  9.89959180e-01  9.91313636e-01  9.91329849e-01  9.95642364e-01
  9.87847209e-01  9.67329860e-01  9.96867597e-01  9.57255125e-01
  9.92262661e-01  9.95733678e-01  9.87449825e-01  9.93379712e-01
  9.90235269e-01  9.89320517e-01  9.95921969e-01  9.86365616e-01
  9.93819296e-01  9.87103641e-01  9.87003684e-01  9.97931540e-01
  9.83246207e-01  9.83862460e-01  9.84690726e-01  9.82626855e-01
  1.44205214e-02  1.14041688e-02 -1.19407987e-02  8.07691272e-03
  2.04741769e-02 -1.21659255e-02 -8.46353918e-03  8.99320561e-03
 -8.65414087e-03 -2.26236917e-02  1.70778744e-02  9.45173949e-03
  2.38261977e-03 -2.44900677e-03 -9.54698771e-03 -1.92011446e-02
 -1.88910775e-02  1.02178659e-02 -1.51456660e-02 -2.43941210e-02
 -1.34298997e-02 -1.55948922e-02 -2.14151870e-02  2.05405168e-02
 -1.58701632e-02  1.14651090e-02  1.31205637e-02  1.19073512e-02
 -1.31273055e-02  1.60999522e-02  1.05934190e-02 -2.89704720e-03
 -1.03982342e-02  1.02124084e-02 -2.84596719e-02  1.45873707e-02
  7.78432423e-03 -1.27525432e-02 -1.84135474e-02 -1.11523066e-02
 -2.13694130e-03 -1.62634104e-02 -1.55056557e-02 -2.81603616e-02
  1.53026376e-02 -1.12164104e-02 -1.63326319e-02 -2.44070720e-02
  1.25567587e-02 -1.87225696e-02  1.79183092e-02  3.17259156e-03
  1.18775722e-02 -1.69223752e-02  2.10530665e-02  3.54206003e-03
 -4.78916336e-04  1.61251482e-02  1.76748969e-02 -1.64280403e-02
 -2.46798322e-02  2.36535873e-02  1.62996314e-02  8.44466686e-03
  2.78483471e-03  1.36763984e-02 -3.07844440e-03 -1.82131864e-02
  1.22918580e-02  1.86782032e-02  8.29899870e-03  9.97980963e-03
 -9.91446991e-03  2.40476057e-02  1.98003799e-02  5.12006972e-03
  1.26764541e-02 -1.79573018e-02  2.13508587e-02 -6.86214631e-03
 -1.21460250e-02  1.54246986e-02  4.02416568e-03 -3.97528410e-02
  3.77270803e-02  6.30841730e-03 -3.69391462e-04  4.17891145e-03
 -2.86278850e-03  8.80844053e-03 -1.02650635e-02  5.94521919e-03
  3.50307822e-02 -8.05809570e-04  1.34694688e-02  4.23519053e-02
  3.21938563e-03  2.09348230e-03  3.51244770e-03  8.45409781e-02
 -9.96419135e-03 -5.77424653e-05 -2.76429532e-03 -4.50663874e-03
  5.26446477e-03  4.90010437e-03  1.76681275e-03  1.71568722e-03
 -3.34533135e-04  7.59607879e-03  2.26322003e-03 -6.31031999e-03
 -8.96471739e-03 -3.81231611e-03  5.00628129e-02 -2.95336894e-03
  2.63094553e-04  9.84022045e-04  7.84787815e-03  1.44231936e-03
  1.59052690e-03  1.40971178e-02  8.48066527e-03 -1.01587893e-02
  1.16858874e-02 -8.13572202e-04 -5.33978408e-03 -7.36998068e-03
 -1.35206301e-02  2.25444455e-02  1.70151039e-03  3.44867096e-03
  9.70807765e-03  6.89207483e-03  1.68740302e-02 -4.53521637e-03
 -9.68400389e-03  3.57702910e-03 -1.47156417e-03  5.45260403e-03
  1.17992703e-02  9.56019089e-02  4.76376433e-03 -2.26288512e-02
 -7.22535560e-03  5.96364378e-04 -1.09551987e-02  1.35924586e-03
 -4.59776400e-03 -4.67139436e-03  6.15710346e-03 -1.24589000e-02
  3.16939992e-03  5.18595316e-02  4.05885326e-03  7.02533289e-05
 -1.30595537e-02  4.56210673e-02  1.77281704e-02 -1.11368466e-02]
sequential/lstm_1/kernel:0
(80, 400)
[[-0.07506035 -0.07406849 -0.01349085 ... -0.06641857 -0.0427656
   0.02429809]
 [-0.10131767  0.05773156 -0.0830909  ... -0.01027937 -0.02205357
   0.09337485]
 [-0.08377817 -0.0727477   0.0051886  ... -0.04863634  0.06154836
   0.02357042]
 ...
 [-0.0933684  -0.06506924 -0.05201483 ...  0.00119757  0.08955662
   0.1356484 ]
 [-0.12256773 -0.13389175 -0.06488221 ...  0.00982524  0.04019124
  -0.01370813]
 [-0.00264679 -0.02046706  0.05817699 ... -0.05488348  0.06958778
  -0.07341796]]
sequential/lstm_1/recurrent_kernel:0
(100, 400)
[[-0.04314053 -0.00163197  0.05648193 ... -0.03588409  0.02421291
  -0.03466738]
 [-0.05961756 -0.01845733  0.00392005 ...  0.02102545 -0.03242383
  -0.03486969]
 [ 0.04094427 -0.00677475  0.0439478  ... -0.11062832  0.0264769
   0.08131427]
 ...
 [-0.11656473  0.11968095 -0.02983609 ... -0.00388138 -0.08001538
   0.03754035]
 [ 0.03358646  0.10277372  0.02674712 ...  0.02182655  0.06945707
   0.03093422]
 [ 0.07118932 -0.01600879  0.01175519 ... -0.04574349 -0.00896293
   0.01439535]]
sequential/lstm_1/bias:0
(400,)
[ 2.40943721e-03 -1.87555168e-04 -4.29030545e-02 -9.58355376e-04
  1.38889905e-02  5.71582047e-03 -1.47098573e-02  1.94642115e-02
 -3.98099469e-03 -4.48201457e-03  1.10997017e-02  5.80774737e-04
 -2.50867358e-03 -1.61573431e-03 -2.45090388e-02 -1.06412498e-02
 -6.61668321e-03 -3.14138792e-02 -2.10358128e-02 -6.09714957e-03
 -1.20592508e-02 -1.35702081e-02  1.99977821e-03 -6.28185458e-03
 -2.55935788e-02 -2.17187032e-02 -1.68545302e-02 -4.08041803e-03
 -1.36114832e-03 -1.62420347e-02  6.08596602e-04 -1.70093682e-02
 -1.91594509e-03  3.16559873e-03 -3.00904992e-03 -6.76333904e-03
 -6.12584362e-03 -5.95515454e-03 -2.34896243e-02 -1.90137140e-02
 -5.81221050e-03 -4.54052631e-03 -5.05573873e-04 -2.19774023e-02
 -2.37227157e-02 -7.91039132e-03 -3.21781868e-03 -7.17041455e-03
 -2.63062641e-02 -1.09961350e-03 -1.23095671e-02 -1.61225237e-02
  4.92127286e-03 -6.04203437e-03 -1.65900309e-02 -9.13205650e-03
 -2.54884996e-02 -3.68947163e-04  5.85284841e-04 -1.34227211e-02
  4.38611861e-03 -2.75595747e-02  5.31519298e-04  9.07427922e-04
 -1.28093977e-02 -8.42824951e-03 -6.45493483e-03 -4.15164279e-03
 -1.20075396e-03 -1.40929536e-04 -5.91985229e-03  4.81079519e-03
 -2.27076691e-02  1.25093828e-03  5.71715180e-03 -1.12476302e-02
 -3.54031730e-03 -1.10949660e-02  6.89486228e-03 -8.97379126e-03
 -1.10230064e-02  2.35163863e-03 -2.46420852e-03 -2.87586660e-03
 -7.45234732e-03 -1.76896504e-03  1.58097351e-03 -2.06222683e-02
 -3.38839367e-02 -1.52845709e-02 -5.23091876e-04 -2.43970864e-02
 -1.94668788e-02 -3.45914974e-03  2.14753230e-03 -4.80026763e-04
  2.45595928e-02 -2.09729373e-02 -2.41754558e-02 -3.34929884e-03
  9.91979837e-01  9.94691670e-01  9.59285259e-01  9.96061087e-01
  1.00464463e+00  1.00527966e+00  9.62849081e-01  9.87656236e-01
  9.94299889e-01  9.96043086e-01  9.87733126e-01  9.99945819e-01
  9.92788911e-01  9.95885491e-01  9.71683741e-01  9.89498794e-01
  9.88112926e-01  9.60319698e-01  9.71617103e-01  9.94547188e-01
  9.90168810e-01  9.69849050e-01  1.00041378e+00  9.90780950e-01
  9.60646689e-01  9.49916661e-01  9.82490122e-01  9.91237640e-01
  9.95885313e-01  9.83102918e-01  9.85382676e-01  9.74304497e-01
  9.96439338e-01  1.00008392e+00  9.98109519e-01  9.88758028e-01
  9.91172969e-01  9.86454904e-01  9.64399457e-01  9.64029908e-01
  9.80811656e-01  9.95068192e-01  9.96998549e-01  9.63989019e-01
  9.65296984e-01  9.91244793e-01  9.97384310e-01  9.92287636e-01
  9.71293688e-01  9.88736391e-01  9.88971114e-01  9.82544005e-01
  9.80164766e-01  9.87628818e-01  9.80529010e-01  9.87674892e-01
  9.60633934e-01  9.99574065e-01  9.98387516e-01  9.84110892e-01
  9.97308731e-01  9.71480548e-01  9.97722030e-01  9.71343338e-01
  9.87671256e-01  9.90190208e-01  9.88992810e-01  9.94271457e-01
  9.98479962e-01  9.97493505e-01  9.93256688e-01  9.98739004e-01
  9.78097856e-01  9.99562383e-01  9.96952772e-01  9.85839725e-01
  9.96272862e-01  9.90554452e-01  1.00026333e+00  9.84677434e-01
  9.78855073e-01  1.00227070e+00  9.95102227e-01  9.96246815e-01
  9.69728053e-01  9.95225668e-01  9.95438993e-01  9.70744252e-01
  9.59327102e-01  9.78768408e-01  9.99040544e-01  9.70882773e-01
  9.82042491e-01  9.96260405e-01  9.93705571e-01  9.97818828e-01
  1.01533103e+00  9.79828954e-01  9.70365524e-01  9.96595263e-01
 -9.87704378e-03  4.76548029e-03  1.69321592e-03 -3.53054353e-03
 -1.06145833e-02  7.94817787e-03 -1.21172881e-02 -1.16887875e-02
 -9.31870006e-03 -4.30231355e-03 -1.34853162e-02  6.12169784e-03
  8.06911103e-03 -1.09413769e-02 -3.78938043e-03 -3.54571571e-03
  1.06482636e-02 -3.01203202e-03 -5.10245981e-03 -3.94155970e-03
  5.64383529e-03 -5.74416155e-03 -1.46320472e-02  7.16244476e-03
  7.92071968e-03  7.86994584e-03  6.65419316e-03 -1.13222953e-02
  7.93231279e-03  5.04726963e-03 -1.36076771e-02  6.19414123e-03
  4.95136995e-03  6.00312511e-03  5.83612220e-03  6.91794371e-03
 -4.17233258e-03  8.81103892e-03  4.15246002e-03  6.80642063e-03
  1.04245888e-02  4.72761970e-03 -8.31239764e-03 -2.80012563e-03
 -7.54904468e-03 -6.87707262e-03  4.44393884e-03 -9.17119905e-03
  1.10438722e-03 -1.26342690e-02  2.24556401e-03  2.94863805e-03
 -1.29836835e-02  9.46098752e-03  5.15195262e-03 -5.74629230e-04
 -6.98135514e-03  6.41856669e-03 -4.01328271e-03  6.84433011e-03
  4.64275852e-03 -5.05235419e-03 -8.19077622e-03 -9.26655158e-03
 -8.35935958e-03  8.19253828e-03 -9.64526832e-03 -6.49290811e-03
 -8.44588596e-03 -7.25674722e-03  8.48211627e-03 -8.16741679e-03
 -6.87972223e-03  1.07171182e-02  1.09878723e-02  5.40736131e-03
 -4.74914256e-03  8.69128201e-03 -1.40382508e-02  8.95992946e-03
  2.62012146e-03 -1.02403769e-02  9.20654647e-03  9.76492744e-03
 -8.87002423e-03 -1.04996171e-02 -5.95564023e-03 -9.16906353e-03
 -6.99746050e-03  2.64510093e-03 -3.28988186e-03  4.79455059e-03
  5.01179090e-03 -5.24031883e-03 -8.40966962e-03 -7.30286399e-03
  1.16930176e-02  3.52762430e-03 -2.33680476e-03  9.48329363e-03
  2.12637614e-03 -1.56626280e-03 -4.18273732e-02 -2.25501927e-03
  1.32623725e-02  4.22604848e-03 -1.59412492e-02  1.94900595e-02
 -4.84601874e-03 -4.58887406e-03  9.65622533e-03 -1.68372132e-03
 -3.28567810e-03 -2.06530700e-03 -2.48307995e-02 -1.15857804e-02
 -7.53508834e-03 -3.35370935e-02 -2.15435103e-02 -6.25634054e-03
 -1.24764694e-02 -1.48671260e-02  1.67343509e-03 -7.15689780e-03
 -2.65762508e-02 -2.29166970e-02 -1.71644781e-02 -4.19172412e-03
 -1.80426915e-03 -1.58493035e-02 -1.33531954e-04 -1.83972009e-02
 -2.38621468e-03  2.47542863e-03 -3.11924051e-03 -7.28197396e-03
 -6.51572039e-03 -6.23002881e-03 -2.41660010e-02 -2.05459110e-02
 -6.47414383e-03 -4.74553974e-03 -8.30044737e-04 -2.24938206e-02
 -2.39197817e-02 -8.24213214e-03 -4.50201146e-03 -7.25647667e-03
 -2.70253047e-02 -3.02112033e-03 -1.20532680e-02 -1.63683295e-02
  4.80484869e-03 -5.91533631e-03 -1.63557027e-02 -9.64653306e-03
 -2.66208891e-02 -1.35387899e-03  7.58109498e-04 -1.48018254e-02
  2.36663548e-03 -2.79987808e-02 -1.86072692e-04  8.07340955e-04
 -1.31465476e-02 -8.57217610e-03 -9.32678208e-03 -4.87584574e-03
 -1.71749957e-03 -5.64263086e-04 -6.49021938e-03  4.46041720e-03
 -2.30586454e-02  4.09846951e-04  3.19039193e-03 -1.22727510e-02
 -4.12462559e-03 -1.14501473e-02  6.14700001e-03 -9.12736729e-03
 -1.26306536e-02  1.69773283e-03 -3.03847855e-03 -3.51673202e-03
 -7.62722129e-03 -2.22886470e-03  1.23624643e-03 -2.15801671e-02
 -3.25074233e-02 -1.50869731e-02 -8.86755064e-04 -2.46343315e-02
 -1.91046186e-02 -3.91811039e-03  1.93020504e-03 -1.32089853e-03
  2.38109138e-02 -2.05867086e-02 -2.55830232e-02 -3.53939389e-03]
sequential/dense/kernel:0
(100, 1)
[[-0.20687005]
 [ 0.13557492]
 [-0.1657699 ]
 [-0.07032458]
 [-0.1493261 ]
 [ 0.06527838]
 [-0.15317038]
 [-0.2469608 ]
 [-0.11369347]
 [-0.11123875]
 [-0.16929772]
 [ 0.08958114]
 [ 0.11710641]
 [-0.11487164]
 [-0.06731921]
 [-0.12964195]
 [ 0.16407679]
 [-0.20987138]
 [-0.17560741]
 [-0.21823725]
 [ 0.16669835]
 [-0.17020628]
 [-0.17930987]
 [ 0.18508671]
 [ 0.09446748]
 [ 0.19658527]
 [ 0.19608317]
 [-0.17423463]
 [ 0.19702291]
 [ 0.186838  ]
 [-0.20197971]
 [ 0.14299753]
 [ 0.08165509]
 [ 0.19035627]
 [ 0.20901302]
 [ 0.13434397]
 [-0.17606534]
 [ 0.08485963]
 [ 0.16823062]
 [ 0.23946983]
 [ 0.13240093]
 [ 0.20604765]
 [-0.20029753]
 [-0.10204692]
 [-0.18388115]
 [-0.22640683]
 [ 0.0955337 ]
 [-0.04405907]
 [ 0.11058925]
 [-0.1856051 ]
 [ 0.17305441]
 [ 0.09859502]
 [-0.21206404]
 [ 0.14304282]
 [ 0.18641847]
 [-0.09517381]
 [-0.19571199]
 [ 0.0568973 ]
 [-0.01150536]
 [ 0.18982778]
 [ 0.06771219]
 [-0.05487942]
 [-0.08681554]
 [-0.17250453]
 [-0.15938768]
 [ 0.18249828]
 [-0.11425533]
 [-0.19733557]
 [-0.04581444]
 [-0.16629894]
 [ 0.12729007]
 [-0.21696912]
 [-0.20666493]
 [ 0.15019338]
 [ 0.0873365 ]
 [ 0.2072519 ]
 [-0.1303903 ]
 [ 0.23820108]
 [-0.09418698]
 [ 0.18726888]
 [ 0.1100773 ]
 [-0.10441479]
 [ 0.12359606]
 [ 0.10265569]
 [-0.16178425]
 [-0.21610409]
 [-0.2251552 ]
 [-0.09811538]
 [-0.1245693 ]
 [ 0.19281848]
 [-0.0616175 ]
 [ 0.22043784]
 [ 0.19531812]
 [-0.21609582]
 [-0.24437194]
 [-0.08058441]
 [ 0.09310178]
 [-0.05346211]
 [-0.10977475]
 [ 0.18504366]]
sequential/dense/bias:0
(1,)
[0.07789182]
