embedding_5/embeddings:0
(26, 2)
[[-0.14665191 -0.047728  ]
 [ 0.47379678 -0.25834557]
 [-0.5148453  -0.31422648]
 [-0.08850008  0.2658749 ]
 [ 0.87312067  0.39022025]
 [-0.08508659 -0.13021283]
 [-0.68369323 -0.4263548 ]
 [-0.69904244  0.5611258 ]
 [-0.3291773  -0.00831897]
 [-0.80723685  0.46881863]
 [ 0.0667759  -0.8784404 ]
 [ 0.6072592   0.07667815]
 [ 0.7412775  -0.5262527 ]
 [-0.21591067  0.07517236]
 [-0.528648   -0.3096316 ]
 [ 0.47367433 -0.5348124 ]
 [-0.15841314  0.8138343 ]
 [-0.81679314 -0.15212294]
 [-0.8289443   0.53619   ]
 [-0.28957748  0.90218556]
 [-0.57045984 -0.5212627 ]
 [ 0.07306396  0.41465393]
 [ 0.6589538  -0.74976236]
 [ 0.5794102  -0.8359851 ]
 [ 0.96174496 -0.5860494 ]
 [-0.0353582   0.01978463]]
simple_rnn_5/kernel:0
(2, 10)
[[-1.6631874   0.4692241   0.664861    0.11124193  0.42426226 -1.4019951
  -1.1670424  -1.6825765  -0.47400326 -1.3466725 ]
 [ 1.1592633  -1.3668844  -1.1143323  -0.6993602   1.037926    0.40537235
   1.1489935  -1.3679905  -1.4056107   0.65483505]]
simple_rnn_5/recurrent_kernel:0
(10, 10)
[[ 1.2939156   0.37102056 -0.48619542 -1.0896941   0.17024305  1.054372
   1.2439405   0.2428879  -1.3283215  -0.87455136]
 [-1.608316   -0.36079797  0.24680775  0.16670242  1.4715968  -1.3329179
  -0.5357206  -0.8824395  -0.8171484   0.5334308 ]
 [-0.04878439 -1.1750609  -1.2164406  -0.6474224  -1.2910919  -1.6555732
  -0.8403032  -0.6040967   0.4599109   0.47524238]
 [-0.02687058  0.8706065   0.06796753 -0.17114918  1.3256028  -1.4805365
   1.0044371  -1.0186152   0.15807109 -0.6878325 ]
 [-1.1836407   1.0737292  -1.3276875  -1.1440812  -0.876531    0.7058857
  -0.5025476   0.5599565   0.33200404 -1.6547135 ]
 [-0.11680094 -0.9349404   1.2557265  -0.42944098 -0.13207005  0.8485281
  -0.7389136   0.3712543  -0.5895396  -0.35450482]
 [-0.18847933  0.66154844  0.73506796 -0.07204264  0.5541353   0.38140014
   0.74882925  1.4590002  -1.459803   -0.78715974]
 [ 0.9453172  -0.29846522  0.94358444 -1.6622674   0.5688103   0.4288572
  -0.64073735 -0.5214274  -1.251191    0.89728963]
 [ 0.97253793  1.4633381  -0.58887345  0.99441785  1.0381529  -0.6789247
   0.4474325  -0.6291713  -0.56714374  0.27759862]
 [ 1.2657945   0.375477   -1.4421018   1.0477042   0.20195967 -0.05821053
   0.46413368  1.4783924   0.49892652 -1.048829  ]]
simple_rnn_5/bias:0
(10,)
[-0.1278632   0.22623856  0.26778919  0.18090193  0.11917493 -0.16259652
  0.11440866 -0.17169116  0.05407433 -0.0651592 ]
dense_5/kernel:0
(10, 26)
[[ 4.9597591e-02  4.9152005e-02 -1.5955926e-01  1.1788111e-02
   1.2658128e+00 -1.2997572e+00 -1.2832577e+00  1.7589489e+00
   1.8002323e+00 -4.8932397e-01  1.6086512e+00  1.7602043e+00
  -1.5071146e+00 -1.0854845e+00 -1.2737232e+00 -1.3814619e+00
  -1.0890330e+00 -1.7015398e+00  8.3737862e-01  1.5416380e+00
   1.4304187e+00  1.2424940e+00  1.4471030e+00 -1.9885855e+00
  -7.5350952e-01 -1.1654776e+00]
 [-1.8026008e-01 -3.5819134e-01 -3.2328266e-01  1.0934038e-01
   6.5980357e-01  2.7323574e-01 -1.7322567e+00 -1.0715235e+00
   4.7596851e-01  1.2152383e+00 -1.3893582e+00 -1.4828540e+00
  -1.0224682e+00 -2.1890895e+00  2.5209084e-01  8.0428880e-01
   7.1292764e-01 -4.7795582e-01  9.4126087e-01  1.7560900e+00
  -1.4398879e+00 -5.9956247e-01 -9.3955231e-01 -4.4881904e-01
   9.9761939e-01  1.4253600e+00]
 [ 5.8940488e-01  2.1408564e-01  3.9928535e-01  2.5368497e-01
  -1.7168561e+00 -1.3950939e+00  9.1648012e-01 -1.3644150e+00
  -9.3701130e-01 -4.5547312e-01  7.0519072e-01  2.7039915e-02
   6.3035333e-01 -1.0744414e+00  1.3255155e+00 -8.4558350e-01
   1.5240895e+00 -1.4798353e+00 -2.6046181e-01  9.2252493e-01
  -1.2122151e+00  8.3761579e-01  1.4573184e+00 -1.0493581e+00
   1.0462888e+00 -9.2331123e-01]
 [-1.1561409e-02 -3.5750633e-01 -1.0108976e-01 -2.3789775e-02
   5.2153236e-01  1.7141997e+00  5.5337542e-01  9.8620158e-01
   1.0707262e+00 -1.0386720e+00 -9.3192381e-01 -1.4859347e+00
  -1.3846037e+00  1.5960490e+00  7.8297836e-01  9.5393795e-01
  -1.1012313e+00 -1.3270937e+00  9.0171289e-01 -1.0219347e+00
  -1.1525534e+00 -1.0551006e+00 -3.1640220e-01 -3.8284829e-01
   1.6164477e+00  9.9252033e-01]
 [-1.9623299e-01 -1.6439261e-01  9.2632294e-02 -1.5394449e-01
   1.2885507e+00  9.8969215e-01  1.3958783e+00 -1.1962370e+00
   6.2577069e-01  7.2708243e-01  2.1178734e+00 -4.5805928e-01
  -7.6244932e-01 -5.3517061e-01  6.7119944e-01  1.0836216e+00
   6.5313983e-01 -8.3980614e-01 -1.0655481e+00  9.7949773e-01
  -1.4484742e+00 -2.0205662e+00 -1.5941461e+00 -1.0045846e+00
   1.0784950e+00 -1.1813215e+00]
 [-3.6208939e-02 -4.2959392e-01 -2.1860931e-02 -2.0064905e-03
  -1.0660933e+00 -6.0236669e-01  1.6964778e+00 -1.7118880e+00
  -1.2990279e+00  1.4606575e+00  9.3927395e-01  1.3670927e+00
  -1.5956866e+00 -1.3330921e+00 -1.0300187e+00 -1.1129793e+00
  -7.4974591e-01  6.1037785e-01  1.3060480e+00  1.2639569e+00
   6.8220013e-01  1.1506277e+00  1.4079580e+00  2.3736923e+00
  -1.0815881e+00 -9.0278804e-01]
 [ 7.6195136e-02  2.5846946e-01  1.2593780e-01 -2.0037393e-01
   4.3940940e-01  7.6781487e-01 -1.5456642e+00 -1.0116159e+00
   8.6730146e-01  1.1979291e+00  3.9466459e-01 -1.5768296e+00
  -9.0235955e-01 -7.9392588e-01  1.1974384e+00  1.0510013e+00
   9.2546082e-01 -1.0417725e+00  8.4854448e-01  1.0516573e+00
   1.3602256e+00 -5.9248090e-01 -1.8057455e+00 -7.7838117e-01
  -1.7417580e+00 -1.5672747e+00]
 [-3.2457677e-01 -2.7248359e-01 -2.3266889e-01 -3.2822943e-01
  -1.3419565e+00 -1.6305467e+00 -4.7377074e-01  1.0534228e+00
   1.5426087e+00  1.4217998e+00  1.4439596e+00  1.5802097e+00
  -1.2239525e+00  1.1923226e+00 -1.2580802e+00  1.6471666e+00
  -1.3061330e+00 -1.0022683e+00  1.0755205e+00 -1.5056051e+00
   1.1553469e+00  1.6539665e+00 -1.4670533e+00  1.0281180e+00
  -6.7741370e-01 -1.2100213e+00]
 [ 3.1470749e-01  9.9917382e-02  3.5267949e-01  3.4316115e-02
   7.0778364e-01 -1.6263655e+00 -1.2750422e+00  7.7650446e-01
  -1.6464429e+00 -1.2412316e+00 -6.0306334e-01  1.9021865e+00
  -1.3786091e+00  4.0532348e-01  1.4090227e+00  1.5958556e+00
  -1.1106081e+00  1.3150524e+00  1.1384087e+00 -1.0614320e+00
  -1.2115966e+00 -1.5142055e+00  6.3126898e-01  1.0093436e+00
  -1.9896731e+00  7.9765946e-01]
 [-5.8104926e-01 -4.4501245e-01 -4.6904394e-01 -3.6633644e-01
   1.4020808e+00 -1.1275300e+00  7.8216386e-01  1.3869650e+00
  -1.1923428e+00 -9.8178029e-01  1.0302101e+00 -9.6838522e-01
   9.7372204e-01 -1.1358809e+00  1.3023525e+00 -1.0464742e+00
  -1.8293493e+00  1.3586768e+00  1.1175375e+00  8.3431941e-01
  -1.8688364e+00  1.5488183e+00  8.5062999e-01 -1.5938762e+00
   1.0586590e+00 -1.0730377e+00]]
dense_5/bias:0
(26,)
[-0.4701139  -0.44704947 -0.47170672 -0.47255582  0.7340616   0.12213543
  0.6325529   0.19385326  0.5220256   0.70437324  0.42281914 -0.39994642
  0.25590354  0.7535805   0.40270358 -0.17310347  0.21895245  0.6506524
  0.91506094 -0.17863776 -0.29240796 -0.19182774 -0.00829491  0.28844342
 -0.21515897  0.0097433 ]
