sequential/dense/kernel:0
(784, 128)
[[-8.09181109e-02 -2.21888661e-01  3.47247794e-02 -4.37269397e-02
   1.72433347e-01  5.21266103e-01 -2.11497277e-01  8.99476483e-02
  -8.50521326e-02 -3.86582986e-02 -1.54186890e-03 -1.44415587e-01
  -2.85915807e-02 -6.21694475e-02 -3.92274112e-02 -3.08664352e-01
   3.84702206e-01 -5.91222823e-01 -3.86953866e-03 -7.87401795e-02
   1.90430328e-01  4.47927475e-01  7.08543122e-01 -3.26418318e-02
  -1.78694382e-01  2.22535312e-01 -3.85280997e-02  6.13367334e-02
  -1.93461515e-02  3.32465500e-01 -1.70389488e-02  3.31795096e-01
   5.34495115e-01  2.81103626e-02 -1.22527480e-02 -2.20108256e-02
  -9.62873101e-02  2.32610613e-01  7.21381605e-02  5.89065999e-03
  -2.45922476e-01  1.38692856e-01 -8.27571843e-03 -2.25102797e-01
  -5.98634295e-02  1.38884917e-01 -2.12276913e-02  1.85138658e-02
  -4.39149402e-02  6.62014261e-02 -4.44869161e-01  4.63006407e-01
   1.22913942e-01 -9.42447856e-02 -4.75968748e-01 -2.10198581e-01
   3.55140828e-02  2.42328048e-02 -4.01598215e-02 -2.57645994e-01
  -3.27273645e-02 -4.48643059e-01 -2.55774707e-02  2.76611000e-02
  -3.33472282e-01  1.18456669e-01 -2.98044324e-01  1.28148526e-01
  -3.64021957e-03  8.93827528e-02  2.66321395e-02 -3.56252342e-01
   8.27289149e-02  3.61039332e-04 -2.15950608e-01  2.91807860e-01
   5.61826751e-02 -7.10608065e-02  5.31222001e-02  9.52237770e-02
   3.12189944e-02  3.10984582e-01  1.77750632e-01 -7.66506791e-03
   9.95838568e-02  2.12383583e-01  3.56470287e-01  3.11065204e-02
  -4.25079241e-02  4.32795286e-03  3.71753514e-01  5.23595735e-02
  -2.36900747e-02 -2.55448729e-01  2.04359397e-01 -3.79107744e-02
   3.21866691e-01  6.98070377e-02  5.60829788e-03  5.39068803e-02
  -1.07345462e-01  5.32373905e-01  2.05318019e-01 -5.33306226e-02
  -2.17557549e-01 -4.25796211e-03 -2.55863070e-01 -3.59441452e-02
   2.24761888e-02 -2.35080153e-01  1.51301086e-01 -6.67786971e-02
   4.94906195e-02  2.52632052e-01  1.63840652e-02 -3.75301868e-01
  -3.34889702e-02 -1.35685295e-01 -1.37911633e-01 -2.52423771e-02
  -4.76448238e-01  1.41875431e-01 -1.63171887e-02  5.14240563e-01
  -1.18826963e-01  1.20242365e-01  2.29461133e-01 -1.79810135e-03]
 [ 8.05857629e-02 -6.09772205e-02 -2.66405106e-01 -2.42705699e-02
  -1.39522016e-01 -1.05374448e-01 -1.20136991e-01 -4.21316415e-01
   4.46900755e-01 -1.64702892e-01 -8.35998133e-02  1.42699704e-01
   1.06308624e-01  1.22842632e-01 -1.48071617e-01 -1.56558827e-01
  -2.69930735e-02  2.92077869e-01  8.36023912e-02  1.90585017e-01
   1.29569799e-01  5.00642538e-01  1.07636191e-01 -1.52546287e-01
  -4.29117292e-01  2.45516762e-01 -1.09994121e-01  3.47239077e-02
  -9.86669809e-02 -2.12638289e-01  1.50174290e-01  3.55957955e-01
   2.95430630e-01 -9.06245559e-02 -5.28143868e-02  1.20827027e-01
  -2.25853190e-01 -3.60738307e-01 -2.66095251e-01 -2.97739804e-02
   1.99169576e-01 -1.45789146e-01 -3.66350710e-01  2.98197754e-02
   1.67655244e-01  2.59913236e-01  1.05215676e-01  3.25144939e-02
   6.26963377e-02  3.61186147e-01 -7.08713308e-02 -4.04108971e-01
   2.22844198e-01 -1.14252932e-01  3.15119773e-01  4.12120193e-01
  -2.78492086e-03  1.98182538e-02  3.17214012e-01 -1.43514514e-01
  -5.34212515e-02  2.10705757e-01  1.68209355e-02 -1.96662009e-01
   2.24955320e-01 -5.48260450e-01 -1.61592349e-01 -3.32828201e-02
   3.27796452e-02  1.53300807e-01 -2.24011332e-01  2.25278720e-01
  -1.18838608e-01 -4.29197133e-01  1.06193766e-01  3.97799641e-01
   3.97439264e-02 -7.24162683e-02 -7.67305344e-02  4.79958840e-02
   7.90863782e-02  2.22572312e-01  1.15173161e-01 -2.78835773e-01
  -1.21718720e-01 -3.11617702e-01  3.66907683e-03  1.16321467e-01
  -3.17846030e-01 -1.91839620e-01  1.09273151e-01 -3.60357404e-01
   1.62986442e-02 -4.98381525e-01  3.87115687e-01 -1.51690051e-01
   3.11858773e-01 -8.37982744e-02 -6.05004281e-03 -1.97968893e-02
   5.16454130e-03 -1.74892604e-01  3.08285445e-01 -3.41319814e-02
  -1.35917395e-01 -2.39638552e-01 -1.87053084e-01 -8.17521662e-02
  -3.57693806e-02 -1.61952510e-01 -1.53390408e-01  3.91029231e-02
  -1.17520459e-01 -4.92467582e-02 -2.26922184e-02 -1.99672669e-01
   1.16812527e-01  5.00253618e-01  3.58443499e-01 -4.31247167e-02
   1.47444472e-01 -1.64778545e-01 -1.62988082e-01 -1.01598956e-01
   5.69089293e-01 -1.59633756e-01  1.69392377e-01  3.88312966e-01]
 [ 5.58519185e-01 -1.51806369e-01  2.10918915e-02  7.62001276e-02
   3.06198776e-01  5.94164312e-01  2.83848852e-01 -2.45172068e-01
  -2.08101645e-01 -5.13223469e-01 -5.32869697e-01  1.88950196e-01
  -4.81769405e-02 -3.13653201e-01 -1.63857758e-01 -1.84263811e-01
   2.35491589e-01 -7.43381679e-02  3.40069272e-03  3.43719363e-01
   5.58821559e-01  3.92240398e-02  1.24310933e-01 -1.70437500e-01
  -4.03686464e-01  4.98663038e-02 -4.47213113e-01  1.44332573e-02
   2.64699847e-01 -1.11414932e-01  1.76723897e-01  1.84675306e-01
   4.72956061e-01 -3.45415056e-01 -2.56987065e-02 -9.42143984e-03
  -1.47213385e-01  8.82166624e-02 -2.54195422e-01 -2.03032792e-03
  -7.71977426e-03 -4.60905172e-02  1.65884405e-01 -1.59338280e-03
   2.99384654e-01 -1.79684833e-01  2.56565124e-01 -4.55681235e-02
  -3.67257267e-01  2.58335203e-01 -4.90964383e-01  3.09994191e-01
   5.59901953e-01  8.12036991e-02  3.79223633e-03  9.32193756e-01
   2.04724699e-01 -4.12365831e-02  2.95590281e-01 -3.39223027e-01
  -9.85456631e-02 -2.31562570e-01 -4.45061326e-02 -2.40602270e-01
   2.07540199e-01  1.31899998e-01 -4.04303335e-02 -5.49457185e-02
   2.43685376e-02  1.20886609e-01 -6.39322847e-02 -1.55958280e-01
  -3.69898140e-01 -1.01869695e-01  2.71398723e-01  8.76661539e-01
   1.81195531e-02 -6.54233992e-02 -2.93496609e-01  1.41791523e-01
  -7.13176876e-02 -9.71574932e-02 -2.76105106e-01  2.83762693e-01
  -3.76489162e-02 -3.50992233e-02 -2.56912470e-01  2.89596796e-01
  -3.07360083e-01 -1.31950781e-01 -5.24382778e-02 -2.24899694e-01
   6.04667962e-02  4.74480949e-02 -4.15684581e-01 -2.40255594e-01
   2.35380977e-01 -8.81328806e-02 -2.87122875e-02 -6.09447509e-02
  -5.89708574e-02  3.75799984e-02 -1.02473490e-01  5.42169623e-03
   6.25940263e-02 -4.68922943e-01 -2.10933387e-02 -6.41113222e-02
  -5.01630008e-02 -4.98585612e-01 -1.39053911e-01  2.00297445e-01
  -4.74859588e-02 -2.65333593e-01  4.39411402e-02  3.27595234e-01
  -1.02151252e-01  5.46400428e-01  2.48095423e-01 -3.44136029e-01
   3.11903149e-01  4.20666158e-01 -9.13706645e-02  3.50251704e-01
  -9.88417193e-02 -1.82802454e-01  6.75893575e-02 -9.22236964e-02]
 [ 2.38521970e-04  7.61125088e-02 -4.41369638e-02 -3.36413622e-01
  -4.13334928e-02  3.34260046e-01 -7.19864219e-02 -2.07726866e-01
  -3.54401618e-01 -6.34297550e-01  2.86677718e-01  5.93381114e-02
  -4.70245183e-02 -5.49479425e-01  9.38412100e-02 -1.63997725e-01
  -2.52371132e-01  4.14066195e-01 -2.06193656e-01  4.16914105e-01
   9.17179137e-02  6.56413913e-01 -2.82356203e-01 -2.53171567e-03
   4.54111733e-02 -1.51987910e-01  1.36683779e-02  9.39752162e-03
  -4.59139138e-01  2.35124618e-01  2.13078961e-01  2.45040178e-01
   8.71335864e-02 -6.20114617e-02 -2.43268479e-02 -2.14952499e-01
   3.95590305e-01 -3.17126699e-02 -4.41488802e-01 -2.65999883e-03
  -2.44212430e-02 -1.48660287e-01  2.91649193e-01  6.83099553e-02
   2.21310616e-01 -4.60533857e-01  3.68146539e-01 -1.38022691e-01
  -4.45326209e-01  2.87517272e-02  7.14084506e-02 -4.70273256e-01
  -1.99962959e-01  3.06655187e-02  4.93546933e-01  4.31723863e-01
  -6.00720234e-02 -6.10006377e-02  6.48862898e-01 -6.04202211e-01
  -8.80730245e-03  3.58261734e-01  1.21919662e-01  6.62046745e-02
  -8.81017931e-03 -4.20331955e-02 -5.13017818e-04  3.46209155e-03
  -1.33668199e-01  1.06747568e-01 -2.23672032e-01  5.72288215e-01
   2.86935717e-01 -1.05516270e-01  4.85491799e-03  4.97610837e-01
  -5.41535430e-02 -2.45975275e-02 -1.75018108e-03  1.73426569e-01
   7.18214884e-02 -2.43474454e-01 -1.68863550e-01 -3.10146779e-01
   2.57583559e-01 -1.45380264e-02  1.22767696e-02 -5.49107671e-01
  -4.84315783e-01 -1.09024897e-01  2.80333787e-01 -1.95883498e-01
  -2.31281649e-02 -1.91861108e-01 -6.54830098e-01 -1.80878073e-01
   3.03043723e-01 -5.14387004e-02  4.79868837e-02 -6.55528158e-02
  -1.41933739e-01  1.07339144e-01 -9.71733928e-02  1.87284812e-01
   1.06767498e-01 -3.84005904e-01 -1.29908860e-01 -1.16343550e-01
  -1.71682194e-01 -2.22322494e-01 -2.72642851e-01  2.64447480e-01
  -1.31109357e-01 -6.93462312e-01 -2.19909046e-02  5.13207912e-01
  -3.15400809e-01  1.61465928e-01  2.27149889e-01  9.52993408e-02
   5.73986471e-01 -8.86079744e-02 -4.93286937e-01 -1.47628784e-01
   2.63042629e-01  1.18493773e-01  1.35540566e-03 -3.41514021e-01]
 [-4.89876509e-01 -5.05486965e-01 -6.04171939e-02  3.17292839e-01
   1.04352772e-01  3.26151758e-01  4.53310013e-01 -1.81843102e-01
   8.20117056e-01  1.46181911e-01 -2.83522066e-02  3.48436356e-01
   4.04376477e-01 -5.05888104e-01 -9.90467072e-02 -3.73686343e-01
   4.36417013e-01 -3.38732213e-01  1.24892676e+00 -3.11631663e-03
   3.34663421e-01 -2.61707604e-01  3.60192470e-02 -1.67727590e-01
  -8.99496153e-02 -2.59032637e-01 -2.84777731e-01  4.86504212e-02
   1.87736779e-01  1.00747727e-01  7.83847213e-01  3.01942736e-01
   2.08254188e-01  1.88931018e-01  2.54379045e-02  8.33996296e-01
   3.12326729e-01 -3.60903680e-01 -5.28200507e-01 -2.76486054e-02
  -1.90711290e-01  1.57251537e-01  1.73201799e-01 -1.88529000e-01
   2.27423676e-04 -2.99455464e-01 -4.36357297e-02 -8.60430300e-02
   3.10177863e-01 -8.27972032e-03 -5.63640185e-02 -3.73209476e-01
   3.73535991e-01 -3.27157289e-01  2.95729898e-02  1.41624972e-01
  -5.67027628e-02  2.84571424e-02  2.07928172e-03 -4.51606095e-01
  -7.08261803e-02 -3.85998726e-01  2.85114497e-01 -2.54944950e-01
  -4.89019096e-01  2.44349360e-01 -6.62706792e-01 -4.45709974e-01
  -9.98473391e-02  8.01894665e-02 -3.26413333e-01 -5.01583070e-02
   1.84394315e-01  9.89878252e-02 -9.12873819e-02  3.65707308e-01
  -3.85391325e-01 -7.71617815e-02  2.37342626e-01  3.14603001e-01
  -1.99049592e-01 -1.00551069e+00 -4.21374261e-01  4.79596943e-01
   3.33070636e-01  7.54740596e-01 -1.72369421e-01  3.71949583e-01
  -8.88875723e-01  6.46102577e-02  2.67710537e-01 -2.50552118e-01
   1.86851434e-02 -6.16216779e-01  1.75294742e-01 -8.52962583e-02
   1.75197169e-01 -2.48660892e-01 -2.97210980e-02  2.70263404e-02
   8.85139704e-02  8.06872427e-01 -8.73505771e-01  8.02128762e-02
   1.86671659e-01 -1.79813698e-01  6.28201723e-01 -3.78822953e-01
   6.79619789e-01  3.91727000e-01 -1.15959071e-01 -6.17151670e-02
  -4.16656733e-01 -3.74748498e-01 -3.91921252e-02  2.82521576e-01
  -2.11545974e-01 -4.65473011e-02 -1.01193227e-02 -4.96271133e-01
  -1.43199796e-02  7.34413043e-02  1.44954538e-02  1.37684509e-01
  -3.45986605e-01 -3.00021619e-01  1.61327660e-01 -4.30344462e-01]
 [-1.05100155e+00 -5.68440795e-01 -7.63106951e-03  6.04738474e-01
   1.38113752e-01  5.46509624e-01  6.11113131e-01 -2.38769963e-01
   4.55448776e-01  1.26306564e-01  2.15900630e-01  9.11973342e-02
   7.13097513e-01 -5.36276102e-01 -8.04098099e-02 -4.44630682e-01
   4.52671260e-01 -3.41473550e-01  4.18330014e-01 -1.57296017e-01
   3.94551903e-01 -3.22944894e-02 -7.15755373e-02 -8.56098905e-02
  -1.39061466e-01  8.58131275e-02 -9.80902761e-02 -2.67077386e-02
   1.41436132e-02  2.74185330e-01  6.52188241e-01  2.76022017e-01
   2.88120843e-02 -2.22324222e-01  2.20764428e-03  7.95114458e-01
   2.30513345e-02 -5.43044031e-01 -2.84045786e-01  7.87721053e-02
   9.98268351e-02 -2.54771896e-02 -1.68450661e-02 -5.41091681e-01
  -6.14172779e-03 -3.87511283e-01 -1.14210635e-01 -9.04507656e-03
   4.91162002e-01 -4.63466123e-02 -8.24864566e-01 -3.21654230e-01
   4.10783142e-01 -1.76612392e-01 -4.90310416e-02 -6.02602661e-01
  -8.84806588e-02 -4.71400470e-02  3.39109302e-01 -2.79878706e-01
  -5.95506020e-02 -3.03663880e-01 -9.14964676e-02 -2.03547880e-01
  -5.84062815e-01  3.64546210e-01 -5.93891799e-01  6.72321171e-02
  -1.05268523e-01  4.93227355e-02 -6.29903495e-01  1.73197448e-01
   1.92392599e-02 -1.80033281e-01  1.30067840e-01 -4.56293300e-02
  -3.69037449e-01 -1.53002748e-02  1.73503473e-01  3.27207074e-02
  -3.46912920e-01 -5.74311495e-01 -4.06094998e-01  6.08497739e-01
   1.85153812e-01  5.34515679e-01 -3.84721234e-02  2.94877112e-01
  -2.67478913e-01  2.79387683e-01  4.82235640e-01 -4.07950342e-01
  -9.92003530e-02 -5.84728479e-01  4.78730738e-01 -8.85402877e-03
   5.38825095e-01 -2.60250837e-01 -4.60088775e-02 -2.45208293e-02
  -1.77903503e-01  6.25577986e-01 -7.16147542e-01  4.29037660e-01
   7.06385821e-02 -5.79711139e-01  2.79116422e-01  2.35548615e-01
   3.59890312e-01  5.61515033e-01 -1.31950542e-01 -2.29800627e-01
  -4.92937595e-01 -7.33390450e-02 -6.66899700e-03  4.48120274e-02
   1.54945403e-01 -3.30594122e-01  1.91956572e-02 -4.01459694e-01
   1.11114420e-02 -5.31400368e-02 -6.88442737e-02  4.87318426e-01
  -2.53501207e-01  8.78795423e-03  4.42989171e-02 -3.49966407e-01]
 [-4.81106751e-02 -1.57443404e-01 -2.53572166e-01 -2.04033077e-01
   3.26210976e-01  5.12553081e-02 -3.45108181e-01 -1.29653007e-01
  -8.26674625e-02  8.78686249e-01  4.67434108e-01 -4.62035269e-01
   4.21049029e-01 -1.50098503e-01 -1.04613021e-01 -3.00510466e-01
   5.96190870e-01 -1.61087260e-01  2.91249715e-02 -5.65364540e-01
  -3.73396724e-01  1.29415363e-01 -3.50509524e-01 -1.19974792e-01
  -3.92646305e-02  1.51096731e-01  6.20844543e-01  1.24124587e-02
  -2.26968318e-01  6.88209414e-01  2.76719630e-01  2.54502416e-01
  -3.49188805e-01  7.80284926e-02  4.02004197e-02  3.31610978e-01
  -4.79422063e-01 -6.59862459e-01 -1.29301295e-01 -2.64129788e-02
  -1.19470374e-03 -1.91887081e-01  1.23791009e-01 -8.16686332e-01
  -1.75751090e-01 -3.82343382e-02  4.95347455e-02 -1.20571256e-01
   5.54611206e-01 -1.14389002e-01 -8.42508197e-01 -6.98879004e-01
   1.91777542e-01  2.27336898e-01 -6.31678224e-01 -1.10805786e+00
  -2.89907068e-01  6.36194870e-02  7.42639899e-02 -2.41269857e-01
  -3.84345055e-02  5.49670577e-01  1.60434291e-01 -1.60448015e-01
  -8.56150627e-01 -2.85722256e-01 -3.25501889e-01  3.72270226e-01
  -5.30818179e-02  1.48330867e-01 -9.48902071e-01  2.36073390e-01
  -1.58882439e-01 -5.03748655e-01 -3.35613459e-01 -2.56473362e-01
  -3.48339558e-01 -1.01569079e-01  2.42831752e-01  1.75243586e-01
  -1.65426522e-01  1.15117297e-01 -1.41624480e-01 -2.51888484e-01
   1.67044044e-01  4.21541572e-01  4.74014819e-01  1.35880157e-01
  -2.30263829e-01  2.04916388e-01  2.06014976e-01 -3.39159042e-01
   1.58542059e-02 -5.02723575e-01  3.21085334e-01 -4.88033414e-01
   1.12531555e+00 -3.64259720e-01  2.67843157e-03 -4.57936153e-02
  -1.56486064e-01  1.67984869e-02  1.09575633e-02 -8.75704214e-02
  -3.72988045e-01  2.54561156e-01 -9.54505578e-02  3.33968937e-01
   2.85045058e-01  3.37987632e-01  4.69095074e-02  6.59659179e-03
  -4.69261020e-01 -2.90405214e-01 -2.16384348e-03 -6.75294518e-01
   1.24703661e-01 -2.90629387e-01 -4.19646353e-01 -4.20644015e-01
  -4.54895139e-01 -3.92512679e-01  2.87854314e-01 -7.71779418e-02
   3.92535180e-01  5.85577711e-02  3.33324939e-01 -1.38502389e-01]
 [ 2.02101529e-01 -3.39729846e-01 -4.07479554e-01 -4.13375199e-01
   4.80823338e-01  2.24983081e-01 -6.90533280e-01 -1.41122162e-01
  -3.84491086e-02  4.08143252e-01  1.26402229e-01 -9.90330502e-02
   1.78652406e-01 -2.46983394e-01 -7.12965429e-01 -2.58564860e-01
   1.06009471e+00 -3.35664183e-01  6.14528768e-02 -1.27113849e-01
  -1.01836078e-01  1.71004683e-01  1.76166132e-01 -2.57934004e-01
   1.54046759e-01 -1.55895306e-02  7.54764497e-01 -9.51486826e-03
  -8.20321441e-01  3.94265383e-01  9.01955143e-02  4.27806407e-01
   4.79409061e-02  8.18634868e-01 -3.59855220e-02 -8.60401802e-03
   4.10186760e-02 -1.72820151e-01 -3.66786301e-01 -6.91636875e-02
  -4.19066876e-01 -2.09225453e-02 -2.08589658e-01 -8.01238596e-01
   3.57269317e-01 -1.68229401e-01 -5.05618453e-02 -9.16557480e-03
   4.31772411e-01 -1.45447582e-01 -5.89451730e-01 -1.22898966e-01
   2.54453301e-01  6.02637976e-02 -3.41103792e-01 -8.26620817e-01
  -9.03863907e-02 -1.78870559e-02  3.31929386e-01 -4.34900880e-01
  -1.23085916e-01  3.77474159e-01 -7.24555627e-02 -6.31308317e-01
  -4.27427679e-01  2.12038055e-01 -2.00933442e-01  3.58782172e-01
  -7.17497393e-02  6.03785552e-02 -7.26650417e-01 -2.99671024e-01
   9.37854573e-02  1.64396420e-01 -1.90198213e-01 -6.63336599e-03
  -3.89749110e-01  5.94398417e-02  2.75946319e-01  2.16053069e-01
  -4.00160909e-01  2.99063355e-01 -2.07416013e-01 -1.52211949e-01
  -1.63437158e-01 -4.84017618e-02  3.85521799e-01 -5.04339039e-01
  -5.46468318e-01 -6.51321054e-01 -1.59800828e-01 -5.28287709e-01
   7.07294196e-02 -8.07297379e-02  2.40328647e-02 -6.15481436e-01
   9.11741495e-01 -1.70845930e-02 -5.62177151e-02  7.96954408e-02
   3.74019220e-02 -2.04552099e-01  5.11027694e-01 -4.34401691e-01
  -6.66435480e-01  7.61915207e-01 -3.76874715e-01  5.34509122e-02
   9.47636589e-02  2.00971365e-01 -1.48248553e-01  1.05662912e-01
  -9.20440406e-02 -3.25291276e-01  2.62472276e-02 -4.77161914e-01
  -5.59102632e-02 -2.37445623e-01 -8.75833631e-01  1.93492144e-01
   1.28513826e-02 -3.12024891e-01  2.71659911e-01  7.49416411e-01
  -6.01347014e-02 -1.71779126e-01  3.10706526e-01 -2.00137839e-01]
 [ 3.55392635e-01  1.24178067e-01 -1.31231651e-01 -5.53265326e-02
  -3.24005514e-01  6.41911924e-02 -1.21545769e-01  1.56017402e-02
  -7.09506497e-02 -1.67733163e-01  2.35918403e-01  8.86521414e-02
   1.91411197e-01 -4.20687407e-01 -6.78577304e-01 -3.92496198e-01
   6.37579039e-02  2.14824528e-02  3.08500715e-02 -3.12691450e-01
   3.93662363e-01 -2.50770152e-01  2.53478050e-01 -3.06157947e-01
  -1.75196975e-01 -1.35762289e-01 -2.29047433e-01 -6.50362745e-02
  -1.61404267e-01  1.80715889e-01 -2.38688618e-01  2.20474571e-01
   3.58355582e-01  5.49929082e-01 -8.19858909e-02 -3.68614309e-02
  -5.68127371e-02  1.03155442e-01 -5.89376390e-01  6.42080083e-02
  -1.12226650e-01  2.08201662e-01 -5.47772646e-01 -6.60542130e-01
   4.30726528e-01 -1.56062454e-01  2.19127648e-02 -3.72610502e-02
   3.18688184e-01  1.20354600e-01 -3.57419476e-02  7.46932030e-01
  -2.04592213e-01 -1.15346052e-01  2.86433518e-01 -8.69535133e-02
  -5.13126701e-02 -8.36581178e-03 -9.76848975e-02 -2.97643244e-01
  -1.73018992e-01 -1.88982561e-01 -3.84060770e-01 -6.67634606e-01
   6.45536542e-01  1.87501311e-01 -1.06924944e-01  9.15947780e-02
  -1.88044623e-01 -2.55033523e-01 -9.42688763e-01  1.44065507e-02
  -3.47830385e-01  7.87333250e-02  2.88069963e-01 -1.11648329e-01
  -4.50009972e-01 -7.18462327e-03  1.20369392e-02  2.08623156e-01
  -3.52242202e-01  3.71220112e-01 -5.43716848e-01 -2.21025050e-01
  -4.43860918e-01  3.18958282e-01 -2.37493560e-01 -6.14888608e-01
  -8.11868131e-01 -6.02641463e-01 -3.34490955e-01 -7.86802292e-01
  -2.90805083e-02 -4.60143149e-01 -4.99232203e-01 -3.55988234e-01
   1.58060074e-01 -1.05347950e-02  4.42556068e-02  4.11588997e-02
   1.06160687e-02 -4.64720935e-01 -2.06626609e-01  1.00987822e-01
  -3.23700666e-01  3.97858828e-01 -4.33533758e-01  2.81881154e-01
   5.10178864e-01  6.70739114e-01 -3.88763577e-01  3.53958547e-01
   5.08993924e-01  5.25892116e-02  1.29375800e-01  1.86404184e-01
  -2.93637574e-01  6.26866519e-01 -7.23173976e-01  3.20583701e-01
   6.90471888e-01  1.18613899e-01  2.77473539e-01  7.16482520e-01
   2.65902281e-01  4.17276233e-01 -5.10342605e-02  1.45632699e-01]
 [-5.29450588e-02 -5.16373552e-02 -3.88705403e-01  1.97261229e-01
  -5.96213877e-01  5.36546931e-02  1.07640043e-01  4.36376184e-02
   4.34859037e-01 -4.39042419e-01  4.77017350e-02  7.24458322e-02
  -6.15912497e-01  3.08354236e-02 -3.66944194e-01 -5.45904100e-01
   5.45191281e-02 -1.47361174e-01 -7.62408376e-02 -5.88224530e-01
   3.65925103e-01 -2.23850057e-01  3.08355540e-01 -4.35703248e-01
  -2.97577865e-03  6.23342395e-02 -2.16510519e-01 -5.07347062e-02
  -1.83619671e-02 -2.37731233e-01 -2.21547559e-01  6.82999432e-01
  -1.07134611e-03  1.28675789e-01 -5.45113944e-02 -8.41411704e-04
  -5.96345440e-02  3.15717041e-01 -6.54561818e-01 -1.31456542e-03
   3.13462704e-01  3.49335253e-01 -7.08952546e-01 -5.53069651e-01
   7.36379147e-01  4.73361574e-02 -1.26139253e-01 -1.84584349e-01
   3.59398693e-01  4.36201930e-01  3.49228829e-01  8.64919305e-01
   3.96451771e-01 -2.13621646e-01  1.35836855e-01  3.33691239e-01
   1.79940872e-02 -1.99661385e-02 -3.33000720e-01 -7.98943520e-01
  -2.45116472e-01 -1.19319528e-01 -9.38880742e-02 -2.17927322e-01
   3.51554245e-01  1.41469628e-01 -4.93272513e-01  2.02214628e-01
  -1.37519732e-01  1.72656506e-01 -1.15968931e+00 -2.31356323e-02
  -6.11148179e-01  2.97815233e-01 -4.74917181e-02 -1.87260568e-01
  -3.13767940e-01 -6.50816038e-02  1.56757951e-01  1.42413005e-01
  -8.32497794e-03 -1.13497563e-02 -9.86634493e-01 -6.44958436e-01
  -5.47146976e-01 -5.31819880e-01  9.39922556e-02 -4.92684066e-01
  -1.08904493e+00 -7.67184123e-02 -2.90961683e-01 -7.24509180e-01
  -1.20265260e-01 -6.70760989e-01 -3.53776753e-01 -4.40993398e-01
   1.14282398e-02  3.37197363e-01 -7.31689483e-03  1.63052361e-02
   1.22922592e-01 -1.78206861e-01 -7.33117610e-02  4.81743127e-01
  -2.39460662e-01 -2.02234667e-02 -5.19676626e-01  1.52324021e-01
   4.48769152e-01  6.73699439e-01 -3.02188873e-01  1.29957229e-01
   4.53823954e-01 -1.26035422e-01 -9.33917332e-03  1.10825390e-01
  -6.92375243e-01  4.94463742e-01 -4.08565193e-01 -6.53827488e-02
   3.62769932e-01  2.80120056e-02  2.24264696e-01  1.24533176e-01
   2.91702121e-01  4.55663741e-01  2.87527144e-01  2.64205486e-01]
 [-1.46557197e-01 -2.33786464e-01 -1.96929082e-01 -2.49269590e-01
  -1.96841964e-03 -2.12128744e-01  2.17315316e-01 -5.42913526e-02
   6.95212781e-01 -1.11107811e-01 -4.55736250e-01  4.36629772e-01
  -9.47845459e-01 -1.59261320e-02 -2.70103097e-01 -3.54958028e-01
   6.38285518e-01 -2.52053082e-01 -1.79456756e-01 -5.71830630e-01
   3.23259801e-01 -4.84727681e-01  7.50160396e-01 -5.64429164e-01
   2.30886877e-01  1.24979757e-01  5.06208479e-01  3.16335559e-02
  -1.19737476e-01  2.62857564e-02 -7.00084642e-02  2.59155452e-01
   2.70272732e-01  3.83365750e-01 -8.18751007e-02 -4.73773241e-01
   2.74206877e-01  3.25177103e-01 -5.42411432e-02  4.94633317e-02
   3.04845095e-01  2.93561995e-01 -1.59076098e-02 -2.48820528e-01
   7.25673378e-01  4.33365256e-01 -2.48757660e-01 -4.96478043e-02
   5.47525764e-01  8.09978783e-01  3.53018135e-01  2.54132330e-01
   5.54422677e-01 -2.90158689e-01 -9.16344404e-01 -1.30640551e-01
  -2.21715018e-01  5.19564748e-02 -3.67165804e-01 -6.49692416e-01
  -2.51836866e-01  1.62577704e-01 -1.14701383e-01 -2.40452260e-01
  -1.48848414e-01  7.02512980e-01 -2.84440368e-01 -2.63888270e-01
  -1.12258971e-01 -1.77437574e-01 -8.92956018e-01 -2.55531758e-01
  -2.02311456e-01 -3.72866064e-01  2.05096770e-02 -2.36545205e-01
   3.88969816e-02 -1.01991467e-01  1.88295990e-01  2.06761688e-01
   8.96187872e-02  1.31945582e-02 -6.43363357e-01 -9.30386543e-01
   6.52665198e-02 -1.65376723e+00  3.06972742e-01 -7.78481066e-01
  -4.43516314e-01 -6.58660412e-01  7.61474892e-02 -3.21022451e-01
  -3.82678628e-01  6.93456158e-02  4.85229671e-01 -8.51787210e-01
   4.48559016e-01  9.03065145e-01  1.85385197e-02 -5.46538830e-02
  -5.60712777e-02  1.28410876e-01  5.35328567e-01  3.23492229e-01
  -5.79168320e-01  4.36307073e-01 -5.31376489e-02 -9.98060167e-01
   2.01256245e-01  5.30870438e-01 -2.68780470e-01  2.85375059e-01
   5.37151754e-01 -2.11153775e-01 -3.07228919e-02 -3.74980986e-01
  -3.60345483e-01 -7.78059065e-02 -4.08335000e-01 -3.00650358e-01
  -1.83797613e-01 -2.18552444e-02  5.65996766e-01 -5.06865941e-02
   2.07668826e-01  2.49072820e-01  7.95762718e-01  3.09100032e-01]
 [ 1.26331180e-01  9.03372541e-02  3.28639477e-01  1.66786447e-01
  -7.95899034e-02  3.15576524e-01  6.46618962e-01  4.63438064e-01
   5.03138244e-01 -2.42135182e-01 -1.02855101e-01 -5.64610027e-02
  -2.85824478e-01 -3.91964093e-02 -3.89641464e-01  1.21047929e-01
   6.34494647e-02 -1.43705547e-01  9.45306569e-02 -1.59653172e-01
   9.07023847e-02 -2.11344719e-01  2.63885707e-01 -4.35962796e-01
   1.76747665e-01  1.21011749e-01  3.83766592e-01 -6.28496110e-02
   3.29293571e-02  9.98064280e-02 -5.98556809e-02 -1.51546150e-01
   3.86162877e-01  5.74625671e-01 -5.08277081e-02  1.60458878e-01
   1.73763558e-02  2.89261103e-01 -1.69451132e-01  3.11152693e-02
  -1.91137031e-01  4.54364531e-02 -6.97562993e-02  2.06838086e-01
   3.51144314e-01  8.44275858e-03 -3.09899926e-01 -1.39042765e-01
   2.04093352e-01  4.31977272e-01  2.35288084e-01 -1.59698844e-01
   1.73849627e-01 -2.19125748e-01 -3.52646381e-01 -2.39825547e-01
  -3.13712060e-01  2.80194655e-02 -2.78154999e-01 -4.41290587e-01
  -5.40375151e-02  2.47443795e-01 -4.62073572e-02 -8.05747509e-02
  -1.53560564e-01  1.52229071e-01 -4.37640280e-01  2.80570667e-02
   1.93533316e-01  4.89319414e-02 -7.74491280e-02 -2.68333882e-01
  -9.16156247e-02 -5.43648839e-01  3.64111722e-01  4.52895127e-02
   2.84700572e-01  5.20767691e-03  1.39470503e-01 -9.35416967e-02
  -1.39788240e-01 -1.30984941e-02 -2.25406468e-01 -3.63915786e-03
   6.27054870e-01 -1.11623205e-01  4.02365029e-01 -2.50406057e-01
  -1.50431348e-02 -7.49902129e-01  1.57005295e-01 -1.65573224e-01
  -3.69617432e-01  7.49938726e-01  4.39461261e-01 -5.83868206e-01
   3.75431776e-01  5.64764023e-01 -1.91802271e-02 -3.15916017e-02
   1.68581724e-01  1.60433024e-01  1.57343343e-01 -1.36446685e-01
   3.65253299e-01 -4.58764099e-02  1.22479945e-01 -5.97218931e-01
  -7.00334236e-02  2.30214313e-01 -1.80321321e-01  3.30810368e-01
   6.87990129e-01 -3.29601526e-01 -9.91621986e-02 -1.56890154e-01
  -1.04883075e-01 -2.44036075e-02  2.47494981e-01 -1.38818860e-01
  -4.30825084e-01  2.32567161e-01  5.37742674e-01 -4.22208786e-01
   3.28031898e-01 -5.63059747e-03  3.64756256e-01 -1.59194306e-01]
 [-5.91015480e-02 -1.74548790e-01  3.69436979e-01  6.39283478e-01
   2.82391816e-01  4.16036636e-01  3.53524923e-01  4.52594638e-01
   8.38703383e-03 -1.11310780e-01  1.26801118e-01 -6.39821053e-01
   4.32812750e-01  5.41389324e-02 -2.39080295e-01  1.51722699e-01
  -2.13796739e-02 -1.55304000e-01  5.14380097e-01  2.69344300e-01
  -4.94346112e-01  1.86101303e-01 -4.83112246e-01 -3.87307942e-01
   3.31971236e-02 -1.51774148e-02 -1.16042227e-01  4.61115539e-02
  -2.97104307e-02 -6.13258928e-02  5.92932403e-01 -1.76680073e-01
   2.36375228e-01  2.04235345e-01  4.76994626e-02  4.42087710e-01
  -3.66466567e-02 -1.79998890e-01  4.97440062e-02 -4.22631204e-03
  -4.92758065e-01  1.09293953e-01 -7.94679523e-02  1.81036979e-01
   2.08048508e-01 -2.27632836e-01 -4.10135746e-01 -1.10122174e-01
   4.10920382e-02  8.62458646e-02  2.92695850e-01 -3.60174179e-02
  -1.88067108e-01 -1.87181737e-02  1.30817935e-01 -1.96621403e-01
   7.78235421e-02  3.59264687e-02 -1.11004639e+00  3.96139212e-02
   6.97406158e-02 -3.69985625e-02 -1.40402004e-01  1.54609278e-01
  -3.44746560e-01 -1.35581166e-01 -2.92216629e-01  4.72054958e-01
  -6.59900717e-03  2.68584728e-01  1.87652469e-01 -3.39184344e-01
   6.72901496e-02 -2.42292449e-01  5.93179017e-02  8.19498897e-02
   1.58232644e-01 -4.36790809e-02  1.67389661e-01 -3.94486219e-01
  -4.68703538e-01 -2.84552723e-01 -1.29416332e-01  8.98522064e-02
  -1.09059989e-01  7.93323278e-01  3.13640058e-01  1.71729699e-02
  -1.56412516e-02 -6.15818679e-01  1.73308209e-01  3.75022620e-01
  -4.63648215e-02  3.82356077e-01  1.84596494e-01  2.86976546e-01
   4.27297242e-02 -7.82854483e-02 -6.48395792e-02  3.73865776e-02
   4.87604976e-01  2.29616582e-01 -6.42926872e-01 -3.17984551e-01
   6.38488114e-01 -1.75419152e-01  2.29035512e-01 -5.48713148e-01
   7.47428983e-02 -2.21118495e-01 -4.52518053e-02  1.03944205e-01
   4.68204767e-01 -5.73715210e-01 -2.05553719e-03  4.41927612e-02
  -1.60841241e-01 -3.09803516e-01  3.65344852e-01  2.03854106e-02
  -5.08909345e-01 -1.18321337e-01  3.77661914e-01 -1.04138207e+00
  -1.03040352e-01 -3.76415431e-01  5.62532134e-02 -3.36794496e-01]
 [-1.99803591e-01  1.80197403e-01  2.71682590e-01  3.87709886e-01
   4.55005258e-01  7.17903152e-02 -8.93392339e-02  9.36506018e-02
   1.60031170e-01  3.28404874e-01 -4.60494995e-01 -6.54837191e-01
   2.74315983e-01  3.61741334e-01  3.40509742e-01  3.65019381e-01
  -2.10870102e-01 -2.08982438e-01  4.06178713e-01 -1.01768419e-01
  -8.96148860e-01  2.67449394e-03 -6.80712700e-01  3.19850862e-01
  -3.06715250e-01 -4.20482785e-01 -1.55873835e-01 -6.65644780e-02
   1.48720860e-01  9.55091789e-02  6.09434247e-01  3.94558012e-01
   2.96697706e-01  1.06370933e-01  2.88675986e-02  2.69171447e-01
   4.91529033e-02 -5.49931765e-01  2.52739429e-01  7.31457993e-02
  -2.74877757e-01 -1.16588719e-01 -4.30640191e-01  1.73490539e-01
  -4.05900866e-01  5.15440367e-02 -8.33640695e-01  9.16164070e-02
  -2.92837113e-01  7.24045932e-02  1.47202969e-01 -1.32914811e-01
  -4.15009767e-01  1.79461032e-01  1.60710633e-01 -2.28107557e-01
  -1.50983751e-01  2.31563039e-02 -1.10486615e+00  6.51193738e-01
   2.77685523e-02  3.95415813e-01 -2.93785214e-01  1.61336556e-01
  -3.46782565e-01 -4.56413120e-01  3.24134761e-03  3.48623067e-01
  -7.74568766e-02  1.81052521e-01  7.72870183e-02 -2.00069726e-01
   3.92526001e-01 -3.98092121e-01 -1.73763156e-01  4.64295149e-01
   3.03007424e-01  2.09227540e-02  4.76016104e-03 -5.31841576e-01
  -3.82677585e-01 -3.99483919e-01  8.41223300e-02 -7.40447119e-02
  -2.62235284e-01  5.25976062e-01  3.70356530e-01  9.80214402e-02
   5.07551074e-01  1.38084888e-01  2.36531079e-01  1.21101834e-01
   2.12732881e-01  5.01217786e-03 -3.03501606e-01  4.13552701e-01
   3.20855640e-02  7.01851100e-02 -9.87502746e-03  2.77094971e-02
  -6.52488396e-02  1.09156668e-01 -7.23174036e-01 -5.48810244e-01
   5.31678557e-01  1.68230936e-01  4.87644434e-01 -1.80823714e-01
   1.86958641e-01 -9.00920853e-03  1.14331841e-01 -2.80330092e-01
   4.60308552e-01 -5.99934816e-01 -1.14959352e-01  1.97571352e-01
   1.03336843e-02  8.39245990e-02  1.01571269e-01  5.16075194e-01
  -4.55423862e-01  1.34542242e-01  6.49759412e-01 -1.13253701e+00
  -5.34698330e-02 -7.18536019e-01  2.20763683e-01 -1.08874582e-01]
 [-3.02531174e-03  3.66740137e-01  1.03765585e-01  3.20638090e-01
   2.64840335e-01 -1.04187712e-01  8.65218267e-02  1.53489918e-01
   8.10562745e-02  2.08708629e-01 -2.49172807e-01 -5.14323294e-01
   1.25193238e-01  4.34578478e-01  5.47866642e-01  3.05513412e-01
  -4.72602099e-01 -6.84761479e-02  1.57122388e-01 -1.93115979e-01
  -8.80353630e-01  2.73500029e-02 -8.05800021e-01  3.06289971e-01
  -3.40105891e-02 -5.31206131e-01 -2.54538525e-02 -3.11083160e-02
   7.77570456e-02  1.12553954e-01  5.82856834e-01  1.17899915e-02
   2.87365377e-01  1.07362628e-01 -6.54466748e-02  3.06604773e-01
  -1.00128524e-01 -5.38155019e-01  3.52850348e-01 -7.00828582e-02
  -1.72200665e-01 -1.35330886e-01 -3.37045878e-01  2.36113116e-01
  -2.66065598e-01  2.94765234e-01 -1.01023734e+00  2.74793021e-02
  -2.06709161e-01 -6.23604134e-02  2.87490219e-01 -1.02519117e-01
  -5.59553504e-01  2.01315939e-01  3.69677603e-01 -1.60264149e-01
  -3.22248340e-01 -7.28850365e-02 -8.11544716e-01  1.12026989e+00
   1.30277395e-01  4.37838435e-01 -5.34406185e-01 -1.70010731e-01
  -3.03066880e-01 -3.69736642e-01  3.99450243e-01  1.25985891e-01
  -3.10957193e-01 -1.44216195e-01 -8.22957680e-02 -1.64331451e-01
   4.62386429e-01 -5.63262224e-01 -1.71205163e-01  3.75723451e-01
   3.36457133e-01 -2.96104560e-03  1.62544530e-02 -5.13835371e-01
  -9.01885182e-02 -4.90255862e-01  6.65719137e-02 -1.97073501e-02
  -2.77638584e-01  5.50765932e-01  2.00642511e-01 -1.91381663e-01
   9.05279100e-01  4.21498656e-01  2.61057556e-01  1.95009187e-02
   9.71485302e-03  1.40053943e-01 -6.52593613e-01  3.70747387e-01
  -6.35613427e-02  2.86258250e-01  1.99137852e-02  1.85735859e-02
  -2.21468464e-01 -5.71162552e-02 -7.02274024e-01 -8.63795638e-01
   3.01880717e-01  2.78453492e-02  1.73533529e-01 -4.55685146e-02
  -3.64674270e-01  1.53545598e-02  4.35644127e-02 -4.08199519e-01
   4.73341584e-01 -4.28941429e-01 -5.60657158e-02  3.52404803e-01
   2.75945365e-01  2.25676969e-01  1.29540451e-02  4.93864208e-01
  -1.17067300e-01  4.35709089e-01  6.43295467e-01 -1.11364567e+00
   5.61499596e-02 -4.32177454e-01  3.42248201e-01 -8.61405283e-02]
 [ 4.84243361e-03 -2.11988524e-01  2.81997561e-01  5.79919934e-01
   4.23475623e-01  2.82025337e-01  3.30915660e-01  2.94476688e-01
  -1.04113556e-01 -3.28897685e-02 -1.72014125e-02 -5.95848143e-01
   1.97387934e-01  3.33810300e-01  1.09576702e-01  1.23877004e-01
   2.21908465e-01  6.07320946e-03  4.50497299e-01  1.09260388e-01
  -9.19958472e-01  1.63254961e-01 -3.27666551e-01 -2.88005710e-01
   2.68918127e-01  2.31309347e-02  1.07322849e-01 -8.44620690e-02
  -9.98858809e-02 -1.62193161e-02  5.28559029e-01  1.21083841e-01
   2.95411617e-01  5.62964864e-02  1.57855731e-02  4.43311036e-01
  -7.21664727e-02 -4.60479409e-01  1.71488780e-03  2.13944912e-02
   3.67756514e-03  1.06692836e-01 -2.76148230e-01  3.25845391e-01
   9.69330221e-02  2.32698210e-02 -9.08722222e-01 -3.71354669e-02
  -2.25455508e-01 -5.71256839e-02  2.24510476e-01 -2.88751990e-01
  -1.58857077e-01  8.89394432e-02  1.53978571e-01 -1.60742700e-01
  -7.15550706e-02  2.32988223e-02 -8.73223841e-01  8.30427349e-01
   7.55322427e-02  1.03924938e-01 -1.14372410e-01 -5.88700235e-01
  -3.61507744e-01 -3.96589041e-01  1.57339260e-01  1.80039778e-01
  -3.06925297e-01  2.40528718e-01  1.51121303e-01 -3.04162532e-01
   3.83249491e-01 -1.36769325e-01  7.68446177e-02  2.57872075e-01
   4.01249677e-01 -5.99218607e-02  6.57861400e-03 -5.85391223e-01
  -1.28969476e-01 -3.73908639e-01  6.56343549e-02  2.39362076e-01
  -1.53950512e-01  7.05921352e-01  3.40324223e-01  2.30438858e-01
   5.05063713e-01 -2.92090625e-01  3.48822325e-01  4.24613982e-01
   6.11879751e-02  1.21416949e-01 -1.51542753e-01  5.50927341e-01
   3.35241370e-02 -4.76540923e-02  3.57762836e-02 -6.03679121e-02
  -1.67555466e-01  3.50866020e-01 -7.35567331e-01 -8.72382402e-01
   3.76088798e-01 -1.65644169e-01  3.06153566e-01 -9.87863764e-02
  -3.72557253e-01 -2.57510334e-01  6.53432384e-02 -1.24666944e-01
   4.69965547e-01 -4.43668395e-01  4.03109565e-02  1.18943103e-01
   1.89713821e-01 -3.67475976e-03 -9.89274122e-03  2.13948354e-01
  -2.67391324e-01  1.02801025e-01  2.80723274e-01 -1.09615874e+00
  -4.95197996e-02 -3.73407930e-01  2.24934176e-01 -1.51143312e-01]
 [ 4.05273825e-01 -1.48504451e-01  1.59104392e-01  3.71719822e-02
   1.20891802e-01  2.26332083e-01  1.29068971e-01  7.69656718e-01
  -6.47320524e-02  9.70991179e-02 -2.15200856e-01 -7.84404457e-01
   3.27198625e-01  1.26506835e-01 -3.80656302e-01 -1.46044686e-01
   3.04495454e-01  4.89502102e-01  1.00519039e-01 -2.01699182e-01
  -7.31115490e-02 -8.04174542e-02  1.10266216e-01 -5.88708460e-01
  -7.32938796e-02  3.73009264e-01  6.58919036e-01 -9.06713307e-03
  -6.75517395e-02  5.39490022e-02  3.09275150e-01  1.27435744e-01
   2.11532593e-01  8.66715759e-02 -2.24120431e-02 -4.22499841e-03
  -2.66615808e-01  1.89578369e-01 -1.59524709e-01 -8.55163187e-02
   1.84926987e-02 -1.43829152e-01  1.26477391e-01  4.82917935e-01
   5.43419421e-01  1.45216003e-01 -6.14652574e-01 -1.27528593e-01
   5.31183481e-01  2.74119735e-01  4.31621850e-01 -2.93035388e-01
   7.22460300e-02 -2.13576540e-01 -2.83923775e-01 -2.45431382e-02
  -1.75772488e-01 -2.09536161e-02 -8.36265326e-01  2.53829002e-01
   2.98519246e-02  3.24980110e-01  5.58841228e-01 -1.77723348e-01
  -3.60515676e-02 -2.02485919e-01 -7.42085651e-02  3.70200038e-01
  -4.36617099e-02  3.43671441e-01  2.82744486e-02 -1.12941228e-01
  -1.36778831e-01 -3.25889111e-01  5.24605453e-01  2.73451090e-01
   2.38481369e-02 -3.96936238e-02  4.81057819e-03 -4.10419673e-01
  -3.18946868e-01 -3.48659302e-03 -2.44122341e-01  1.05378993e-01
   3.00726354e-01  2.42601991e-01  6.76752031e-01  2.64629181e-02
   7.50154853e-02 -5.93432367e-01  1.63760215e-01 -9.65890102e-03
   2.67341435e-01  7.73661315e-01  2.30964229e-01  1.71159938e-01
   3.42204571e-01  2.43560851e-01 -7.06636952e-03 -8.60520452e-02
  -2.40681648e-01 -1.67661421e-02  2.58750051e-01 -2.60419339e-01
   1.15744792e-01 -1.30345393e-02  1.49758264e-01 -4.48213011e-01
  -8.35472718e-02 -4.71107736e-02  2.52569616e-02  2.15150729e-01
   5.73264837e-01 -2.63720483e-01 -5.34363128e-02 -2.57943124e-01
  -1.08829737e-01 -1.19161427e-01  2.57643044e-01  2.43639007e-01
  -3.70193273e-01  2.77561188e-01  4.11631197e-01 -7.55336225e-01
   4.14508551e-01 -1.61805376e-02  3.79571408e-01 -3.93777609e-01]
 [ 1.81006074e-01 -8.53428096e-02 -2.43690744e-01 -1.96001500e-01
  -3.62253003e-02 -3.81059587e-01  4.01169389e-01  3.40027869e-01
   3.98360401e-01  3.09254289e-01 -4.11938280e-01 -1.82080522e-01
  -3.36973518e-01  4.37959135e-01 -1.93835601e-01 -7.52924532e-02
   4.85250324e-01 -6.49173334e-02 -1.89054817e-01 -4.01263684e-01
   3.60884547e-01 -3.30454469e-01  1.47436872e-01 -3.12651932e-01
   9.91995931e-02  5.33159971e-01  6.48325205e-01 -1.08598797e-02
   1.24587610e-01  1.60187274e-01  6.15894869e-02  1.00132205e-01
   1.27581418e-01  3.16551805e-01  1.81348249e-02 -3.59015197e-01
  -7.81181231e-02  5.18202722e-01  2.13717014e-01 -4.89505753e-02
   1.57683656e-01 -1.62056863e-01  3.43734026e-03  5.06465621e-02
   1.02467549e+00  1.29669547e-01 -4.41290170e-01 -1.17709562e-01
   3.49471867e-01  4.45381463e-01  1.82557255e-01 -1.43036455e-01
   5.15185058e-01 -1.99515074e-01 -7.26457477e-01 -5.86062931e-02
  -3.32175344e-01  1.80930793e-02 -6.33280456e-01 -5.43920621e-02
   4.44318242e-02  2.68610477e-01  6.87527657e-01  1.81761687e-03
   2.67911553e-01  1.76941514e-01 -2.19853267e-01  1.61194846e-01
  -1.57420784e-01  1.09469265e-01 -6.11424685e-01  1.61112454e-02
  -4.78542477e-01 -6.59057915e-01  1.58599153e-01  8.47346336e-02
   6.50013983e-02  6.15011677e-02  1.84436664e-02 -5.83164729e-02
   3.59490253e-02  2.60537624e-01 -1.18557788e-01 -4.00772206e-02
   2.65682071e-01 -9.63889182e-01  5.85357189e-01  2.76240725e-02
   3.59656096e-01 -4.23789412e-01  5.78929670e-02 -2.31441617e-01
   5.03338799e-02  5.58752418e-01  3.55081148e-02 -1.23804525e-01
   4.72250611e-01  3.88774753e-01  2.41359826e-02  4.92054373e-02
  -3.82701010e-02  2.49103419e-02  4.43569481e-01  1.29287034e-01
  -6.63431138e-02  2.31277645e-01 -2.83928484e-01 -3.57747406e-01
   5.46214692e-02 -3.25324126e-02 -2.00632334e-01  6.15203261e-01
   5.13778627e-01 -2.75032640e-01 -3.82287689e-02 -3.48753065e-01
  -1.90318584e-01 -4.41492423e-02  2.70136267e-01  9.48958322e-02
  -1.55434161e-01  9.10205171e-02  4.51981038e-01 -4.81611460e-01
   4.64915395e-01  4.98249024e-01  7.62321472e-01  3.11778337e-01]
 [ 1.04092032e-01  3.15771103e-01 -4.22792882e-01  1.07505796e-02
  -8.61067474e-02 -3.34962308e-01 -2.94754267e-01 -1.89192146e-01
   3.78893256e-01 -1.02390349e-01 -1.82298988e-01  2.26258263e-01
  -5.34329057e-01  1.76749215e-01  5.31492710e-01 -3.89548898e-01
   1.10823624e-01 -8.90969858e-02 -1.90793812e-01 -1.41250774e-01
   2.46992081e-01 -4.30763394e-01  3.20191115e-01 -5.64975441e-01
   1.78574756e-01  1.89464018e-01  1.33247554e-01  8.85378569e-03
  -4.56198484e-01 -2.82149583e-01 -4.36659064e-03  2.02652737e-01
   2.29922265e-01  1.52545527e-01  1.57074966e-02 -2.25767538e-01
   5.48581518e-02  3.55511129e-01 -3.91736656e-01  5.86067215e-02
   3.27259988e-01  2.65177876e-01 -4.83686984e-01 -5.89010566e-02
   7.10139513e-01  2.18545228e-01 -4.11230385e-01 -1.54337436e-01
   1.08559445e-01  3.77896041e-01 -1.11549065e-01  2.07080498e-01
   1.66003823e-01 -3.25703561e-01 -4.58859533e-01 -1.64381564e-01
  -6.98015615e-02  1.24482987e-02 -2.51240194e-01 -1.71718314e-01
   7.41432831e-02  7.55940750e-02  6.03799105e-01  1.13969883e-02
   5.23293436e-01  1.07077353e-01 -2.57028639e-01  1.05006278e-01
  -3.22406739e-01  6.60404563e-02 -8.57200503e-01  1.68024283e-03
  -3.50250840e-01 -1.86677665e-01 -1.86835900e-02 -1.69088781e-01
  -3.35049704e-02 -1.83999687e-02  2.19532084e-02 -3.76206450e-02
  -3.22888166e-01  4.11932290e-01 -5.32121770e-02 -5.14620781e-01
  -5.66626266e-02 -1.07930672e+00  2.60968536e-01 -2.92484909e-01
  -4.79328007e-01 -1.38114244e-01 -1.70535758e-01 -4.05097783e-01
  -2.81661302e-01 -1.98533118e-01 -1.62529796e-01 -5.87992482e-02
   2.40424573e-01  4.06147659e-01 -5.93773797e-02  8.06043297e-03
   1.99254276e-03 -4.01901662e-01  5.95817387e-01  5.32235801e-02
  -4.00799304e-01 -1.25374153e-01 -3.76213253e-01  3.68414968e-02
   3.35104197e-01  4.64265406e-01 -2.24229857e-01  5.00180364e-01
   1.84583411e-01 -5.32612503e-01 -3.18991207e-02 -3.07406574e-01
  -3.75893563e-01  2.09417388e-01 -5.47841549e-01 -1.92548465e-02
   1.79348454e-01 -5.74884638e-02  9.35639963e-02 -3.03906947e-01
   5.00970781e-01  1.06928088e-01  4.04151946e-01  2.48291656e-01]
 [-1.23667605e-01  4.06696320e-01 -6.03024215e-02 -3.32240701e-01
   1.72638446e-01  1.34914070e-01 -8.18184257e-01 -3.49242598e-01
   4.85355288e-01  2.72456706e-01 -2.71430075e-01  2.08003223e-01
  -2.98864484e-01 -6.74218476e-01 -3.57862592e-01 -4.12410289e-01
   8.40625390e-02 -1.02987908e-01  9.66645926e-02 -2.25653797e-01
   4.18467790e-01 -7.60344982e-01  6.35090694e-02 -3.61097962e-01
  -3.17061692e-01 -3.23442340e-01  2.83288330e-01  3.81894708e-02
   7.62305707e-02 -3.05952076e-02  1.23590484e-01  2.38532722e-01
   1.90471888e-01  2.48295575e-01  1.09802422e-04  1.72130577e-02
  -2.32543528e-01 -1.55070052e-01 -1.55603886e-01 -7.40747526e-02
   6.38820648e-01  2.81461496e-02 -4.80408162e-01 -2.54669506e-02
   6.67610049e-01 -5.12207337e-02 -4.68055815e-01 -8.22076946e-02
   3.63583773e-01  3.55632186e-01  2.93597449e-02  1.10529578e+00
  -2.29847595e-01 -1.18223116e-01  6.11788519e-02 -3.41325313e-01
  -3.51360500e-01 -2.33215038e-02 -3.71450335e-01  3.37384701e-01
   5.87923229e-02  2.76446730e-01  3.53853285e-01  1.03834219e-01
   2.22008586e-01 -1.34078130e-01 -8.75084102e-03 -2.11909097e-02
  -2.48008311e-01 -5.87994635e-01 -8.84072304e-01 -8.28344449e-02
  -5.73908448e-01  4.45403643e-02 -5.60810119e-02  3.19986582e-01
  -1.26694500e-01  8.84458795e-03 -1.18822165e-01  1.47941619e-01
  -3.95716846e-01  1.39333084e-01 -4.28308874e-01 -1.84645951e-01
  -3.70855093e-01 -2.09347084e-01  7.73596019e-02 -1.11205125e+00
  -5.76130688e-01 -2.69160181e-01 -2.70610183e-01 -6.47120416e-01
  -1.09371752e-01 -2.90118366e-01 -4.05545980e-01  1.65476501e-01
   1.94801629e-01  4.11246896e-01 -4.30675317e-03  3.65078896e-02
   2.15287700e-01 -6.34565175e-01 -2.75568843e-01  1.51638508e-01
  -4.14158791e-01  2.89312929e-01 -1.12580605e-01 -1.18314974e-01
   1.86300471e-01  1.03937578e+00 -2.38340393e-01  3.57102543e-01
   2.86629975e-01 -3.68011445e-01  9.16683823e-02 -1.34751022e-01
  -9.67910439e-02  4.73380685e-01 -8.30549181e-01 -8.58739093e-02
   3.42226803e-01  4.05819416e-01  2.62246519e-01  2.31374770e-01
   3.54570687e-01 -4.15313184e-01  5.80893815e-01 -2.21319832e-02]
 [ 2.16175482e-01  4.40341383e-01 -3.47882092e-01 -7.23642170e-01
   2.06873640e-01  3.49402353e-02 -9.12502766e-01 -2.37101074e-02
   1.91500604e-01  4.29390758e-01 -8.36813822e-02 -6.36661947e-02
   2.07692593e-01 -8.30928087e-01 -7.28465021e-01 -2.38895178e-01
   5.97649813e-01  3.17974389e-01  2.78159440e-01 -2.33987406e-01
  -5.03882393e-02 -7.55128205e-01  2.57267088e-01 -2.05698028e-01
  -4.50894773e-01 -3.20469171e-01  6.06585503e-01 -1.44715086e-02
  -2.11001873e-01  5.60348146e-02  2.42187262e-01  3.34830791e-01
  -7.66290873e-02  1.07440859e-01 -3.80766429e-02  6.08570397e-01
  -6.55150652e-01 -3.87369752e-01 -5.02523442e-04 -1.73911694e-02
   1.95290074e-01  1.72160357e-01 -4.44544941e-01 -8.77313241e-02
   3.75411093e-01 -3.27854872e-01 -3.04644823e-01 -1.12813786e-01
   4.11355197e-01  9.96344835e-02  3.06388617e-01  1.04744923e+00
  -2.79076323e-02 -3.04593503e-01 -1.54135838e-01 -4.86877650e-01
  -2.69233197e-01  7.90385529e-02  1.74582869e-01  4.04106945e-01
   2.39710603e-02  3.26534867e-01  3.88042301e-01 -1.36359602e-01
  -2.96075232e-02 -2.87747562e-01  3.87110680e-01  1.42157939e-03
  -3.36033106e-01 -8.00921381e-01 -7.25292683e-01  8.71153455e-03
  -6.63111687e-01  3.90936434e-03  1.57015398e-01  4.66901124e-01
   1.31999608e-02  3.21953595e-02 -1.86498389e-01  2.68157005e-01
  -3.31883281e-01  2.33586058e-01 -2.70599365e-01 -5.72171748e-01
   2.64761209e-01 -3.27143192e-01  1.79015011e-01 -9.24791336e-01
  -3.12277883e-01 -8.36391509e-01 -1.95546344e-01 -6.95504010e-01
  -1.82287291e-01 -2.53100991e-01 -6.97884083e-01  1.56907722e-01
   2.80398637e-01  1.36968002e-01 -3.99792269e-02  1.60762127e-02
  -5.75817041e-02 -7.76084840e-01 -4.19869013e-02 -2.07010061e-01
  -5.47113895e-01  5.63360214e-01  2.94370085e-01 -1.65722519e-01
  -7.32861042e-01  3.93083304e-01 -2.99188763e-01  4.31534588e-01
   1.42639190e-01 -3.79446298e-01  1.58724841e-02 -1.63782254e-01
   2.48287097e-01  5.25660813e-01 -4.64507967e-01  4.71075512e-02
   1.87871367e-01  5.06090075e-02  2.33150735e-01  7.60828629e-02
   3.79422605e-01 -3.20238590e-01  3.49630266e-01 -2.16075420e-01]
 [-1.73325151e-01  2.27077052e-01 -2.27207709e-02  1.80015385e-01
   4.96531188e-01  2.96574980e-02 -3.87002379e-01  3.28549184e-02
   2.79513776e-01  6.00625634e-01  5.10324240e-01 -3.27722132e-01
   2.75957167e-01 -4.34787154e-01 -5.57085812e-01 -7.81245530e-02
   9.65568066e-01  2.52560556e-01  2.61146098e-01 -6.59879684e-01
  -6.00707293e-01 -4.32923168e-01 -1.56017259e-01 -1.88755989e-01
  -4.43411618e-01 -4.38453890e-02  6.82907641e-01 -6.85387850e-02
  -1.31694958e-01 -3.48977596e-02  4.66838390e-01  3.17253530e-01
  -5.64163268e-01 -3.35807532e-01  8.47766362e-03  9.00924087e-01
  -6.75500393e-01 -8.70927095e-01 -2.29731768e-01 -2.52416339e-02
  -6.43601269e-02 -2.83113152e-01 -8.01815465e-02  1.38760254e-01
   1.82587370e-01 -2.50705570e-01 -5.04435658e-01 -9.19262618e-02
   2.61133909e-01 -1.41086476e-03 -5.63872814e-01  1.02154449e-01
   4.84251559e-01  5.79638556e-02 -6.20802760e-01 -8.97245109e-01
  -2.53738731e-01 -2.85992958e-02  6.89577609e-02  4.97182101e-01
   9.76773351e-02  4.87244636e-01  4.88628685e-01 -2.16615334e-01
  -7.66341984e-01 -2.87763655e-01  3.03611785e-01  1.11618549e-01
  -1.87153667e-01 -4.72290665e-01 -4.41598713e-01 -8.94285273e-04
  -1.46449327e-01 -1.02796525e-01 -1.33254200e-01  3.80814910e-01
   1.88166857e-01 -6.75920025e-02  1.75204262e-01  1.95283219e-01
  -3.41318399e-01  5.64520359e-01 -1.47410080e-01 -3.58395100e-01
   3.14386576e-01  7.64743090e-02  3.78713459e-01  5.12380712e-02
  -2.43297309e-01 -4.55111116e-01  1.25902683e-01 -1.52012231e-02
   6.12815395e-02 -5.34320474e-01  2.57674873e-01  2.30342284e-01
   8.52933824e-01 -1.89113393e-01  3.87144759e-02  2.95898616e-02
  -3.36329341e-01 -2.85968203e-02  6.69509023e-02 -1.89967528e-01
  -4.41686869e-01  9.71839949e-02  3.38368714e-01 -3.42992600e-03
  -3.19459766e-01  3.42826396e-01 -8.25989395e-02  7.34281600e-01
  -3.01191807e-01 -2.19382897e-01  2.76223477e-02 -7.14255691e-01
   2.61445701e-01 -3.56077909e-01 -4.45334494e-01  9.86664072e-02
  -4.21119809e-01 -6.87761828e-02 -1.08239383e-01 -2.95444261e-02
   3.89912695e-01  1.31734639e-01  3.24393749e-01 -3.13646674e-01]
 [-7.90712833e-01  1.71974003e-01  9.02454704e-02  4.99986500e-01
   4.69714493e-01  2.84952968e-01  3.73279393e-01 -6.67496072e-03
   7.95327067e-01  8.82637143e-01  6.80305719e-01  7.06413314e-02
   4.97322232e-01 -3.62994164e-01 -8.29672515e-02 -4.80611026e-02
   6.97725058e-01 -2.69031584e-01  4.19552863e-01 -3.38288605e-01
   8.59147385e-02 -5.57306051e-01 -4.33614284e-01 -1.45932227e-01
  -1.77223951e-01 -8.42681713e-03  1.42089829e-01 -1.49508985e-02
   1.22784749e-01 -2.48537853e-01  5.94832003e-01  8.30889568e-02
  -4.33009118e-01 -2.93776780e-01 -2.17084587e-02  8.21541548e-01
  -3.16748977e-01 -7.46543586e-01 -4.13693607e-01 -1.64128765e-02
   2.54921854e-01 -3.13931763e-01 -3.68046373e-01 -5.30147776e-02
   6.29010722e-02 -2.17895478e-01 -4.04184043e-01 -3.87555361e-02
   3.52007300e-01  8.56806636e-02 -2.93475300e-01 -4.96067017e-01
   4.23435211e-01 -2.31006876e-01 -4.35981899e-01 -7.47426450e-01
  -1.14006303e-01  2.36536562e-03 -6.62430525e-02  4.23429251e-01
  -4.90307175e-02  1.33818224e-01  8.65325212e-01 -7.96811134e-02
  -8.64773750e-01  3.19118723e-02 -1.39910057e-01 -2.39403665e-01
  -1.39104217e-01 -2.63972253e-01 -2.63010085e-01 -7.09766001e-02
   2.04498112e-01 -2.47309551e-01 -1.81116626e-01  2.24240735e-01
   8.11098143e-02  4.38655242e-02  1.62987366e-01  5.01446947e-02
  -2.06845477e-01 -1.99123695e-02 -2.81518757e-01  7.63858035e-02
   4.41247612e-01  3.07255983e-01  1.11729033e-01  7.05417767e-02
  -3.37351292e-01  2.63709366e-01  3.09451401e-01 -4.23269004e-01
  -9.36010480e-02 -2.35958755e-01  1.32260412e-01  2.08231613e-01
   5.26160598e-01 -3.69053125e-01 -3.37095410e-02  4.34327945e-02
  -2.37537429e-01  9.33486521e-02 -4.98850673e-01 -1.24246538e-01
   2.57358134e-01 -3.66498828e-01  7.93038130e-01  2.46944129e-01
   2.35137209e-01  2.32103705e-01  7.96082690e-02  7.33237207e-01
  -4.86715227e-01 -2.18419015e-01  2.35953871e-02 -2.45700702e-01
   7.35153258e-02 -4.05340582e-01 -5.39578915e-01  1.74643770e-02
  -2.50079721e-01  3.14432472e-01 -1.10742869e-02  1.08458333e-01
   2.47906834e-01  2.00377986e-01  3.01272899e-01  6.01471178e-02]
 [-3.57033283e-01 -1.73200339e-01 -2.31334865e-02  5.17400384e-01
   1.56594798e-01  7.68517971e-01  6.70658469e-01 -1.73124269e-01
   7.10917473e-01  7.10235894e-01  4.51357663e-01  5.14373362e-01
   1.26114398e-01 -1.18425615e-01 -2.38018215e-01 -2.12079823e-01
   3.78042251e-01 -5.42938232e-01  5.30871987e-01  2.48688266e-01
   1.03141300e-01 -3.30406040e-01 -4.49117199e-02 -1.27733005e-02
   2.67970473e-01  1.30622908e-01 -1.18183754e-01  5.94884828e-02
  -3.13518137e-01  1.00802377e-01  5.85222483e-01  2.63865173e-01
   6.39662892e-02 -2.70215720e-01 -7.73221068e-03  1.01215792e+00
   7.50792250e-02 -6.44816816e-01 -1.37709618e-01  3.72859240e-02
   2.89052665e-01  3.61936033e-01 -1.79823954e-02  1.63091213e-01
  -2.50435323e-01 -2.22332478e-01  1.28522381e-01 -8.76526460e-02
   4.72575366e-01  1.02812693e-01 -2.15793997e-01 -3.12684506e-01
   3.30470800e-01 -1.46589935e-01  1.83686912e-01 -8.54084268e-02
  -1.10635512e-01  3.52017358e-02  2.10614964e-01 -2.44084984e-01
   1.48847317e-02 -4.04661536e-01  2.73917854e-01 -1.68143868e-01
  -6.40706003e-01  2.92509913e-01 -2.09763259e-01 -5.05406618e-01
  -4.41171788e-02 -1.16384618e-01 -4.06113476e-01 -4.21628878e-02
   4.40925732e-03  5.75746112e-02 -3.14784318e-01  3.88185158e-02
   1.27260491e-01 -1.24608167e-02  1.93191860e-02  1.11508220e-01
   6.26644343e-02 -7.62644827e-01 -2.19509557e-01  4.99228299e-01
   4.77605820e-01  4.30660754e-01 -2.84221351e-01  1.37358159e-01
  -3.79473567e-01  1.71575129e-01  3.22997451e-01 -2.04417959e-01
  -8.28325972e-02 -5.64700603e-01  3.44383508e-01  1.41014516e-01
   1.57660961e-01 -2.14892685e-01 -4.24103253e-02 -2.18295194e-02
   1.52467996e-01  6.79154396e-01 -8.67008924e-01  2.22540271e-04
   1.60050601e-01 -6.05632842e-01  5.84381580e-01 -3.28692108e-01
  -8.16277713e-02  2.83607304e-01 -1.97255924e-01 -1.43305920e-02
  -3.83591533e-01 -8.36335048e-02  2.68299989e-02  1.88273534e-01
   2.35772863e-01 -1.36791542e-01 -3.72499645e-01 -6.19744956e-02
   1.49462447e-01  1.66954905e-01 -4.94696386e-03 -1.59668736e-02
  -3.51705611e-01  1.36970177e-01  1.03649452e-01 -4.93646488e-02]
 [-1.94959655e-01 -2.79010803e-01 -1.15209498e-01 -5.33219986e-02
  -6.39407277e-01  1.79285884e-01  1.54976040e-01 -2.17764638e-02
  -4.06584978e-01 -1.06121111e+00  5.30493379e-01  1.50296150e-03
   1.30981058e-01 -1.93122059e-01 -7.76850944e-03 -2.79652774e-01
   3.78498226e-01  2.06887171e-01  8.06416124e-02  3.09418023e-01
  -1.32470235e-01  1.01463425e+00  1.11547522e-01 -1.20573603e-02
   2.34149590e-01  2.00911477e-01 -4.42715228e-01  7.19517469e-04
  -3.68594140e-01 -5.97760454e-02  9.31898039e-03  5.43500602e-01
   1.25431940e-01 -1.31397843e-01 -8.08122978e-02 -8.62769186e-02
   5.78804314e-01  4.33271825e-01 -2.63899446e-01  5.72702959e-02
   2.09325310e-02  3.22114557e-01  4.08918172e-01  1.87097758e-01
   1.74854919e-01 -5.54899126e-03  6.37006283e-01 -7.22698420e-02
  -2.26040184e-01  2.11419925e-01  1.45123331e-02  1.98120236e-01
  -1.16691694e-01  3.91534269e-02  6.96785390e-01  4.07659054e-01
  -9.83797535e-02 -5.07313982e-02  3.23209643e-01 -9.80680212e-02
   1.58216998e-01 -2.51007855e-01 -4.40752655e-02 -1.01310210e-02
   2.25104451e-01  1.84298813e-01  1.37372687e-01  1.11087337e-01
  -8.47402290e-02 -6.42762706e-02 -1.77174076e-01  3.43652844e-01
   1.37515962e-01  3.45208496e-01 -5.82492873e-02 -1.78968102e-01
   7.81153794e-03 -4.55043986e-02  4.75606956e-02  1.19606458e-01
   1.77084103e-01 -2.03764498e-01  9.23279300e-02  3.86246443e-01
   3.20203118e-02  4.57559764e-01  4.69862437e-03 -3.96344334e-01
  -5.91103256e-01 -2.17151940e-01  3.44745636e-01 -3.56096417e-01
  -2.20769122e-01 -1.04734272e-01 -1.52213648e-01 -8.33846629e-02
  -2.84911782e-01 -1.07874488e-02  3.56937051e-02  3.05379126e-02
   2.95435190e-01  4.97777522e-01 -4.00481462e-01  1.90265309e-02
   3.35875601e-01 -4.73237157e-01 -1.39631927e-01 -2.03277878e-02
  -5.03066957e-01  3.00351650e-01 -1.28357962e-01 -1.27308607e-01
  -2.85557806e-01 -2.11872667e-01 -6.65046135e-03  4.01237488e-01
  -1.86512724e-01  7.92044550e-02  1.70481384e-01 -5.82192354e-02
   3.45907718e-01 -3.49477232e-01 -3.67837965e-01  2.26292357e-01
  -2.05202475e-01  5.72944403e-01 -1.04669392e-01 -4.10278052e-01]
 [-2.24097654e-01  5.51526994e-02  2.29701370e-01 -2.31065288e-01
  -2.26123303e-01  8.55760425e-02 -6.41425326e-02  3.95286232e-02
  -5.66833198e-01 -6.05292320e-01  5.56688666e-01 -1.73815221e-01
  -1.24524511e-01 -3.00763071e-01 -4.22310969e-03 -1.06328949e-01
   2.32297122e-01  1.78177327e-01  2.03035489e-01  1.07369088e-01
  -1.36074990e-01  8.00484836e-01 -2.47546509e-01 -2.45740078e-02
   8.01501125e-02  2.37617448e-01 -1.77144945e-01 -4.06923890e-03
  -7.16391653e-02  4.30494279e-01 -8.79422203e-02  3.42727572e-01
   5.75801134e-02  1.58160552e-01 -4.38648723e-02  1.10853240e-01
   6.43276632e-01  3.27836014e-02 -1.01364642e-01  5.85939512e-02
  -3.84916484e-01 -9.98237357e-02  8.92190635e-02  1.50715545e-01
   1.16713956e-01  3.04053519e-02  3.82323623e-01 -6.38278648e-02
  -2.57001936e-01 -8.71802792e-02 -9.68877897e-02 -2.51547754e-01
  -1.80863664e-01  2.62862563e-01  3.28586012e-01 -3.44475880e-02
  -6.15216456e-02 -3.08293886e-02  6.89683855e-03 -1.66353390e-01
   2.43261363e-02  5.82143590e-02  8.95416643e-03 -1.25760376e-01
  -2.25626584e-02 -6.32919818e-02 -3.75121571e-02  4.70196187e-01
  -7.95935392e-02  2.41040036e-01 -1.15771674e-01  4.32333857e-01
   2.15570435e-01  2.04781279e-01  3.13568860e-02  4.65586521e-02
   1.97070502e-02 -1.10758923e-01  2.32160836e-01  3.76489311e-02
   1.66729480e-01 -9.15368646e-02  2.25635350e-01 -9.25670639e-02
   9.76684391e-02  2.27360368e-01  1.27769681e-02  6.06639609e-02
  -3.61321062e-01 -3.70292306e-01  6.54472709e-01  2.79361784e-01
  -1.88113879e-02 -1.81482345e-01 -4.60314453e-01 -9.90991667e-02
   1.07771359e-01 -8.79443958e-02  1.16280308e-02 -6.29017651e-02
  -1.37418315e-01  5.69561362e-01 -1.76438570e-01 -1.80320859e-01
  -1.19666690e-02  6.41628578e-02  1.49495974e-02  1.31245079e-02
  -5.88972807e-01  1.53489217e-01 -8.24062675e-02 -9.86712575e-02
  -1.38533026e-01 -3.65466386e-01 -1.26818672e-01  1.19433828e-01
  -3.25062811e-01 -1.66881844e-01 -1.16969854e-01 -3.55110019e-01
   8.81281570e-02 -1.72508985e-01  6.79822043e-02  1.14450410e-01
  -2.08093718e-01  6.01789773e-01  5.57023510e-02 -3.56620312e-01]
 [ 2.04803377e-01 -2.17369914e-01 -6.40063211e-02  1.29489273e-01
  -2.01502778e-02  1.84114575e-01 -4.52578187e-01  7.89822266e-02
  -4.94219869e-01 -1.05821982e-01  9.50211346e-01 -3.31753343e-01
   9.62909237e-02  2.18425408e-01  1.51627921e-02  3.29745948e-01
   1.51710570e-01 -1.21738501e-01  6.75326660e-02  9.30488259e-02
  -3.54950726e-01  1.97819084e-01 -2.86620378e-01  7.30327740e-02
  -4.27390598e-02  4.97870058e-01  5.27427793e-02  2.95987949e-02
  -1.17447443e-01  6.99072778e-01  1.17647447e-01  4.21485871e-01
   2.08243839e-02  2.78201729e-01  1.66980252e-02  2.61819005e-01
   5.18383741e-01 -1.39658093e-01  1.11161143e-01 -2.37478204e-02
  -4.17948924e-02  1.17318030e-03 -2.85106242e-01  3.08874995e-01
  -1.45543754e-01  4.69163895e-01  2.51936585e-01 -4.71380092e-02
  -1.56086355e-01 -7.53124729e-02  7.94469789e-02 -2.51372308e-02
  -3.75988573e-01  2.94447551e-03 -7.31416885e-03 -8.45992938e-02
   3.80286090e-02  5.80552965e-03 -1.33051947e-01  3.41680437e-01
   1.30850136e-01  2.11254716e-01  2.87744224e-01  1.02280071e-02
  -4.52971943e-02 -9.53932926e-02 -9.66434032e-02  2.55977213e-01
  -6.95770681e-02  1.93914786e-01  2.72655841e-02 -5.47609143e-02
   4.65853125e-01 -2.56004184e-01 -3.49500716e-01 -9.24734548e-02
   5.97478077e-02 -2.75864992e-02  2.24608138e-01  2.24675208e-01
  -1.64405972e-01  4.36441571e-01  9.86021757e-01 -3.40997428e-01
   1.96345285e-01  6.59648776e-02  2.17146963e-01  2.78951615e-01
  -2.04249188e-01 -1.86946299e-02  9.61587965e-01  5.47150135e-01
  -4.19026166e-02 -4.04733419e-01  9.14210975e-02  9.48957056e-02
   3.65679920e-01 -1.00595668e-01  3.20068747e-02  4.78047058e-02
   3.89691666e-02  5.85373878e-01  1.30345270e-01 -4.98606488e-02
  -4.62315053e-01  1.36177287e-01  3.67710978e-01  9.35030058e-02
  -3.22474837e-01 -3.25973988e-01  6.92949742e-02  2.41910011e-01
   6.21669404e-02  2.58448005e-01  6.00613616e-02  1.36546269e-01
   4.87965159e-02 -3.74314398e-01 -1.28261303e-03 -2.01486051e-01
  -4.93173212e-01  1.15662128e-01 -1.20678060e-01 -2.21681401e-01
   1.22003481e-01  2.62806028e-01  8.80075619e-02 -2.04323381e-02]
 [ 3.02480668e-01 -1.70762584e-01  7.21634403e-02  4.15302441e-02
  -9.74037647e-02  3.85646746e-02 -9.36471373e-02  1.10607170e-01
   4.81708795e-02 -3.71192247e-02 -1.25928387e-01  8.50706995e-02
   9.31210816e-02 -4.57792096e-02 -1.86087549e-01 -2.78430760e-01
   2.41668239e-01  2.99035152e-03 -2.11168155e-02  2.16819033e-01
   5.22095971e-02  1.19113944e-01  2.64753550e-01 -1.05602346e-01
  -2.05569908e-01  1.76729366e-01 -9.71537903e-02 -3.32213417e-02
   1.45178922e-02 -9.55523178e-03 -8.60204399e-02  3.40034187e-01
   2.88436323e-01 -6.71997741e-02 -4.48035523e-02 -5.03120199e-02
  -3.24524820e-01  8.54330435e-02 -1.63075686e-01  7.12916330e-02
   1.81286663e-01  2.51372010e-02 -2.37597987e-01  6.95422590e-02
   3.33644897e-01 -1.50014073e-01  2.45225295e-01  2.58141980e-02
   1.00320410e-02  9.12006348e-02 -3.01015615e-01  1.76977843e-01
   2.02521712e-01 -7.73331523e-02  1.83397934e-01 -9.83247906e-03
  -5.97029999e-02  3.59203145e-02  2.07393602e-01 -2.77498186e-01
   3.56402947e-03 -1.93617135e-01 -3.72931324e-02  7.21658543e-02
  -9.24567357e-02 -3.56503904e-01 -1.05014555e-01 -8.56518224e-02
  -4.09546010e-02  1.28214166e-01 -3.43919056e-03  1.89815298e-01
  -2.58045405e-01  1.36821583e-01  5.81908114e-02  3.91849399e-01
  -1.71444252e-01  8.10477808e-02  9.53563377e-02  8.02878663e-02
  -6.84593990e-02 -1.65435955e-01 -1.88480228e-01  3.70238245e-01
   1.28499255e-01 -3.57723236e-02 -8.18152949e-02  1.58504844e-01
  -3.03371042e-01 -2.20751956e-01 -2.48339817e-01 -6.65070489e-02
   2.95743495e-02 -2.03593791e-01  1.34196356e-01 -1.56196639e-01
   2.89068848e-01  3.87473553e-02 -3.13646458e-02  2.07945332e-02
   1.80315852e-01  5.11472821e-02 -5.84055707e-02  9.36277658e-02
  -1.31416634e-01  1.33451030e-01 -2.98343450e-01  3.98367457e-02
  -2.01094374e-01 -2.17523202e-01 -6.11837953e-02 -2.01633349e-01
  -7.81256706e-02  1.02834418e-01 -2.39970791e-03 -3.55958879e-01
  -6.36727884e-02  3.85410994e-01  1.01614662e-01 -5.75569160e-02
   5.97916879e-02 -8.54324028e-02 -8.04459229e-02  2.60182500e-01
   8.53969008e-02  3.58777121e-02 -1.88271314e-01  1.01890806e-02]
 [ 3.51090729e-01 -1.71571016e-01  5.89028783e-02 -1.41336009e-01
   3.04363549e-01  3.25498790e-01 -7.64048193e-03  1.12115793e-01
   1.13395855e-01 -2.90685818e-02 -4.38891083e-01  4.38481420e-02
   4.44298908e-02  6.20819367e-02  1.90283865e-01  1.47919282e-01
   5.48899770e-01 -5.59904516e-01  4.67768341e-01  3.71218413e-01
   5.89587271e-01  3.29839468e-01  2.58018136e-01  4.74876091e-02
  -1.17870077e-01  2.66999006e-01 -1.69125944e-01  8.07923004e-02
   4.02072221e-02 -3.56627256e-01 -2.33481848e-03  1.01838797e-01
  -3.69991030e-04 -2.02384874e-01  7.94990882e-02  1.52707770e-01
  -3.31868947e-01  3.38220447e-01 -2.35339731e-01  3.03962082e-02
   2.75836468e-01 -3.24841700e-02 -1.77244633e-01  4.74172160e-02
   8.57731849e-02  4.00132835e-02  2.56017953e-01 -1.00859344e-01
   1.14883073e-02 -7.43459314e-02 -2.56388962e-01  4.41038489e-01
   3.57783549e-02 -1.83862120e-01  1.33551866e-01 -1.94160491e-01
   1.52302533e-01 -5.08775786e-02  3.85709815e-02 -1.65801555e-01
   4.38594595e-02 -5.75418711e-01  1.72232687e-01 -1.63292870e-01
  -1.10447533e-01 -6.53631464e-02 -7.04847500e-02 -4.32323664e-01
   3.23652476e-02  5.89714646e-01  1.89936385e-01 -3.58301401e-01
  -2.59271741e-01  4.73721087e-01  4.41600293e-01  4.93092835e-01
  -9.97032523e-02 -2.58914903e-02 -5.54795600e-02  9.26286653e-02
  -2.73917764e-01  1.20183505e-01  6.79920018e-02 -1.58183649e-01
   4.65517908e-01 -2.09712327e-01 -1.94191530e-01  5.91416538e-01
  -3.60668510e-01  2.49115601e-02 -4.16731555e-03  1.03308493e-02
   5.43742701e-02 -1.15829118e-01  1.05276808e-01 -1.52187690e-01
   2.21746892e-01 -8.44169185e-02  9.91515815e-04  2.66429782e-03
  -3.79623175e-02  4.73914407e-02 -7.49347657e-02 -1.01852700e-01
  -1.46096140e-01  3.62357870e-02 -3.05234820e-01 -3.44988424e-03
  -2.23768130e-02 -3.33657295e-01 -2.18016915e-02  1.74528211e-01
   4.02657688e-02  1.59733489e-01 -1.75519660e-02 -1.65423781e-01
  -2.02577002e-02  1.64564848e-01 -2.52653640e-02  4.73239422e-01
  -9.54462588e-02  5.73933899e-01 -1.22157382e-02  6.24025047e-01
  -1.82619244e-01 -5.79916835e-01 -7.22349063e-02  3.49235255e-03]
 [ 4.55869555e-01  4.63946193e-01 -8.10856372e-02 -7.76051879e-02
   3.14270824e-01 -1.20051757e-01 -6.78524282e-03 -2.13753935e-02
  -1.11739770e-01 -5.64834848e-02 -2.95567542e-01  3.41577269e-02
   6.96726739e-02  2.89553165e-01  3.44377980e-02  3.98681670e-01
  -4.45631355e-01  5.94919026e-01  3.98899615e-01  3.49615037e-01
   2.28638858e-01 -2.06785873e-01 -6.98543265e-02 -1.33115798e-01
  -2.69675255e-01  2.87258208e-01 -9.66636613e-02 -6.49262965e-02
  -3.20209265e-01 -2.63832211e-01  4.08066034e-01 -4.69030477e-02
   1.83670044e-01 -1.02572359e-01  1.01454109e-02  2.82867730e-01
   1.74535606e-02  1.53067991e-01 -2.83179522e-01  6.18130192e-02
   1.28975600e-01 -1.28475845e-01  3.86987180e-01 -1.18983321e-01
   2.71533012e-01  4.82753485e-01  1.14176460e-01  5.58108464e-02
  -1.55251220e-01  4.28072549e-03 -3.12065989e-01 -4.08291757e-01
   1.40751868e-01 -6.69255406e-02  2.52257548e-02  2.08976313e-01
  -1.34666666e-01  4.61829528e-02  3.15760106e-01 -4.51190732e-02
   6.76477998e-02  4.74306732e-01  1.66317180e-01 -1.80437386e-01
   2.95231193e-01 -7.87917748e-02  1.66650042e-01 -2.61067212e-01
  -9.08394754e-02  2.67315745e-01  1.99540704e-01  1.09590217e-01
  -5.38570918e-02  1.07698135e-01  2.33972713e-01  5.67516506e-01
  -1.31144583e-01 -5.48271351e-02  7.19993338e-02  4.05120254e-02
  -7.95566849e-03  1.99877381e-01  2.13247761e-01 -1.15330771e-01
   3.08648497e-01 -3.86038393e-01 -7.54929855e-02  6.02130055e-01
  -2.53380030e-01 -3.49015482e-02 -4.14301008e-02 -1.12106241e-01
   1.85609441e-02  5.61909556e-01  5.84693670e-01 -1.79177076e-01
   1.53233379e-01 -7.14672506e-02  2.45386232e-02 -6.06818646e-02
  -2.29778111e-01 -7.83415586e-02  4.21364367e-01 -1.45597290e-02
  -7.60445511e-03  5.53183369e-02  1.38646245e-01 -6.35243952e-02
  -3.04922946e-02 -2.04361409e-01  9.10731256e-02  1.86555922e-01
   4.88728322e-02 -1.49994716e-01 -2.20779330e-03  1.20016202e-01
   1.13790482e-01  2.53991604e-01 -2.84573197e-01  5.54200947e-01
   3.41535151e-01  1.19375840e-01 -7.70398304e-02  1.09853975e-01
   2.55932301e-01 -3.07995707e-01  1.77297458e-01 -1.20438799e-01]
 [ 1.28414094e-01 -1.69622883e-01  1.51049569e-01 -6.74229190e-02
   1.73889294e-01  3.53914857e-01  2.72700310e-01 -1.15644418e-01
  -9.92066879e-03 -5.61709926e-02 -3.59078169e-01  2.01913372e-01
  -8.23914781e-02 -4.04510200e-01 -1.39335841e-01 -7.75089338e-02
  -4.39956725e-01 -1.53406143e-01 -6.02605902e-02  2.53884315e-01
   5.81947088e-01  9.94419008e-02 -3.14691626e-02 -1.66480497e-01
   2.11495049e-02  2.76124515e-02 -3.47282410e-01 -4.44799662e-05
  -2.04885647e-01 -2.46935964e-01  3.28219123e-02 -8.98616239e-02
   3.79928946e-01 -2.75626481e-01  1.59733202e-02 -4.57533412e-02
  -2.26113394e-01  4.29372266e-02 -5.32817483e-01  3.31699774e-02
   1.49752542e-01  6.18566982e-02  6.33659586e-03 -6.78404495e-02
   7.41638616e-02 -3.20491016e-01  4.17501599e-01 -9.72584337e-02
  -4.20517117e-01 -1.69623196e-01  9.34427977e-02 -1.71122760e-01
   3.61028433e-01  7.06480294e-02  1.53754547e-01  1.81801766e-01
   1.41314209e-01 -3.20713520e-02  5.60498953e-01 -5.85975409e-01
  -4.60893437e-02 -8.00600424e-02  2.46028230e-01 -2.66091675e-01
  -3.17695946e-01  2.49585897e-01  3.97784710e-02 -2.21866891e-01
  -9.04840380e-02  2.94903189e-01 -5.23539120e-03 -1.44773677e-01
  -4.24603343e-01  4.96810377e-02  3.28379422e-01  1.10235453e-01
   1.64676865e-03  2.93153580e-02 -7.22508654e-02  2.59675205e-01
  -7.47270063e-02 -2.98990548e-01 -4.89996880e-01  2.36930177e-01
   2.80216932e-01 -2.26174995e-01 -2.86724716e-01  4.64698195e-01
  -5.21444559e-01 -1.07938208e-01 -1.81840867e-01  2.85168946e-01
   1.03922910e-03  1.41010404e-01 -2.64697105e-01 -3.47666353e-01
  -2.38485649e-01 -8.16493705e-02  2.42268760e-02 -6.64486215e-02
   1.53622150e-01  2.56682001e-02 -4.05523032e-01  1.16597144e-02
   2.57017136e-01  4.02738154e-01 -1.83531731e-01 -6.69413283e-02
   3.68166752e-02 -3.59258413e-01 -3.93070281e-01  2.90432453e-01
  -1.50072858e-01 -5.31067312e-01  4.44223173e-02  4.67691213e-01
  -4.16916370e-01 -1.09355353e-01  1.02619529e-01  1.73296835e-02
   4.94140327e-01  2.79946446e-01 -8.91710147e-02  3.31132829e-01
  -2.84821428e-02 -5.50612986e-01 -2.13868350e-01 -2.09898636e-01]
 [-2.57244915e-01 -1.16099402e-01 -4.23727892e-02  2.01953631e-02
  -1.10666431e-03  2.00692132e-01  3.34230959e-01 -2.34772056e-01
  -1.97902307e-01 -7.23016798e-01 -1.93632975e-01 -1.19137857e-02
   1.28002569e-01 -5.97477615e-01 -9.27229971e-02 -2.68515170e-01
  -1.09766185e-01  1.50532946e-01 -1.07373439e-01  1.74513415e-01
   2.14447141e-01  3.92525047e-01  1.10633843e-01 -2.44923458e-01
  -1.97637469e-01  2.08881110e-01  3.41100872e-01 -1.70792192e-02
  -3.34373355e-01  2.56561339e-01  1.61180675e-01  5.16416468e-02
   2.20390841e-01  9.66862738e-02  7.89233372e-02  1.19471096e-01
   7.54838735e-02  1.86456978e-01 -7.76239932e-01 -7.39145204e-02
  -1.68896943e-01 -1.01618491e-01  1.24084644e-01 -1.78629920e-01
   3.24140489e-01 -5.64728677e-01  3.27451706e-01  3.76339331e-02
  -5.10147274e-01 -1.79272681e-01 -1.05887100e-01 -5.50610721e-01
   3.11271220e-01 -9.37386081e-02  1.10601364e-02  6.57099634e-02
  -2.44077984e-02  2.68678367e-03  5.87649107e-01 -6.32308900e-01
  -3.92079018e-02  6.18370697e-02  4.75617886e-01 -3.43013644e-01
  -2.74808109e-01  4.78708185e-02 -6.22328781e-02 -3.51177335e-01
  -1.66704863e-01  3.56466740e-01 -2.53207296e-01  1.98258743e-01
   2.02488899e-03 -1.05834983e-01  1.64401442e-01  5.36520302e-01
  -6.69074953e-02  8.06253310e-03  7.11634830e-02  7.53991753e-02
  -8.39242525e-03 -5.35989217e-02 -4.97148544e-01  5.98744899e-02
   2.29877561e-01 -6.88819811e-02 -3.05551384e-02 -2.41242066e-01
  -7.25016534e-01 -1.95038334e-01  2.46708781e-01 -2.46747702e-01
   7.35251531e-02 -2.63392836e-01  5.14707752e-02 -3.71568412e-01
   3.15344781e-01  2.58299261e-02  4.27649729e-02  4.62449715e-02
  -1.93094742e-02  2.31413200e-01 -2.37390585e-02  8.79755914e-02
   1.75097287e-01 -7.25928783e-01 -2.69522876e-01 -6.84920028e-02
  -1.38495028e-01  3.47314170e-03 -3.14757854e-01  4.70347166e-01
  -1.60785630e-01 -6.57321692e-01 -3.11805997e-02 -7.16858124e-03
  -5.60119987e-01  2.37784714e-01  1.15436405e-01  5.74731350e-01
   1.72100693e-01  7.94809088e-02 -4.05047566e-01  2.56460086e-02
   3.06146830e-01  1.48329616e-01 -3.45433652e-01 -3.73480350e-01]
 [-3.54711175e-01 -5.36453664e-01 -2.59634018e-01  2.85240233e-01
  -5.41314960e-01  4.42052543e-01  7.36799121e-01 -4.81596649e-01
   2.63077796e-01 -1.66170195e-01  1.03241511e-01  2.80412972e-01
   5.21041751e-01 -4.40925986e-01 -4.07244340e-02 -2.58335233e-01
  -1.40264437e-01 -4.40299273e-01  4.17522550e-01 -1.10903583e-01
   2.77514011e-01  4.77341533e-01  9.78598297e-02  3.56746130e-02
   1.98090419e-01 -3.46226126e-01 -4.09649700e-01  5.33659533e-02
   3.06936372e-02 -2.53949642e-01  4.72953379e-01  2.30672173e-02
   5.22342265e-01 -2.46459216e-01 -2.26278622e-02  3.14868987e-01
   4.53179032e-01 -8.57311338e-02 -7.01090336e-01  2.45465487e-02
  -3.67054582e-01  8.78690332e-02  2.18073577e-02 -5.62873960e-01
  -2.03396723e-01 -5.51231690e-02  4.62665819e-02 -1.56808943e-02
   2.11826757e-01  9.38413516e-02 -2.05504924e-01 -4.33065027e-01
   5.14206111e-01 -2.36478165e-01  3.24144959e-01  5.71494363e-02
  -8.63092840e-02 -2.53312588e-02  2.80606836e-01 -3.78100127e-01
   1.83763113e-02 -4.12802279e-01  2.75016248e-01 -2.12867603e-01
  -5.33029795e-01  7.76919961e-01 -4.52674925e-01 -3.53739798e-01
  -1.05312966e-01 -1.90764353e-01 -3.67057234e-01  7.91606233e-02
   2.67252535e-01  8.83573070e-02 -5.13990112e-02  1.13257570e-02
  -3.31968874e-01  2.38390174e-02  5.93590289e-02  1.96031690e-01
  -1.07611582e-01 -7.30204225e-01 -1.10230535e-01  5.27847946e-01
   1.63936973e-01  4.12744731e-01 -3.16870928e-01  4.20453906e-01
  -7.63617635e-01  2.64142524e-03  5.14178097e-01 -4.25233722e-01
   1.95750475e-01 -4.00995672e-01  2.45648831e-01 -1.16712913e-01
  -1.85587019e-01 -2.38710806e-01 -1.86506491e-02 -1.04757398e-03
  -1.08769247e-02  7.13523090e-01 -7.21422613e-01  2.39324600e-01
   2.18369663e-01 -6.79181337e-01 -6.14658482e-02 -3.37211579e-01
   1.89541131e-01  3.03286791e-01 -1.17416970e-01  1.96357682e-01
  -3.84968817e-01 -2.14235753e-01 -3.01717594e-02  7.40329087e-01
  -3.83549809e-01 -3.85720968e-01 -3.13900083e-01 -6.64595723e-01
   4.14583296e-01 -3.16746891e-01 -1.74159899e-01  3.69128883e-01
  -4.00242507e-01  2.23921284e-01 -1.92283601e-01 -3.42957467e-01]
 [-9.79123563e-02  5.14891706e-02 -1.43106073e-01  3.07706272e-04
  -2.96962053e-01  1.97391436e-01  1.22398123e-01 -2.50024825e-01
  -2.27235630e-01 -1.09572060e-01  5.34570396e-01 -9.38417912e-02
   3.98395300e-01 -3.79492849e-01 -1.13272838e-01 -4.02238339e-01
   6.96819946e-02 -2.67547667e-01 -5.34142256e-01 -2.05650643e-01
  -4.77442861e-01  6.29848361e-01 -1.35925636e-02  1.85511354e-02
   2.50756592e-01 -2.64558345e-01 -6.64199330e-03 -3.31509709e-02
  -4.65192586e-01  2.57073075e-01  2.36728519e-01 -2.80124843e-01
   3.40065837e-01  4.65901047e-01 -6.24095742e-03 -1.37560498e-02
   1.91508368e-01 -1.38787711e-02 -5.61323524e-01 -6.81048706e-02
  -3.70419770e-01  1.61108851e-01  1.76891387e-01 -7.43655741e-01
   8.79766047e-03  2.00828034e-02 -3.00773885e-02 -1.81578826e-02
   2.41855651e-01 -4.07140628e-02 -6.24242425e-01 -2.65972912e-01
   1.74137697e-01 -5.53684980e-02  2.56023873e-02 -7.93253541e-01
  -1.79392379e-02  4.05280888e-02  1.63965106e-01 -3.32872391e-01
   4.13768329e-02  1.51491791e-01  1.38287291e-01 -2.39262283e-01
  -4.12663847e-01  4.33984727e-01 -8.00835490e-02  1.64856508e-01
  -2.95157731e-01 -2.15605617e-01 -6.49801135e-01  1.46995351e-01
   3.13860774e-01 -6.75875172e-02 -5.38822174e-01 -4.93097782e-01
  -3.24759126e-01 -7.89676532e-02  3.03016871e-01  5.92432870e-03
  -6.33895770e-02 -1.83159307e-01  1.69132814e-01  9.25576985e-02
  -1.50439575e-01  6.35357559e-01  2.24099502e-01 -2.03248113e-01
  -5.56530178e-01  7.79239577e-04  2.62814343e-01 -2.69839644e-01
   2.90518284e-01  5.26385717e-02  2.27039143e-01 -6.19243942e-02
   3.34569722e-01 -3.93732786e-01  2.67202482e-02  2.21251622e-02
  -2.07378805e-01  2.85322756e-01 -2.12069407e-01 -1.09329335e-02
  -8.30341578e-02  2.53066346e-02 -3.05386275e-01  1.67685837e-01
   2.76357621e-01  2.37235457e-01  1.38512388e-01 -9.23453423e-04
  -2.39053711e-01 -2.50684381e-01 -1.85964182e-02  1.68230817e-01
  -3.95292968e-01 -3.83528858e-01 -5.60059786e-01 -5.30760705e-01
   1.23651333e-01 -7.12647557e-01 -2.96948403e-01  3.82090151e-01
  -1.70270801e-01  6.53178453e-01  1.21407039e-01 -3.08881581e-01]
 [-2.92483836e-01 -1.29916877e-01 -1.63612947e-01  3.29610586e-01
  -9.08831432e-02  2.40095153e-01  4.76300120e-01 -1.71905026e-01
  -2.46560484e-01  9.79191735e-02  5.54420531e-01 -2.33860135e-01
   3.46101858e-02  2.68357188e-01 -3.30754012e-01 -5.57152152e-01
   3.28304172e-01 -1.11724012e-01 -2.48588204e-01  4.55912109e-03
  -5.04680097e-01  7.39109516e-01  1.13895096e-01 -2.80586183e-01
  -5.09683311e-01  1.12050381e-02 -7.57731274e-02  3.48646753e-02
  -5.33971786e-01  1.16451196e-01  2.27292031e-01 -4.20491189e-01
   4.96467724e-02  5.36987297e-02  5.43138757e-02  3.30293626e-01
  -2.62874454e-01 -6.72918022e-01 -2.93648969e-02  7.39765987e-02
  -2.98411816e-01 -2.21427456e-01  1.31526112e-03 -1.56106040e-01
  -8.73761028e-02  1.33194774e-01  1.47953063e-01 -2.09969759e-01
   2.04900607e-01  2.76966840e-01 -1.15703873e-01 -3.62373531e-01
   8.80736932e-02 -1.45300686e-01  1.07718959e-01 -4.60551172e-01
   1.22484781e-01 -6.61329627e-02 -2.72377115e-02 -4.41188842e-01
  -3.49498205e-02 -2.58319378e-01 -1.15655258e-01 -3.47636014e-01
  -9.10275206e-02 -4.26042043e-02 -5.81911094e-02  3.36367697e-01
  -2.35542193e-01 -1.53529301e-01 -8.36866722e-02  8.30062032e-02
   3.79751801e-01 -9.70382690e-02 -3.42238098e-01 -3.11104804e-02
  -3.80416691e-01 -3.76868956e-02  2.60705650e-01  6.01955540e-02
   2.17878409e-02  2.07321942e-01  8.78883898e-02 -7.99050108e-02
  -5.73423386e-01 -9.16995108e-03  1.08988993e-01  1.22950822e-01
  -6.65551007e-01 -1.73856512e-01  1.59631118e-01 -1.88666925e-01
   1.88509449e-02 -6.80551708e-01  2.07912117e-01 -1.06596403e-01
   4.15191688e-02 -4.78106916e-01 -2.77124979e-02 -1.95221864e-02
   2.15442047e-01  4.20139849e-01 -5.63239992e-01 -1.37926430e-01
  -7.23300576e-02  1.72609165e-01  9.42224786e-02  3.48371506e-01
   3.68411273e-01 -2.38587081e-01  2.78629735e-02 -5.82347035e-01
   1.31716609e-01 -2.66324610e-01 -1.64446793e-02 -4.64447051e-01
  -3.32315356e-01 -3.81306320e-01 -6.96367443e-01 -7.73699582e-02
  -6.01615012e-01 -5.37565827e-01 -4.37476218e-01  7.25406781e-02
  -1.37803286e-01  1.83618218e-01  5.44109493e-02 -3.76866430e-01]
 [-3.15446973e-01 -1.65444046e-01 -3.38882655e-01  1.47083551e-01
   1.99596643e-01  1.71087086e-01 -1.61889732e-01 -3.07555478e-02
   2.46815085e-02 -2.38146096e-01  2.37242375e-02  2.18068302e-01
  -2.10556000e-01 -5.34235537e-01 -4.23893303e-01 -4.97635365e-01
  -1.23711914e-01 -6.09673262e-02 -2.70972669e-01  5.32698520e-02
   2.49389261e-01  1.91657171e-01  1.34588167e-01 -3.32741737e-01
  -1.48064941e-01 -1.77088842e-01 -1.17968731e-01 -5.10115325e-02
  -3.82111937e-01  2.60590180e-03 -1.49420068e-01 -2.31922567e-01
  -1.08264074e-01  1.62079662e-01  2.71716956e-02  1.85967132e-01
   1.41772419e-01 -9.69399437e-02 -4.05073285e-01 -4.14302610e-02
  -4.32336442e-02  2.40373891e-02 -1.55708894e-01 -5.08621812e-01
  -3.46376537e-03 -2.89300561e-01  1.18159927e-01 -1.21043488e-01
  -2.85151955e-02  3.12546372e-01  7.36325458e-02  2.11977154e-01
   1.35934144e-01 -8.41352344e-02  4.18303937e-01  1.23690337e-01
   2.35737458e-01 -4.84610647e-02  3.87735575e-01 -6.27728939e-01
  -1.71467513e-01 -3.18477690e-01 -4.77789462e-01 -4.03065443e-01
   2.55786389e-01  4.65344489e-02 -2.02142403e-01  2.37697601e-01
  -3.08331609e-01 -1.49223745e-01 -4.88289893e-01  1.11083411e-01
   2.44106054e-01  2.45491952e-01 -9.83574763e-02 -1.27132192e-01
  -3.19978386e-01 -5.51970713e-02  2.01379266e-02  1.54744267e-01
  -1.23678923e-01 -3.02396268e-01 -2.28791744e-01 -5.77126741e-01
  -7.03115046e-01 -7.48035312e-01 -9.13717374e-02 -2.37584174e-01
  -8.79089534e-01 -3.27149004e-01 -8.39316919e-02 -1.60651371e-01
  -1.45965293e-01 -2.73692369e-01 -9.01284665e-02 -1.29705325e-01
  -3.77666831e-01 -8.81096348e-02 -7.44719207e-02 -1.69896409e-02
   3.48823726e-01  3.93459722e-02 -1.66402534e-01  2.04294100e-01
  -2.96277672e-01  2.17002496e-01  2.05628127e-01  1.73700437e-01
   3.78867626e-01 -2.27591589e-01 -1.22752905e-01 -3.80432874e-01
   1.24432869e-01 -3.58730972e-01  1.25910148e-01  4.07249212e-01
  -1.31891385e-01 -1.35068819e-01 -2.04510972e-01 -1.24285936e-01
   1.25242263e-01 -1.45964816e-01 -2.02946544e-01 -5.54443151e-02
  -3.90416145e-01 -3.92871529e-01 -1.31472379e-01 -1.99431062e-01]
 [-2.21687764e-01 -4.40027833e-01 -2.67825991e-01  1.75528007e-03
  -3.86710763e-02  1.76214613e-02 -6.17174990e-02  1.99128717e-01
  -8.18498731e-02 -3.65552306e-01  1.03525810e-01  3.47811222e-01
  -1.83545992e-01 -3.84634525e-01 -5.57625890e-01 -2.10485280e-01
   4.26103026e-02  2.39364966e-03 -3.50171626e-01 -2.49602906e-02
   6.23877905e-02  7.96648562e-02  1.95364416e-01 -5.44925988e-01
   2.99316376e-01  6.72509521e-02  9.62011963e-02 -7.48495460e-02
   7.28585199e-03  1.80192634e-01 -3.29351574e-01 -7.20131248e-02
  -4.99952659e-02  7.00609535e-02  5.23996614e-02 -4.73590568e-03
   7.49729350e-02  2.44180579e-02 -6.54109001e-01  7.69930258e-02
  -1.57005683e-01  3.02204728e-01  2.80112643e-02 -3.75759989e-01
   1.41389400e-01  1.50163649e-02  6.75339326e-02 -1.75973296e-01
  -1.38816237e-02  3.61726522e-01  2.27997109e-01  4.02647406e-01
   2.84830362e-01 -1.31530091e-01 -2.91774869e-02  1.57451630e-01
   1.90584257e-01  5.47029078e-02 -7.23378807e-02 -5.95301509e-01
  -1.89162910e-01 -1.96039379e-01 -3.14932764e-01 -5.46343148e-01
   1.30267832e-02  2.20687181e-01 -1.44969866e-01  1.95649698e-01
  -1.91194952e-01  1.15074888e-01 -7.33148873e-01  8.71256292e-02
   2.80067623e-01  1.85572013e-01 -3.34554791e-01  1.13689631e-01
  -3.85356486e-01  6.99691698e-02 -7.98944309e-02  5.40391877e-02
   1.89344361e-02 -4.15935487e-01 -8.94013226e-01 -5.51665246e-01
  -1.66316524e-01 -4.76864129e-01  2.37603575e-01 -2.50247985e-01
  -6.14928842e-01 -5.93093514e-01 -2.22003609e-02 -2.71287262e-01
  -3.92923504e-01  2.12849319e-01  1.37151852e-01 -3.56719881e-01
  -1.87030703e-01 -1.56917691e-01  4.30829227e-02 -5.55814281e-02
   1.08421996e-01  1.52096733e-01 -1.55056790e-01  1.79778948e-01
  -2.33185455e-01  1.14081919e-01  6.85051233e-02  2.19983146e-01
  -1.52123660e-01  2.72603869e-01 -1.12257831e-01 -1.80714637e-01
  -4.38217483e-02  3.02691367e-02 -5.26469760e-03  7.48021901e-02
   1.57533750e-01 -2.18929946e-01 -2.83205658e-01 -3.11788440e-01
   1.72648486e-02 -3.74419421e-01  2.22325161e-01  1.29085615e-01
  -1.80043072e-01 -3.92067656e-02 -7.46387243e-02  1.12093695e-01]
 [ 1.62756711e-01 -3.50620270e-01 -1.01597071e-01 -1.87259063e-01
   9.45177898e-02 -1.75662085e-01 -3.74485672e-01  7.74446055e-02
   1.58710480e-01  2.35266089e-01 -2.88413793e-01 -9.13097411e-02
  -7.35360980e-01  3.13095272e-01 -2.09295884e-01 -1.09498598e-01
   1.08052522e-01  7.56097492e-03 -2.62434781e-01 -3.08053821e-01
  -6.80918694e-02 -2.93025553e-01  1.86844900e-01 -6.30291104e-01
   1.98786408e-01  4.97053117e-01  4.83011246e-01 -5.15452698e-02
   6.40146554e-01  1.30888119e-01 -4.45074320e-01  1.34057418e-01
  -1.34549066e-01 -8.10031444e-02  4.12249714e-02 -2.83536911e-01
  -1.42219603e-01  2.56083220e-01 -2.35388085e-01 -3.64413969e-02
  -1.47214547e-01 -1.16425976e-01  3.70890260e-01 -1.10967994e-01
   3.31630796e-01  3.23189557e-01 -8.05054754e-02 -9.45621729e-02
  -1.30924299e-01  2.59911716e-01 -6.27553686e-02 -1.69614837e-01
   3.77885550e-02 -1.29955098e-01 -4.70373809e-01  9.02255028e-02
  -1.17610339e-02  3.63755897e-02 -4.99953210e-01 -6.98254049e-01
  -1.65795326e-01  6.04719102e-01 -1.53721112e-03 -1.99353009e-01
   1.35023741e-03  7.56882578e-02 -3.26946288e-01  4.20300663e-01
  -2.21541315e-01  6.90752029e-01 -5.24630189e-01  2.72293519e-02
  -2.60185190e-02 -3.44790250e-01 -1.49751157e-01  1.93788409e-01
  -1.08761907e-01 -1.59081370e-02  1.00910217e-02 -4.61028926e-02
   1.78706512e-01  1.51711525e-02 -4.71395791e-01 -8.12685013e-01
   1.61781013e-02 -1.12556660e+00  5.10870993e-01  1.37474965e-02
  -4.07704175e-01 -5.51498294e-01 -1.07230581e-01 -6.40582561e-01
  -4.02059138e-01  3.70061308e-01  3.82834464e-01 -5.58949113e-01
   4.06893432e-01  1.78263914e-02 -9.93404314e-02 -8.43881443e-02
   2.65468329e-01  8.39856714e-02  4.00266230e-01  8.10204670e-02
  -3.40555638e-01  1.46665841e-01 -1.22926176e-01 -2.66147226e-01
  -8.26332718e-03  2.10975975e-01 -1.45971924e-01  1.75958455e-01
  -5.46555221e-02  2.50019655e-02  4.44652624e-02 -5.60708344e-01
  -3.73209745e-01 -3.17757100e-01 -3.14496517e-01  1.76339269e-01
  -8.65213796e-02 -6.15596890e-01  4.93613303e-01 -1.82307035e-01
   1.73439175e-01  5.04047014e-02  2.20556557e-01  4.54904646e-01]
 [ 1.78411201e-01  1.42801911e-01 -1.64585218e-01  1.22224137e-01
  -8.00528377e-03  1.35548301e-02 -2.40971744e-01 -2.50692666e-02
   1.37406603e-01  3.91934305e-01 -2.44709685e-01  4.35774736e-02
  -7.34958947e-01  2.58325368e-01 -3.45315337e-01  1.63784444e-01
   2.20784843e-01  1.19566239e-01 -3.12545359e-01 -3.20184618e-01
   3.68742049e-02 -3.14319015e-01  1.22501627e-01 -5.44077277e-01
   2.95068413e-01  7.03062490e-02  2.42139980e-01 -2.52063312e-02
   8.17005411e-02 -6.80565163e-02 -2.54487485e-01  7.71560334e-03
   1.21406697e-01 -2.58767068e-01 -2.53218692e-02  3.15929279e-02
   6.21120296e-02  2.82883555e-01 -9.89812240e-02 -4.24439795e-02
   3.53999197e-01 -2.92047292e-01  4.93023515e-01  3.17471698e-02
   2.89987892e-01  2.89528877e-01 -3.78076077e-01 -1.06714100e-01
   2.24661127e-01  2.12772280e-01  2.36438826e-01 -1.52740246e-02
   9.33948755e-02  6.28513843e-02 -1.39329031e-01  2.38355815e-01
  -1.45153061e-01  1.51146045e-02  1.66169312e-02 -4.63095546e-01
  -7.66955093e-02  5.16596079e-01 -1.56749822e-02 -2.59530425e-01
  -5.19614778e-02 -6.89290613e-02 -4.87266153e-01 -2.44157553e-01
  -2.13871039e-02  3.84758264e-01 -1.16314195e-01  6.89844713e-02
   1.79726392e-01 -1.53517440e-01 -3.56889367e-02  1.33273393e-01
   4.85982262e-02  8.69606733e-02 -2.54180342e-01 -1.31641656e-01
   2.16252685e-01  8.72513875e-02  9.51695740e-02 -9.25829589e-01
  -6.83648661e-02 -6.63272977e-01  2.29448974e-01  8.90513957e-02
  -3.02977026e-01 -6.81924582e-01  2.58340314e-02 -2.20546022e-01
  -4.75976437e-01  2.31053978e-02  1.71324357e-01 -7.19083548e-01
   2.76934449e-02  4.47207332e-01 -8.39585811e-02 -6.24853745e-02
   1.06234252e-01  1.01211250e-01  1.34058833e-01  1.90344408e-01
   1.62663721e-02 -1.74949571e-01  1.78088576e-01 -6.93753481e-01
  -1.62391141e-01  1.95112512e-01  2.24955957e-02  4.81726341e-02
   2.51588792e-01 -2.73538027e-02  5.23087122e-02 -9.79260951e-02
  -3.37543517e-01 -1.67404041e-01 -5.53281344e-02  1.68956921e-01
  -2.95908660e-01 -1.34499133e-01  2.96370208e-01 -2.63625383e-02
   1.11692086e-01  9.53048617e-02  3.22131306e-01  2.45136768e-01]
 [ 2.59996325e-01  1.79761931e-01  8.64156336e-02 -1.08102746e-01
  -1.48345888e-01  1.88983202e-01 -1.29494322e-02  2.46307269e-01
   9.71843824e-02  1.82017609e-01 -4.12606224e-02 -8.71439353e-02
  -3.57191831e-01  1.42954156e-01 -1.20953908e-02  3.97691578e-01
   2.08621368e-01 -1.58766568e-01  1.93505660e-01 -4.35185611e-01
  -2.03490153e-01 -3.06783229e-01  1.80788442e-01 -4.14307296e-01
   1.96470454e-01  3.70140607e-03  3.15714814e-02  6.52461275e-02
  -2.69883554e-02  6.70952573e-02 -4.50059064e-02  7.33238086e-02
   3.75179917e-01  1.89735875e-01  6.49994090e-02  1.73010081e-01
   8.46370123e-03  1.08445354e-01  9.07754451e-02 -7.22311288e-02
  -1.40840575e-01 -2.85685241e-01  8.38611349e-02  7.17303902e-02
   3.64045501e-01  1.49307847e-01 -5.63852489e-01 -1.55948028e-01
   2.73510814e-01  2.87588894e-01  1.95861116e-01 -6.45124838e-02
  -1.19324915e-01 -1.19807370e-01  1.37548417e-01 -1.28291875e-01
  -1.01225168e-01 -9.02641937e-03 -4.23698217e-01  1.25814900e-01
  -2.66558360e-02  1.97506368e-01  3.12043399e-01 -3.53758395e-01
   4.14095772e-03 -1.35743052e-01 -1.62579089e-01 -9.95800644e-02
   4.17591296e-02  1.86125472e-01  2.00775370e-01  1.59113318e-01
   2.73355812e-01  5.05408905e-02 -4.15209308e-02  7.73146674e-02
   4.21725124e-01 -5.89538142e-02  8.00055191e-02 -2.04091057e-01
   9.01591033e-02 -4.12288234e-02 -3.98227870e-02 -6.89506352e-01
   2.63551086e-01 -2.38895401e-01  1.15769483e-01  3.23122025e-01
   3.12624604e-01 -2.39687294e-01  2.33061537e-01 -1.27082795e-01
  -4.73107904e-01 -1.46268373e-02  1.18084185e-01 -6.18050635e-01
  -7.58984461e-02  3.33092093e-01 -9.21399370e-02  1.55819785e-02
   1.13515444e-01  1.87480345e-01 -2.96138022e-02  2.91561902e-01
  -3.56032676e-03 -1.77023306e-01  4.48695719e-01 -4.98272657e-01
   4.93575679e-03  1.28176033e-01  7.91524202e-02 -3.58978435e-02
   3.72300923e-01  1.47505542e-02 -5.56186177e-02  1.10411957e-01
   3.93257737e-02 -2.06868216e-01  2.85960853e-01  3.08936775e-01
  -2.89525837e-01  2.06634298e-01 -1.16441563e-01 -2.04153761e-01
  -2.53858805e-01  1.25974640e-01  3.38984609e-01 -9.82127935e-02]
 [ 3.78717966e-02  5.22654839e-02  3.25069994e-01  3.17102253e-01
   2.47328021e-02  2.23748893e-01  2.18280330e-01  3.67762178e-01
   7.28905275e-02 -9.21553820e-02  3.12031418e-01  8.38614628e-02
   1.63180366e-01 -2.14946583e-01  1.85187250e-01  1.86095908e-01
   1.06269374e-01 -1.01184733e-02  2.94302076e-01 -9.15050581e-02
  -1.41539559e-01 -8.01442191e-02  2.55142778e-01 -3.69158179e-01
   2.07228944e-01 -2.94847451e-02  1.31688908e-01  6.38030618e-02
  -1.63274959e-01 -6.53091967e-02  2.99378574e-01  8.79032165e-02
   9.57697630e-03  3.26584280e-01  2.59007197e-02  3.49280179e-01
   1.41950145e-01 -2.09092442e-02  2.25061793e-02 -6.13716878e-02
  -4.28289384e-01 -1.77665185e-02 -1.25803545e-01 -4.42113131e-02
   1.69716597e-01  9.47113484e-02 -4.84372288e-01 -3.02446801e-02
   1.02673024e-02  2.09755287e-01  5.75385615e-02 -5.89042641e-02
   7.56265298e-02 -3.25683653e-02 -3.48489769e-02  8.86410400e-02
   1.14460096e-01  6.86904788e-02 -5.10799170e-01  1.56264067e-01
  -4.51314002e-02  8.34082589e-02  2.51976937e-01 -2.31154636e-01
   8.78760293e-02  2.20417246e-01 -3.59291136e-02  2.36115195e-02
  -2.70542763e-02  9.01298076e-02  2.05379084e-01  4.83781323e-02
   2.59614319e-01  1.14898980e-01 -4.90732752e-02 -6.70622289e-02
  -1.73972752e-02 -5.73497526e-02  1.23264939e-01 -2.89928496e-01
   4.55861203e-02 -1.00949900e-02 -3.04151386e-01  2.55716648e-02
   1.40973672e-01  2.41676867e-01  9.56168622e-02 -5.73512986e-02
   2.89366454e-01 -1.72614381e-01  2.71909475e-01  1.83853477e-01
   3.23410556e-02  2.78406560e-01  1.85157433e-01  7.33748376e-02
  -1.72469079e-01  1.45037666e-01 -3.89516950e-02  1.57908127e-02
   2.96974510e-01  2.63509691e-01  9.70983058e-02  1.03799544e-01
   1.51846856e-01 -2.12032601e-01  2.57812083e-01  8.95643905e-02
  -2.19331503e-01  1.40084594e-01  9.53365564e-02 -1.21969767e-01
   3.43343407e-01 -3.82252247e-03 -8.86644572e-02  8.91298726e-02
   4.04876769e-02 -2.64874816e-01  3.18525642e-01 -1.32556275e-01
  -2.28569269e-01  1.08977281e-01 -1.39882892e-01 -1.18224032e-01
  -1.48400590e-01  1.56212196e-01  2.19778657e-01  1.62957132e-01]
 [ 3.68257254e-01  1.29362360e-01  1.39333487e-01  1.58311397e-01
   2.49444216e-01  1.05059825e-01  6.21412806e-02  5.24319887e-01
   1.13176703e-02  1.35164913e-02  5.11547551e-02 -2.85916150e-01
   4.26280260e-01 -1.89583659e-01  3.86109978e-01  6.77481815e-02
  -2.30372101e-02  1.72160342e-01  3.52560163e-01 -3.54353786e-02
  -8.62388983e-02 -9.38875321e-03  7.80162960e-02 -1.13193594e-01
   8.81432369e-02  6.23662248e-02  3.36387515e-01 -4.09536473e-02
  -8.17768350e-02  3.87489684e-02  5.07925928e-01  1.67324215e-01
   1.43838286e-01  2.53754199e-01 -3.79082523e-02  1.45112276e-01
  -8.04174244e-02  1.27263844e-01 -2.85362005e-02 -7.87568688e-02
  -1.90477550e-01  7.03345686e-02 -1.82497144e-01 -1.59259409e-01
   1.32597983e-01  4.53915149e-02 -2.90320128e-01 -8.31426680e-02
  -1.14690036e-01  3.39168236e-02  2.72493273e-01 -8.38458985e-02
  -1.28176913e-01 -5.16161136e-02 -8.24284703e-02  1.94531277e-01
  -1.12041622e-01 -3.84341255e-02 -5.00846624e-01  2.22623900e-01
  -9.44674164e-02  2.91216910e-01  1.33332133e-01 -1.59711912e-01
   1.98807150e-01 -1.84744984e-01  8.58885646e-02  7.84509778e-02
   4.11746353e-02  3.09124202e-01  9.46491808e-02 -6.71110526e-02
   1.04788855e-01  5.55933528e-02  2.84715503e-01  1.93653479e-01
  -6.38484880e-02 -3.44432978e-04  2.16375127e-01  3.46369036e-02
  -3.82755399e-02  1.13724522e-01 -2.02954352e-01  9.43057090e-02
   2.42450178e-01  3.81519884e-01  1.73389256e-01 -2.74320599e-02
  -6.98150322e-02  3.51465456e-02  1.34098649e-01  2.13908717e-01
   2.86013782e-01  3.64719927e-01 -2.58175889e-03  3.74647588e-01
   4.19215746e-02 -4.32564765e-01 -1.07021272e-01  4.14144956e-02
   1.65637985e-01  2.84193065e-02  1.21811159e-01 -5.59537411e-02
   5.76395169e-02 -1.51346534e-01  2.19232976e-01  3.04020256e-01
  -3.71382982e-01 -1.17564537e-01  1.91781268e-01 -1.70989215e-01
   3.43056381e-01 -3.56693596e-01  1.49481967e-02 -7.25975782e-02
   1.39028460e-01 -3.47927138e-02  4.49353337e-01 -5.12420051e-02
  -2.05395088e-01  9.17665586e-02  1.44929722e-01 -2.74980634e-01
   8.13163891e-02 -2.51844972e-01  2.79537231e-01  2.03490734e-01]
 [ 3.63182902e-01  1.99384242e-01  1.82111695e-01  1.12668887e-01
   3.36204380e-01 -1.79015100e-02  1.42993540e-01  5.13159811e-01
   2.84569591e-01  2.53374398e-01 -1.98153496e-01 -3.75715196e-01
   2.67739177e-01  2.59878356e-02  4.46867168e-01  3.29740822e-01
  -2.96234965e-01  2.47571066e-01  3.51417661e-01  1.16231740e-02
  -1.16315380e-01 -1.92440629e-01 -1.73351213e-01 -2.28203889e-02
   9.21458527e-02  1.42531097e-01  3.72521132e-01  2.42573973e-02
   1.98245004e-01  1.29761904e-01  3.70312214e-01  1.65041074e-01
   1.81625843e-01  4.01342750e-01 -2.58372445e-02  1.44678116e-01
  -2.40825027e-01  1.48963511e-01  9.28051770e-02  3.00264731e-02
  -3.52093354e-02 -2.29787584e-02 -6.73223436e-02  1.37797087e-01
   1.73351794e-01  9.24703553e-02 -4.96363848e-01 -9.42011252e-02
  -3.16461146e-01  1.41447589e-01  1.24962814e-01 -3.73265028e-01
  -1.08725145e-01 -3.26455384e-02  1.35032577e-03  1.08008467e-01
  -1.90733910e-01  2.14261562e-02 -4.10674542e-01 -2.47844309e-02
  -3.95437889e-02  3.23597580e-01 -6.12267666e-02 -1.54998064e-01
   1.64874166e-01 -5.20948350e-01  2.04683274e-01  8.60444307e-02
  -1.18369177e-01  2.88408369e-01  1.58211812e-01  6.84538633e-02
  -1.18646353e-01 -1.79826647e-01  4.70752895e-01  8.57144445e-02
  -6.54310873e-03 -4.62973788e-02  1.40200123e-01 -7.22901076e-02
   3.57292220e-02 -4.48493622e-02  1.10213691e-02  1.41348273e-01
   2.37369597e-01  2.40153790e-01  3.78062248e-01  2.27951318e-01
  -2.07310855e-01  1.05343483e-01  7.58248121e-02  3.80502075e-01
   3.07239354e-01  4.50952590e-01 -9.48501974e-02  2.42092043e-01
   2.43081823e-01 -4.18767571e-01 -1.14550494e-01 -1.30255800e-02
   2.40992159e-01  3.39464238e-03  1.44134611e-01  1.05216950e-01
   1.72233693e-02  6.52676821e-02  3.54554176e-01  2.26471663e-01
  -4.45241518e-02 -1.14098676e-01  1.66522190e-01 -9.89697576e-02
   3.63508224e-01 -2.66676277e-01 -7.14890510e-02  3.94510627e-02
   1.61508247e-01  5.09895384e-02  4.62424219e-01  1.35267854e-01
  -2.19959855e-01  2.02107117e-01  1.94870368e-01 -4.40164208e-01
   2.47966796e-01 -5.55364907e-01  3.26229125e-01  1.03147842e-01]
 [ 3.57120633e-01  8.38290602e-02  2.90036172e-01  1.76427618e-01
   1.68675348e-01  5.05952053e-02  3.96111101e-01  4.61330444e-01
   3.48869920e-01  1.43235594e-01  1.31684259e-01 -1.06749609e-01
   1.98751718e-01 -2.50368208e-01  3.25367153e-01  1.62069738e-01
  -1.24880828e-01  1.48628637e-01  5.02323747e-01 -4.12830710e-02
  -1.35124356e-01 -9.23521221e-02 -7.72942528e-02 -1.22404017e-01
   1.78459119e-02 -1.75460666e-01  1.39350414e-01  3.85199077e-02
  -2.85995249e-02 -1.09816886e-01  3.06734025e-01  1.44171968e-01
   1.15843234e-03  2.92712241e-01 -6.54796362e-02  2.97787338e-01
  -1.35531455e-01 -1.19845487e-01  3.10957469e-02 -7.66487122e-02
   1.38968304e-01 -4.87530567e-02 -1.22234441e-01  3.15786190e-02
  -2.91556702e-03  1.10635616e-01 -5.58512747e-01 -7.41020590e-02
  -4.16449830e-02  9.93677750e-02  2.12643772e-01 -1.50477767e-01
  -1.35578558e-01 -1.02318101e-01  3.35943162e-01  3.25407505e-01
  -3.65341492e-02  4.48035672e-02 -3.60795557e-01  1.23940609e-01
   6.13223128e-02  9.92177129e-02  1.10877723e-01 -2.79469132e-01
   3.20546925e-01 -1.93523675e-01  3.05229843e-01 -3.87453549e-02
  -1.70682982e-01  1.63528144e-01  2.37272471e-01  1.31267741e-01
   1.21812865e-01  6.42650714e-03  3.43207181e-01  1.63149819e-01
   1.35621116e-01 -8.31229554e-04  8.14354643e-02 -8.60252082e-02
  -9.36501026e-02 -6.66568428e-02 -4.06820744e-01  2.37735584e-01
  -3.85645451e-03  2.99260437e-01  1.62357897e-01  2.36115500e-01
   8.94430727e-02  3.52655441e-01  1.67572901e-01  2.96401531e-01
   3.35759193e-01  4.16635334e-01 -1.91849738e-01  4.22971785e-01
  -2.07454234e-01 -1.81675926e-02 -5.69653809e-02  4.90564741e-02
   1.79906860e-01  8.60951543e-02 -2.69873682e-02 -1.02017604e-01
   4.76998955e-01 -3.28114927e-02  4.71926510e-01  2.89314896e-01
  -2.32800931e-01 -1.52552903e-01  1.05263531e-01 -2.76709318e-01
   3.79560500e-01 -3.02053839e-01 -6.39661551e-02  3.20823282e-01
   4.11518872e-01  2.28239931e-02  3.88230026e-01 -2.79927859e-03
  -4.89343032e-02  2.28662595e-01  8.94030556e-02 -2.11810932e-01
  -4.24327590e-02 -2.08539695e-01  1.53706998e-01  9.19569191e-03]
 [ 2.72515625e-01  7.33077750e-02  7.72726014e-02 -3.95286344e-02
   1.09731071e-01  2.47944310e-01 -1.29296109e-01  1.89728394e-01
   2.17683673e-01  2.77412802e-01 -2.48253405e-01 -3.96680608e-02
  -2.10686594e-01 -9.72790644e-02  7.84351751e-02  2.12245509e-01
   1.79415315e-01  3.78101431e-02  2.84304291e-01 -4.36016649e-01
   2.59257983e-02 -3.09741199e-01  1.76671639e-01 -2.36964896e-01
  -5.35318442e-02 -1.80476427e-01  2.25564227e-01 -4.93363403e-02
  -1.43299296e-01  7.60618132e-03  3.38705699e-03  5.90037592e-02
   2.63399065e-01  7.76431635e-02  4.73745428e-02  5.20569049e-02
   1.15064308e-02  3.71035635e-02  6.89378232e-02  5.28331921e-02
   1.79997057e-01 -2.01626182e-01 -4.23725881e-02  1.96252033e-01
   5.14970541e-01  1.84680909e-01 -6.98920369e-01 -7.55825341e-02
   2.38686144e-01  1.05570741e-01  2.39349633e-01  6.02840520e-02
  -1.73752204e-01 -2.01721162e-01  4.19928730e-02  1.68187156e-01
  -1.06948487e-01 -3.21729630e-02 -4.08724010e-01  1.98667169e-01
   1.20577104e-01  2.63921797e-01  3.63176048e-01  1.42709240e-01
   2.36970589e-01 -4.83872592e-02  2.00400740e-01 -6.67140856e-02
  -1.98043689e-01 -3.51704396e-02  1.84754916e-02  1.10184476e-01
   1.36926413e-01 -1.31289601e-01  1.88126162e-01  1.69710949e-01
   1.33816540e-01 -7.79716372e-02 -1.68905798e-02 -3.22366744e-01
  -4.12346236e-02  6.14363179e-02 -2.39002749e-01 -3.25005293e-01
   2.47890458e-01 -2.33045012e-01  8.98435488e-02  5.25579043e-02
   4.38447207e-01 -1.22678079e-01  1.43886268e-01 -4.24358323e-02
   2.17017785e-01  3.48332942e-01 -1.10027134e-01 -9.15495083e-02
  -1.83022812e-01  2.15700835e-01 -7.10307658e-02 -7.59045556e-02
  -2.18841210e-01 -6.25290582e-03  1.29990578e-01  2.23197788e-02
   1.66655436e-01 -1.05135635e-01  4.35674250e-01 -6.10196926e-02
  -3.74612175e-02  2.29474515e-01 -1.00893071e-02  2.74573499e-03
   2.68438160e-01 -8.37072209e-02 -5.47700189e-02  1.35351151e-01
   3.46273661e-01 -3.63843818e-03  2.01015308e-01  1.22002952e-01
  -1.35940835e-01  2.99052924e-01  2.68526524e-02 -2.00206444e-01
  -1.76790178e-01  2.22872719e-01  2.89763510e-01 -1.79374486e-01]
 [ 1.86029971e-01  1.70288071e-01 -2.28831366e-01 -1.43726826e-01
   2.72851884e-02  1.31894918e-02 -2.60484099e-01 -8.61182213e-02
   3.07616383e-01  6.74585581e-01 -2.50529736e-01  1.38351113e-01
  -5.99244952e-01  3.43741328e-01 -1.31268278e-01  2.28109643e-01
   2.70170212e-01 -1.17752768e-01 -4.13811542e-02 -4.20789540e-01
   3.61044407e-02 -5.19852459e-01  3.19805622e-01 -4.18836802e-01
   1.02933809e-01  7.53922686e-02  2.05944628e-01 -4.06845734e-02
   6.52373955e-02  6.06210716e-02 -1.48778498e-01 -1.82001442e-01
   3.19219470e-01 -1.40246779e-01  6.48834854e-02 -4.80115078e-02
   1.79266408e-01  2.16385007e-01  7.43226483e-02 -8.96330625e-02
   2.24624742e-02 -2.30027705e-01  3.39409262e-02  3.22256804e-01
   4.11794454e-01  1.33149520e-01 -7.04901099e-01 -2.03939885e-01
  -2.41616368e-01  2.44862214e-01  2.63205767e-01  2.11205944e-01
  -2.37028852e-01 -1.17483236e-01 -1.96619965e-02  2.31532335e-01
  -1.74972102e-01 -1.15437480e-02 -1.91532910e-01 -9.07149836e-02
   1.23641737e-01  3.29156011e-01  1.91056997e-01  4.13992256e-02
   1.22908056e-01 -1.00476414e-01 -1.75494224e-01 -1.28966779e-01
  -2.91303605e-01  2.25291118e-01 -1.09041855e-02 -1.11581042e-01
   8.63770768e-02 -2.22135991e-01 -2.53826249e-02  9.65137407e-03
   1.15358651e-01  6.15847856e-02 -1.73630044e-01 -2.74717778e-01
  -8.70773643e-02 -1.20318877e-02  5.25422618e-02 -1.03579915e+00
   1.51859354e-02 -6.57306433e-01  1.97607309e-01  2.11914137e-01
   2.32674360e-01 -4.54582393e-01  1.73511237e-01 -1.60986871e-01
  -4.18939441e-01  3.96695025e-02 -7.70877907e-03 -2.39342690e-01
  -1.03719011e-02  3.67977028e-03 -4.34902795e-02  2.60260142e-02
  -5.79334162e-02  8.94747078e-02  8.61790031e-02 -1.06325850e-01
  -2.10253447e-02 -4.92674038e-02  3.56347233e-01 -4.81784761e-01
  -1.10447640e-02  1.12563245e-01 -8.58570710e-02  8.65078494e-02
   5.10780700e-02 -1.46107271e-01 -2.08478533e-02 -1.33838411e-02
   5.76279834e-02  1.50214806e-01  1.50242224e-01  4.44647521e-01
  -5.48411831e-02  1.78439006e-01  8.21306705e-02 -1.29589573e-01
  -7.92998746e-02  6.86731711e-02  4.43704814e-01  1.74872503e-01]
 [ 2.68538088e-01  2.79762018e-02 -1.68672651e-01 -4.03357744e-01
   3.04782331e-01 -2.22243503e-01 -5.58950365e-01  1.78535447e-01
   2.44465470e-01  5.25860846e-01 -4.66540545e-01  7.57018402e-02
  -7.22691059e-01  3.08560342e-01  2.86170900e-01  2.66553193e-01
   3.06202352e-01  7.55807757e-02 -3.77912700e-01 -3.95513237e-01
   1.80085063e-01 -4.08629328e-01  1.56098247e-01 -6.49929821e-01
  -4.52956073e-02  3.87929976e-01  4.03717786e-01 -2.90187038e-02
   1.00027315e-01 -1.31288067e-01 -2.48528674e-01 -3.52966748e-02
   2.52589434e-01 -5.21093905e-02 -7.02439900e-03 -3.09399247e-01
  -1.65889457e-01  2.26700723e-01  9.54351425e-02  3.51428539e-02
   8.84467363e-02 -5.07236980e-02  8.27862695e-03  4.78028566e-01
   4.87667561e-01  2.31654525e-01 -4.81706947e-01 -1.30647644e-01
  -1.71053514e-01  2.52215087e-01  3.26155603e-01  1.40196398e-01
   3.99287269e-02 -1.90969363e-01 -2.44630024e-01  2.37227514e-01
  -2.98047483e-01 -3.37886475e-02 -3.07527602e-01  1.52918547e-02
  -5.82072660e-02  4.28106308e-01  1.64337739e-01  7.00216293e-02
   3.02722659e-02 -2.19368756e-01 -1.81011975e-01  1.56608030e-01
  -2.84580022e-01  4.25759196e-01 -3.11508864e-01  1.10943437e-01
  -2.39333421e-01 -3.79049480e-01 -5.11026494e-02  1.35658905e-01
  -2.96814498e-02 -1.67912953e-02 -2.82330327e-02 -2.81883068e-02
  -3.39445293e-01  9.61092860e-02  2.55309027e-02 -1.24358439e+00
   3.81709725e-01 -1.31133175e+00  2.34050736e-01  5.24708927e-02
  -1.56062171e-01 -3.36179554e-01 -4.95713688e-02 -2.47067586e-01
  -2.68190444e-01  3.86205763e-01  7.56802112e-02 -5.72316833e-02
   2.78804660e-01 -8.49748850e-02 -6.04483113e-02  4.11496237e-02
   1.32948399e-01 -2.49428049e-01  1.52026385e-01  8.90522748e-02
  -2.26451516e-01  1.11812174e-01 -7.32418597e-02 -3.71167868e-01
  -4.81496871e-01 -9.36627015e-03 -7.66442791e-02  3.00643325e-01
   7.98742697e-02  5.58878528e-03  3.95633839e-02 -2.80010402e-01
  -2.08132997e-01  1.58218682e-01  5.33317924e-02  1.79245904e-01
  -3.07846498e-02 -1.71900764e-01  2.61756271e-01  2.92103812e-02
   2.85025507e-01  5.08973226e-02  3.51613373e-01  4.82539296e-01]
 [ 1.27761031e-03  5.88648468e-02  1.56268254e-02 -3.12821090e-01
   2.66384661e-01 -2.32860729e-01 -4.42532688e-01  2.67051578e-01
   1.62128314e-01  8.58562812e-02 -3.52128685e-01  1.67410210e-01
  -5.99665582e-01 -2.28625715e-01  9.74412188e-02 -3.63687426e-01
   2.03099236e-01  1.58751264e-01 -4.50034112e-01 -2.62905031e-01
   2.17570171e-01 -2.98446417e-01  1.81663424e-01 -5.39389968e-01
   4.28172164e-02  4.08378482e-01  5.04834652e-01  5.50144687e-02
   8.18219036e-02 -1.84133083e-01 -1.68632790e-02  1.19883075e-01
   1.46492040e-02  1.04743615e-01  4.60447557e-02 -3.37238610e-02
